{"sizes":[100,50,37],"layers":[{"0":{},"1":{},"2":{},"3":{},"4":{},"5":{},"6":{},"7":{},"8":{},"9":{},"10":{},"11":{},"12":{},"13":{},"14":{},"15":{},"16":{},"17":{},"18":{},"19":{},"20":{},"21":{},"22":{},"23":{},"24":{},"25":{},"26":{},"27":{},"28":{},"29":{},"30":{},"31":{},"32":{},"33":{},"34":{},"35":{},"36":{},"37":{},"38":{},"39":{},"40":{},"41":{},"42":{},"43":{},"44":{},"45":{},"46":{},"47":{},"48":{},"49":{},"50":{},"51":{},"52":{},"53":{},"54":{},"55":{},"56":{},"57":{},"58":{},"59":{},"60":{},"61":{},"62":{},"63":{},"64":{},"65":{},"66":{},"67":{},"68":{},"69":{},"70":{},"71":{},"72":{},"73":{},"74":{},"75":{},"76":{},"77":{},"78":{},"79":{},"80":{},"81":{},"82":{},"83":{},"84":{},"85":{},"86":{},"87":{},"88":{},"89":{},"90":{},"91":{},"92":{},"93":{},"94":{},"95":{},"96":{},"97":{},"98":{},"99":{}},{"0":{"bias":0.7437463998794556,"weights":{"0":-0.4064522087574005,"1":2.250704526901245,"2":-1.203182339668274,"3":-1.9037693738937378,"4":0.1783825159072876,"5":-0.6495484113693237,"6":0.7076895833015442,"7":1.1949087381362915,"8":-1.7129974365234375,"9":-0.20652534067630768,"10":3.0463693141937256,"11":1.7214206457138062,"12":-0.5400682091712952,"13":1.8673051595687866,"14":-2.950301170349121,"15":-0.7125042676925659,"16":-1.4479880332946777,"17":-0.09948071837425232,"18":0.8276979327201843,"19":-0.01224622130393982,"20":-0.8462420701980591,"21":1.5414059162139893,"22":0.7919231057167053,"23":2.5305635929107666,"24":-1.133842945098877,"25":3.447388172149658,"26":-0.25099900364875793,"27":-1.5852203369140625,"28":-2.0199432373046875,"29":2.081395387649536,"30":2.5011677742004395,"31":-2.8032195568084717,"32":-2.706282377243042,"33":2.381854295730591,"34":-0.30647048354148865,"35":2.7138285636901855,"36":3.437056303024292,"37":3.598663568496704,"38":-1.6075010299682617,"39":0.7195602655410767,"40":1.631409764289856,"41":0.30235755443573,"42":-0.6422067284584045,"43":5.189558982849121,"44":0.10760407894849777,"45":-0.7174060940742493,"46":0.2112979292869568,"47":-1.935695767402649,"48":1.0061147212982178,"49":-5.452866554260254,"50":-0.8537800312042236,"51":2.4880971908569336,"52":5.08484411239624,"53":-1.523195505142212,"54":-1.4094799757003784,"55":-0.13535597920417786,"56":-0.8589420318603516,"57":-2.9611966609954834,"58":-3.806037425994873,"59":1.5071032047271729,"60":-2.8924317359924316,"61":0.19129957258701324,"62":2.1984548568725586,"63":0.7409511208534241,"64":-1.4181687831878662,"65":0.7428495287895203,"66":-3.0661420822143555,"67":1.92429518699646,"68":-3.5215423107147217,"69":-0.3967365622520447,"70":-2.213724374771118,"71":-0.6796251535415649,"72":-0.08782824873924255,"73":1.1355863809585571,"74":-1.1807175874710083,"75":1.8351726531982422,"76":-2.1437230110168457,"77":-0.2259381264448166,"78":-1.28765869140625,"79":-4.389857769012451,"80":-0.43646976351737976,"81":1.467893362045288,"82":-0.15899577736854553,"83":-0.7971827983856201,"84":-0.09421311318874359,"85":-0.5409589409828186,"86":1.102291226387024,"87":0.16177122294902802,"88":1.8237355947494507,"89":-0.16818998754024506,"90":0.1144440770149231,"91":1.1976580619812012,"92":-1.03993558883667,"93":-0.17596979439258575,"94":-0.22674532234668732,"95":-0.18417805433273315,"96":1.5256139039993286,"97":-0.9254158139228821,"98":1.8763182163238525,"99":-0.3155166506767273}},"1":{"bias":-0.7349928617477417,"weights":{"0":0.57198166847229,"1":2.4166390895843506,"2":-2.9089744091033936,"3":0.5356417298316956,"4":1.1129552125930786,"5":1.137573003768921,"6":0.03890039399266243,"7":-1.7130837440490723,"8":2.1293866634368896,"9":1.197698712348938,"10":-2.6661665439605713,"11":-3.275237798690796,"12":-0.7329037189483643,"13":0.8157384395599365,"14":1.783825397491455,"15":0.3663340210914612,"16":-0.4355594217777252,"17":-1.7309647798538208,"18":-0.7271098494529724,"19":1.3526246547698975,"20":-0.5445016622543335,"21":-1.5400549173355103,"22":-1.6916483640670776,"23":-2.8403360843658447,"24":-0.3166049122810364,"25":-1.8560854196548462,"26":0.6222589612007141,"27":-1.3536206483840942,"28":-0.38487645983695984,"29":1.1260524988174438,"30":2.1226491928100586,"31":-1.2639811038970947,"32":-0.33350202441215515,"33":1.70962655544281,"34":3.403510332107544,"35":-1.0420620441436768,"36":1.1036524772644043,"37":0.7573914527893066,"38":-2.587151527404785,"39":-1.5451775789260864,"40":1.7877447605133057,"41":-1.3905802965164185,"42":0.8853503465652466,"43":3.6610546112060547,"44":2.0168771743774414,"45":2.791496992111206,"46":1.008418321609497,"47":-1.674566388130188,"48":0.7412591576576233,"49":1.53245210647583,"50":-1.9385303258895874,"51":0.8988539576530457,"52":-0.9936814904212952,"53":0.7671062350273132,"54":2.102599859237671,"55":-1.418291687965393,"56":-1.1578412055969238,"57":-2.666290760040283,"58":0.07950394600629807,"59":2.177410125732422,"60":-0.10108727216720581,"61":1.8918375968933105,"62":-1.3191076517105103,"63":-2.7964375019073486,"64":2.680537462234497,"65":0.30789169669151306,"66":3.9126040935516357,"67":-0.27078843116760254,"68":-0.06258431822061539,"69":-1.901352882385254,"70":1.1410506963729858,"71":-1.1983152627944946,"72":-2.2253530025482178,"73":-1.4183293581008911,"74":0.4826068580150604,"75":-0.8512681126594543,"76":-4.459218502044678,"77":-0.0038124453276395798,"78":-2.157270669937134,"79":1.585714340209961,"80":2.731452465057373,"81":-0.3168174922466278,"82":2.0678341388702393,"83":0.3898780643939972,"84":-4.826209545135498,"85":-3.5168540477752686,"86":-0.7286871671676636,"87":3.8455889225006104,"88":0.2991197407245636,"89":-1.9445255994796753,"90":-3.116048574447632,"91":-0.005922716110944748,"92":-1.3400050401687622,"93":-1.3225196599960327,"94":3.003467559814453,"95":1.3073208332061768,"96":0.9018690586090088,"97":2.367385149002075,"98":4.722738742828369,"99":-2.308398723602295}},"2":{"bias":-1.5474482774734497,"weights":{"0":-1.749913215637207,"1":2.5535850524902344,"2":0.7710515856742859,"3":-0.674217164516449,"4":2.2090647220611572,"5":0.47043123841285706,"6":-1.2632203102111816,"7":1.3002309799194336,"8":-0.0917232483625412,"9":-3.207150459289551,"10":0.1433456987142563,"11":2.5530147552490234,"12":2.332205295562744,"13":-1.7197433710098267,"14":-0.35319212079048157,"15":0.6532465815544128,"16":0.011550560593605042,"17":1.154705286026001,"18":4.429614543914795,"19":2.503051519393921,"20":-2.0224785804748535,"21":1.047924280166626,"22":1.782372236251831,"23":-2.5075743198394775,"24":0.45400625467300415,"25":-2.5357375144958496,"26":-2.3332502841949463,"27":2.120234727859497,"28":-0.6243731379508972,"29":-0.9639315009117126,"30":4.116866111755371,"31":0.35578155517578125,"32":1.0644357204437256,"33":2.603700637817383,"34":2.1361677646636963,"35":0.9664531350135803,"36":-2.0119059085845947,"37":-2.003202438354492,"38":2.6355948448181152,"39":1.200762391090393,"40":0.08248992264270782,"41":-2.3545925617218018,"42":-4.048003673553467,"43":1.2822041511535645,"44":1.388622522354126,"45":-1.3495291471481323,"46":-2.5531346797943115,"47":2.6048359870910645,"48":-2.902820587158203,"49":-3.0607454776763916,"50":3.6759085655212402,"51":1.6411067247390747,"52":2.5453884601593018,"53":-0.6583576202392578,"54":-0.29581841826438904,"55":0.49352362751960754,"56":2.6703014373779297,"57":1.4428547620773315,"58":1.3604260683059692,"59":1.5149177312850952,"60":0.45749425888061523,"61":-0.212522953748703,"62":-1.9635844230651855,"63":-1.26534104347229,"64":0.7807146906852722,"65":2.567094087600708,"66":-2.5715198516845703,"67":-2.20544171333313,"68":-1.5998399257659912,"69":2.308468818664551,"70":-0.678813636302948,"71":2.0527470111846924,"72":-0.8539232611656189,"73":3.1301655769348145,"74":-0.15834984183311462,"75":-3.3737096786499023,"76":0.23079416155815125,"77":1.349958062171936,"78":-0.2009173184633255,"79":0.7500554323196411,"80":-1.5332036018371582,"81":-1.872353434562683,"82":0.5974903702735901,"83":0.5454135537147522,"84":-0.4661223292350769,"85":-0.3386969268321991,"86":-1.8836652040481567,"87":-0.3785090148448944,"88":-1.6775639057159424,"89":0.588514506816864,"90":0.9756395220756531,"91":2.726227283477783,"92":-0.062566377222538,"93":0.24639834463596344,"94":0.706559419631958,"95":1.3328536748886108,"96":-1.1897169351577759,"97":-5.749266147613525,"98":-1.0521610975265503,"99":-2.5149588584899902}},"3":{"bias":2.178046226501465,"weights":{"0":-0.09652586281299591,"1":0.5674359202384949,"2":-1.8227746486663818,"3":0.3460082709789276,"4":-0.977169930934906,"5":-0.30410313606262207,"6":2.902116298675537,"7":-0.5415531992912292,"8":1.9027036428451538,"9":-0.2239466905593872,"10":0.33182278275489807,"11":0.09778136014938354,"12":-0.49506402015686035,"13":-0.06640402227640152,"14":-3.1910152435302734,"15":1.166334867477417,"16":0.577087938785553,"17":-0.49122047424316406,"18":-0.47985684871673584,"19":0.602368175983429,"20":-1.1461797952651978,"21":-1.460126280784607,"22":-0.5941041111946106,"23":1.8618626594543457,"24":-1.4870977401733398,"25":1.1377969980239868,"26":1.1169236898422241,"27":-0.6269975304603577,"28":0.011967112310230732,"29":1.1143697500228882,"30":0.8672633767127991,"31":1.1038334369659424,"32":0.41337665915489197,"33":0.5909550786018372,"34":0.09665139019489288,"35":0.09716350585222244,"36":1.0815489292144775,"37":-0.010926940478384495,"38":-1.3692971467971802,"39":0.6659766435623169,"40":0.7378659844398499,"41":1.0497630834579468,"42":-0.12151656299829483,"43":0.6989134550094604,"44":2.174048662185669,"45":-0.11460275948047638,"46":0.7886158227920532,"47":0.1311570554971695,"48":-3.788722276687622,"49":0.6695483922958374,"50":1.6318318843841553,"51":-1.32980477809906,"52":0.8698713183403015,"53":-0.1617373377084732,"54":-0.4730214774608612,"55":-0.26098257303237915,"56":-0.20606614649295807,"57":-2.725358724594116,"58":-1.6652746200561523,"59":3.9078071117401123,"60":0.19148647785186768,"61":1.8499031066894531,"62":0.02436213381588459,"63":0.011921051889657974,"64":-1.4651362895965576,"65":2.0642199516296387,"66":-0.3776257038116455,"67":1.2860561609268188,"68":1.487235188484192,"69":-0.5263017416000366,"70":0.3719201982021332,"71":-1.955643892288208,"72":-0.04163522273302078,"73":-2.1251633167266846,"74":-3.7289540767669678,"75":-0.15931685268878937,"76":-0.6279054880142212,"77":-0.1330607831478119,"78":-0.5142650604248047,"79":1.7185739278793335,"80":-1.6380864381790161,"81":-1.6841912269592285,"82":-0.9735575318336487,"83":-1.9672479629516602,"84":-0.5350946187973022,"85":-2.185415267944336,"86":-2.4819111824035645,"87":1.5225584506988525,"88":-0.9451399445533752,"89":-0.5852497816085815,"90":0.7129079103469849,"91":4.723575592041016,"92":1.379386305809021,"93":0.6456605195999146,"94":-0.3714883327484131,"95":-2.142707586288452,"96":0.1772403120994568,"97":-2.405874490737915,"98":-0.2964705228805542,"99":-0.1633792668581009}},"4":{"bias":0.6985061764717102,"weights":{"0":3.3464434146881104,"1":1.7413818836212158,"2":-1.0994470119476318,"3":2.0247623920440674,"4":0.5624858140945435,"5":0.03917372599244118,"6":1.0108871459960938,"7":-0.5641238689422607,"8":-1.6754897832870483,"9":-0.8566007614135742,"10":-1.079490303993225,"11":0.21842218935489655,"12":0.9510690569877625,"13":-1.750524640083313,"14":-0.9074467420578003,"15":-2.258960008621216,"16":-0.27822619676589966,"17":-2.3909411430358887,"18":0.6498845219612122,"19":-1.4143612384796143,"20":-0.6500991582870483,"21":-1.231677532196045,"22":1.3606908321380615,"23":1.2421694993972778,"24":-0.2693512439727783,"25":-2.049461603164673,"26":-2.139181137084961,"27":-1.8750793933868408,"28":1.1262192726135254,"29":-0.36594319343566895,"30":-0.2537088394165039,"31":-1.251589298248291,"32":0.334244966506958,"33":3.317779779434204,"34":0.34281665086746216,"35":1.7013360261917114,"36":0.6560299396514893,"37":-0.06872449070215225,"38":-1.4997098445892334,"39":-2.351978302001953,"40":1.337029218673706,"41":1.9400136470794678,"42":-3.3290038108825684,"43":-1.302107334136963,"44":-1.5939630270004272,"45":-2.4163293838500977,"46":0.500444233417511,"47":0.676132082939148,"48":3.3964781761169434,"49":0.5752875804901123,"50":-1.4547719955444336,"51":0.17693808674812317,"52":-0.2858252227306366,"53":-0.2950190007686615,"54":0.8283625245094299,"55":2.157383918762207,"56":0.9620109796524048,"57":0.8474427461624146,"58":-2.5925235748291016,"59":-1.0662893056869507,"60":2.280567169189453,"61":-0.33894193172454834,"62":1.8782936334609985,"63":-0.5340628623962402,"64":3.2204627990722656,"65":-1.470748782157898,"66":0.5114250183105469,"67":-0.4147290885448456,"68":-0.9045782685279846,"69":-0.7055854201316833,"70":-2.9121029376983643,"71":0.21605980396270752,"72":2.7597291469573975,"73":1.2185916900634766,"74":-2.0035243034362793,"75":1.6492152214050293,"76":-0.6706182956695557,"77":0.7739979028701782,"78":-2.3558239936828613,"79":0.09139708429574966,"80":-0.7721086740493774,"81":0.656419038772583,"82":-1.8644129037857056,"83":0.9302716851234436,"84":-0.0112603809684515,"85":1.4350947141647339,"86":1.8595422506332397,"87":-5.116113662719727,"88":0.4349445104598999,"89":1.6387377977371216,"90":1.4854655265808105,"91":1.159121036529541,"92":-0.9164025783538818,"93":-2.50134539604187,"94":2.3396263122558594,"95":0.25832322239875793,"96":-1.8058048486709595,"97":3.87460994720459,"98":-0.7118467092514038,"99":1.0877102613449097}},"5":{"bias":0.40136027336120605,"weights":{"0":0.6902601718902588,"1":0.004629197064787149,"2":1.4553920030593872,"3":-0.42211607098579407,"4":0.08805061131715775,"5":-1.3258531093597412,"6":-2.384523868560791,"7":3.8123202323913574,"8":0.7693212628364563,"9":0.013307441025972366,"10":-0.17758694291114807,"11":-1.6609623432159424,"12":-1.6465263366699219,"13":-3.048325777053833,"14":-2.837545156478882,"15":-2.5985052585601807,"16":-4.064281463623047,"17":0.9083488583564758,"18":2.7307627201080322,"19":0.8484156131744385,"20":2.393435001373291,"21":2.33571720123291,"22":-0.1065380871295929,"23":-3.049345016479492,"24":0.04735859856009483,"25":0.9100291728973389,"26":-0.11447789520025253,"27":0.9607645869255066,"28":-2.4032742977142334,"29":0.8844165802001953,"30":0.4776257276535034,"31":1.9206324815750122,"32":0.5334510207176208,"33":0.21980857849121094,"34":-0.850633442401886,"35":-2.973069667816162,"36":-2.9808599948883057,"37":-0.9194758534431458,"38":-0.42018449306488037,"39":-3.126131772994995,"40":-2.1898484230041504,"41":-2.7755839824676514,"42":-0.3900095522403717,"43":-2.146354913711548,"44":-0.3127683699131012,"45":0.18633651733398438,"46":0.965869128704071,"47":1.1247166395187378,"48":-0.9646585583686829,"49":-0.8558074235916138,"50":1.0242300033569336,"51":1.534314513206482,"52":1.83978271484375,"53":-0.7766546607017517,"54":0.8209711313247681,"55":1.6363129615783691,"56":-0.03610076755285263,"57":-3.4009692668914795,"58":-0.31239771842956543,"59":0.023036813363432884,"60":3.304410457611084,"61":3.0356943607330322,"62":-0.9527127146720886,"63":0.19613537192344666,"64":-3.277285099029541,"65":-0.5496559143066406,"66":-1.8723998069763184,"67":0.4356633126735687,"68":2.509073495864868,"69":0.07390561699867249,"70":-1.3547686338424683,"71":-0.915660560131073,"72":3.5550918579101562,"73":0.9754517078399658,"74":1.7638394832611084,"75":1.572103500366211,"76":-1.3307273387908936,"77":1.6213263273239136,"78":2.8638405799865723,"79":0.2078259438276291,"80":-2.856740713119507,"81":1.786562442779541,"82":1.1065142154693604,"83":-0.7142336368560791,"84":-0.017208358272910118,"85":0.7272077798843384,"86":1.9462676048278809,"87":-1.4917582273483276,"88":0.5380193591117859,"89":-1.285569667816162,"90":1.9052504301071167,"91":0.10128526389598846,"92":-0.4980162978172302,"93":-0.5819791555404663,"94":3.618715524673462,"95":0.8658312559127808,"96":1.0416746139526367,"97":0.20833532512187958,"98":-2.0966625213623047,"99":3.1509625911712646}},"6":{"bias":0.7652677893638611,"weights":{"0":-0.06129569560289383,"1":-2.5751545429229736,"2":1.7129313945770264,"3":1.0766164064407349,"4":-0.3812812566757202,"5":4.1368207931518555,"6":-0.9904434680938721,"7":-0.3196154236793518,"8":2.6537530422210693,"9":1.2212467193603516,"10":1.1819665431976318,"11":2.7794382572174072,"12":0.9909945130348206,"13":2.7390096187591553,"14":-0.6797005534172058,"15":1.3376796245574951,"16":-1.9118564128875732,"17":0.04650826007127762,"18":-1.4121065139770508,"19":-1.7855111360549927,"20":-2.913745880126953,"21":-1.4850438833236694,"22":-1.0270661115646362,"23":0.13126309216022491,"24":-1.1775927543640137,"25":-1.6040942668914795,"26":-0.6577551960945129,"27":-0.7487413287162781,"28":-2.6706953048706055,"29":0.02240559458732605,"30":-2.1155331134796143,"31":0.47583192586898804,"32":1.4361485242843628,"33":2.6612300872802734,"34":-0.12102437019348145,"35":0.7088027000427246,"36":-1.2106062173843384,"37":1.9252151250839233,"38":-1.8690115213394165,"39":2.9916374683380127,"40":2.3359758853912354,"41":-0.4536352753639221,"42":-0.7663729786872864,"43":0.28817012906074524,"44":3.7420732975006104,"45":2.3418095111846924,"46":-1.1228468418121338,"47":0.4568500518798828,"48":-1.9827390909194946,"49":-0.003750445554032922,"50":-0.7048506736755371,"51":-2.267338991165161,"52":-2.3537957668304443,"53":-0.2714257836341858,"54":0.2774999141693115,"55":-0.8193585872650146,"56":-0.033028703182935715,"57":-2.4472131729125977,"58":-1.7000885009765625,"59":1.4463857412338257,"60":-1.5437792539596558,"61":1.9046998023986816,"62":-1.0022364854812622,"63":1.0545200109481812,"64":-2.96158766746521,"65":-0.2945456802845001,"66":-2.4164626598358154,"67":-2.3120243549346924,"68":0.25894927978515625,"69":2.206801176071167,"70":-1.567317247390747,"71":-1.3047499656677246,"72":-0.459871768951416,"73":3.245622396469116,"74":1.8928831815719604,"75":-0.19743846356868744,"76":-1.4430592060089111,"77":-0.8795107007026672,"78":3.92587947845459,"79":2.421992063522339,"80":0.6095064878463745,"81":-2.0889201164245605,"82":-0.19806241989135742,"83":-0.06988769769668579,"84":-1.6255489587783813,"85":2.5577080249786377,"86":-3.9025659561157227,"87":2.0706844329833984,"88":0.038794565945863724,"89":1.0744311809539795,"90":-0.23885124921798706,"91":2.356212854385376,"92":0.5484403371810913,"93":1.564264178276062,"94":-0.4161815345287323,"95":-0.6501122713088989,"96":-3.0363638401031494,"97":-2.2166919708251953,"98":2.9562785625457764,"99":-2.2516868114471436}},"7":{"bias":1.5334798097610474,"weights":{"0":-0.4770990312099457,"1":-2.0739595890045166,"2":2.080181121826172,"3":0.5608168244361877,"4":-1.9508321285247803,"5":-0.7813745737075806,"6":1.5484930276870728,"7":-1.3554894924163818,"8":-1.4959908723831177,"9":2.4316654205322266,"10":-0.3493210971355438,"11":2.450690507888794,"12":-0.5434585809707642,"13":-0.1595935821533203,"14":0.8912737965583801,"15":0.6504409909248352,"16":0.7100516557693481,"17":-2.1005492210388184,"18":0.08227928727865219,"19":0.43242886662483215,"20":-0.9635429978370667,"21":2.535773992538452,"22":-0.7687187790870667,"23":0.8104314804077148,"24":-0.17560060322284698,"25":0.934157133102417,"26":-1.2305504083633423,"27":-0.8387845754623413,"28":-0.61131352186203,"29":0.1513499617576599,"30":-2.0573647022247314,"31":-2.454070568084717,"32":1.4567763805389404,"33":0.9338011145591736,"34":1.2185204029083252,"35":3.383462905883789,"36":-1.560346245765686,"37":0.8403679132461548,"38":0.5326153635978699,"39":-1.0694798231124878,"40":2.0110089778900146,"41":-1.2752296924591064,"42":0.5128324031829834,"43":0.4522881507873535,"44":-1.701593279838562,"45":1.8867732286453247,"46":-1.2405122518539429,"47":-1.6506739854812622,"48":1.0424443483352661,"49":2.3675873279571533,"50":-1.2058478593826294,"51":-0.2950212359428406,"52":1.2428818941116333,"53":2.522012233734131,"54":0.5315094590187073,"55":-0.14661544561386108,"56":0.2998145520687103,"57":1.9727108478546143,"58":0.9330568313598633,"59":-3.6159861087799072,"60":-4.477418899536133,"61":-0.215516597032547,"62":1.1153804063796997,"63":-1.5812410116195679,"64":0.5238427519798279,"65":1.3550724983215332,"66":-0.6680041551589966,"67":0.14111913740634918,"68":-0.028141606599092484,"69":-2.4347028732299805,"70":0.10713134706020355,"71":2.4515480995178223,"72":-0.11124858260154724,"73":-5.38183069229126,"74":-0.5412636995315552,"75":-1.2866337299346924,"76":1.9413633346557617,"77":0.6931177377700806,"78":0.8576074242591858,"79":1.6376280784606934,"80":-1.5853276252746582,"81":-1.9283413887023926,"82":-1.9355087280273438,"83":-3.8610546588897705,"84":-1.0046836137771606,"85":-0.9233147501945496,"86":-4.549774646759033,"87":1.7611827850341797,"88":0.3789227604866028,"89":0.5522377490997314,"90":1.326246976852417,"91":-0.8253383040428162,"92":-0.31485942006111145,"93":2.1617391109466553,"94":2.9777328968048096,"95":0.5682788491249084,"96":0.37284910678863525,"97":2.2302026748657227,"98":-1.9779661893844604,"99":1.8314400911331177}},"8":{"bias":0.9569604992866516,"weights":{"0":-1.6468662023544312,"1":2.517122268676758,"2":-3.3034491539001465,"3":0.3843427300453186,"4":0.9126134514808655,"5":-1.874045729637146,"6":0.14087650179862976,"7":-1.056739091873169,"8":1.961807131767273,"9":-1.197675347328186,"10":1.501307487487793,"11":-1.3234013319015503,"12":-2.1369476318359375,"13":-2.389406442642212,"14":-1.0843528509140015,"15":-2.103590965270996,"16":-3.837406873703003,"17":1.3196107149124146,"18":-1.9804764986038208,"19":-0.4045722782611847,"20":-1.627195119857788,"21":1.1938947439193726,"22":1.0935083627700806,"23":-1.6559003591537476,"24":-1.000055193901062,"25":-0.6979937553405762,"26":1.1691144704818726,"27":1.0195930004119873,"28":1.8455449342727661,"29":0.06306038051843643,"30":-0.6544595956802368,"31":0.6693659424781799,"32":0.946748673915863,"33":0.9689702987670898,"34":-0.13974185287952423,"35":1.4049715995788574,"36":0.11851134896278381,"37":1.1670160293579102,"38":-1.4975961446762085,"39":-1.7886333465576172,"40":-1.2125214338302612,"41":-1.401187539100647,"42":-1.2842460870742798,"43":0.5098052024841309,"44":-1.8904088735580444,"45":1.2175580263137817,"46":0.041379351168870926,"47":-2.7281832695007324,"48":0.38345375657081604,"49":-3.066525459289551,"50":-1.6208356618881226,"51":-0.24206799268722534,"52":-2.136165142059326,"53":4.6393537521362305,"54":0.50852370262146,"55":-2.5552306175231934,"56":-0.6422492861747742,"57":-0.5115431547164917,"58":0.189252570271492,"59":0.7966022491455078,"60":-0.5517030358314514,"61":0.7755810618400574,"62":1.3354206085205078,"63":-3.5097105503082275,"64":-0.38710883259773254,"65":1.7719461917877197,"66":-0.8901181817054749,"67":1.8550862073898315,"68":-0.6901261806488037,"69":-0.32328060269355774,"70":-1.5023415088653564,"71":0.7280189394950867,"72":1.540438175201416,"73":-0.16714471578598022,"74":1.6470555067062378,"75":0.9331498742103577,"76":-2.067922353744507,"77":1.8133491277694702,"78":-0.8801935911178589,"79":-0.15001505613327026,"80":1.4816290140151978,"81":1.7859301567077637,"82":1.3117181062698364,"83":0.916118860244751,"84":-0.0032722048927098513,"85":1.8905690908432007,"86":0.301133930683136,"87":-0.9415827393531799,"88":1.0037833452224731,"89":1.5103243589401245,"90":-0.8298023343086243,"91":3.3342947959899902,"92":3.2385385036468506,"93":2.770143747329712,"94":1.1986346244812012,"95":-0.7831470966339111,"96":-1.7375297546386719,"97":-2.7789089679718018,"98":1.2064048051834106,"99":2.1392500400543213}},"9":{"bias":-1.053147554397583,"weights":{"0":-1.5980525016784668,"1":-0.8653599619865417,"2":0.8653870224952698,"3":-2.3717803955078125,"4":0.006601445842534304,"5":4.809359073638916,"6":-2.833782434463501,"7":-2.041990041732788,"8":2.6019420623779297,"9":-0.4320013225078583,"10":-0.005715541075915098,"11":2.626497507095337,"12":3.7050280570983887,"13":0.1322118490934372,"14":-2.447272539138794,"15":2.562429904937744,"16":0.6484611630439758,"17":-0.14284837245941162,"18":0.29070258140563965,"19":-1.275913119316101,"20":0.6847644448280334,"21":-5.0824480056762695,"22":0.814068078994751,"23":0.6376559138298035,"24":1.1541391611099243,"25":3.3830747604370117,"26":-0.9390094876289368,"27":-2.9188525676727295,"28":-2.634254217147827,"29":-0.2593223452568054,"30":0.7353288531303406,"31":1.1414762735366821,"32":-2.0615463256835938,"33":0.11460262537002563,"34":0.12398650497198105,"35":1.4700933694839478,"36":-0.1482599973678589,"37":2.99806547164917,"38":-2.6176693439483643,"39":-0.22136615216732025,"40":1.8283711671829224,"41":2.033820867538452,"42":1.7273648977279663,"43":0.2952146828174591,"44":0.12678390741348267,"45":1.9277397394180298,"46":1.0020732879638672,"47":-0.8866739869117737,"48":-0.3458511531352997,"49":-0.6450390219688416,"50":0.88431715965271,"51":1.138880968093872,"52":-0.007636814843863249,"53":-1.1663206815719604,"54":-3.330768346786499,"55":0.9437399506568909,"56":2.5392215251922607,"57":-1.3131508827209473,"58":0.2604362368583679,"59":2.329610586166382,"60":0.41492387652397156,"61":-0.6188322305679321,"62":2.4831902980804443,"63":1.598138451576233,"64":1.0668350458145142,"65":-1.220418095588684,"66":1.765047311782837,"67":-0.28758957982063293,"68":2.4413795471191406,"69":-2.7261834144592285,"70":-0.005305017810314894,"71":2.017589807510376,"72":-3.344022512435913,"73":-2.92378306388855,"74":0.6581270098686218,"75":-0.4153476059436798,"76":0.15192647278308868,"77":-2.828429937362671,"78":-0.8912535309791565,"79":-1.6812185049057007,"80":3.066148042678833,"81":1.0724767446517944,"82":2.8113019466400146,"83":-0.9316627383232117,"84":0.384132444858551,"85":1.6335556507110596,"86":-0.7519809007644653,"87":-1.8632001876831055,"88":-1.9682261943817139,"89":0.02918398380279541,"90":0.5732563734054565,"91":-2.3205339908599854,"92":2.2928318977355957,"93":-2.0314011573791504,"94":-5.374087810516357,"95":-0.9220811128616333,"96":1.0442721843719482,"97":-0.5784147381782532,"98":1.7723876237869263,"99":1.273752212524414}},"10":{"bias":-1.8131725788116455,"weights":{"0":-1.388276219367981,"1":0.369043231010437,"2":-2.091104507446289,"3":-2.577100992202759,"4":1.2766704559326172,"5":1.4164338111877441,"6":-0.21213334798812866,"7":3.3915786743164062,"8":-2.426297426223755,"9":0.9825783371925354,"10":0.2652652859687805,"11":1.556212306022644,"12":1.7186532020568848,"13":2.832399606704712,"14":1.8707386255264282,"15":0.4283084273338318,"16":-0.12532483041286469,"17":-0.23168614506721497,"18":0.4011310338973999,"19":0.4116194248199463,"20":1.0475549697875977,"21":0.2735579311847687,"22":-0.06638197600841522,"23":-0.35684633255004883,"24":-0.13530416786670685,"25":-1.3648998737335205,"26":1.4189400672912598,"27":1.153079867362976,"28":-0.12451106309890747,"29":-0.6016766428947449,"30":-3.5757899284362793,"31":0.4047909080982208,"32":0.5763764381408691,"33":-1.036194086074829,"34":-1.331085205078125,"35":1.2656739950180054,"36":-2.247323513031006,"37":0.659537136554718,"38":1.4706701040267944,"39":0.2527797818183899,"40":-1.068899154663086,"41":0.6696717739105225,"42":-0.7109277248382568,"43":0.7142792344093323,"44":3.2365684509277344,"45":0.25057294964790344,"46":-2.946329355239868,"47":-1.9965437650680542,"48":1.7100279331207275,"49":-0.9393854141235352,"50":-1.4274455308914185,"51":-1.5083503723144531,"52":-0.9503721594810486,"53":3.2978885173797607,"54":-3.046268939971924,"55":2.460635185241699,"56":-0.5814979076385498,"57":2.365189552307129,"58":-0.39246973395347595,"59":-0.903697669506073,"60":-1.9426685571670532,"61":2.005683660507202,"62":0.6376060843467712,"63":-2.0861361026763916,"64":-1.2085336446762085,"65":-0.2715992331504822,"66":-0.4069235324859619,"67":0.7530081868171692,"68":0.734684407711029,"69":1.03321373462677,"70":4.472685813903809,"71":2.9028468132019043,"72":1.1983959674835205,"73":-2.3377063274383545,"74":-1.4614254236221313,"75":-0.7342269420623779,"76":2.8655364513397217,"77":-2.439241647720337,"78":-1.671988844871521,"79":-2.458427667617798,"80":0.5140632390975952,"81":2.7910590171813965,"82":-1.5218206644058228,"83":-1.1184709072113037,"84":-0.09103408455848694,"85":-0.9452565312385559,"86":0.4788033068180084,"87":1.2916734218597412,"88":3.3415966033935547,"89":0.06722259521484375,"90":0.16305845975875854,"91":2.571619987487793,"92":2.1540963649749756,"93":-3.882492780685425,"94":-5.1632890701293945,"95":0.027499573305249214,"96":2.0987865924835205,"97":0.6513453125953674,"98":2.513627052307129,"99":-2.590360403060913}},"11":{"bias":-0.36215969920158386,"weights":{"0":0.01331974845379591,"1":1.24850594997406,"2":-2.015862226486206,"3":0.019182344898581505,"4":1.393135666847229,"5":-0.1423225700855255,"6":-0.876573383808136,"7":0.3046409487724304,"8":0.2064778059720993,"9":0.8394567370414734,"10":-2.086082696914673,"11":1.7422893047332764,"12":3.8330984115600586,"13":-1.5271885395050049,"14":-2.2979748249053955,"15":1.6877480745315552,"16":3.4877891540527344,"17":2.29364275932312,"18":1.3652284145355225,"19":2.237995147705078,"20":-2.3982934951782227,"21":0.7495302557945251,"22":2.123243808746338,"23":-1.4759281873703003,"24":1.607041358947754,"25":-0.3760637640953064,"26":-0.5976388454437256,"27":-0.8164631724357605,"28":-1.0732076168060303,"29":1.9240260124206543,"30":-1.1211645603179932,"31":-0.2770769000053406,"32":0.4744683802127838,"33":1.3236232995986938,"34":1.1944423913955688,"35":-1.0693961381912231,"36":-0.5815903544425964,"37":0.9710593223571777,"38":0.003086474956944585,"39":-0.8832456469535828,"40":2.0180513858795166,"41":-1.557460069656372,"42":-1.5992119312286377,"43":0.6740438938140869,"44":-1.6690189838409424,"45":0.8335473537445068,"46":1.6364340782165527,"47":1.544620156288147,"48":3.1624515056610107,"49":-1.0615551471710205,"50":-0.122298464179039,"51":2.0694899559020996,"52":0.9550377130508423,"53":-3.2464470863342285,"54":0.5713822245597839,"55":4.0438008308410645,"56":0.4310428202152252,"57":-2.4853641986846924,"58":0.4576410949230194,"59":0.6667563915252686,"60":-1.7897173166275024,"61":-3.302344799041748,"62":-0.051492005586624146,"63":1.1238240003585815,"64":-2.844831943511963,"65":-1.0483454465866089,"66":1.1362733840942383,"67":-0.5141438245773315,"68":-2.299605131149292,"69":0.18877407908439636,"70":-1.065866231918335,"71":0.9114452004432678,"72":-1.075366497039795,"73":-0.8579373955726624,"74":2.129106283187866,"75":-0.8465973138809204,"76":-0.14815901219844818,"77":0.23951417207717896,"78":-0.21846641600131989,"79":-0.2095171958208084,"80":-1.8687242269515991,"81":1.7885324954986572,"82":-0.3385075330734253,"83":-1.3554949760437012,"84":1.6150577068328857,"85":0.8510295152664185,"86":-0.7135281562805176,"87":-1.3438705205917358,"88":1.225217342376709,"89":-1.117409348487854,"90":2.974217176437378,"91":-0.2495429664850235,"92":-1.387379765510559,"93":-0.6132190823554993,"94":-1.5481300354003906,"95":1.1472841501235962,"96":1.7235513925552368,"97":-4.165536880493164,"98":-2.1504650115966797,"99":-0.23709872364997864}},"12":{"bias":0.4441007077693939,"weights":{"0":-2.0877525806427,"1":-2.704697608947754,"2":1.7924185991287231,"3":-1.445155143737793,"4":-2.3617160320281982,"5":-1.0332669019699097,"6":0.04331205040216446,"7":-1.3848475217819214,"8":0.028039291501045227,"9":-0.7121939063072205,"10":0.9831382632255554,"11":-1.1606173515319824,"12":0.022767269983887672,"13":-1.2863787412643433,"14":3.4970786571502686,"15":-1.107330560684204,"16":0.4013521075248718,"17":1.5378124713897705,"18":-2.027081251144409,"19":0.9006431102752686,"20":-2.035465717315674,"21":1.8929160833358765,"22":-1.2626982927322388,"23":0.8787526488304138,"24":-1.846794843673706,"25":0.07038676738739014,"26":-3.840535879135132,"27":2.8306784629821777,"28":-1.5170785188674927,"29":-0.36077791452407837,"30":2.261249542236328,"31":1.5290201902389526,"32":-0.2500385344028473,"33":1.788274884223938,"34":-0.26830005645751953,"35":0.17577916383743286,"36":0.6295953392982483,"37":-1.9073811769485474,"38":4.8510661125183105,"39":-1.2084439992904663,"40":0.4956037998199463,"41":-0.7251154184341431,"42":-0.2124880999326706,"43":-1.6475093364715576,"44":0.5168286561965942,"45":-0.8947092890739441,"46":-0.3644599914550781,"47":-0.4377249777317047,"48":0.4472562074661255,"49":0.6751277446746826,"50":1.5770422220230103,"51":1.2517626285552979,"52":5.267878532409668,"53":-1.5327740907669067,"54":1.3716975450515747,"55":-2.016711950302124,"56":1.9720065593719482,"57":-1.7266396284103394,"58":1.1666502952575684,"59":1.8471264839172363,"60":-0.6517877578735352,"61":0.7072956562042236,"62":2.7028536796569824,"63":5.261218547821045,"64":-3.9735374450683594,"65":-0.8159894943237305,"66":-2.759035587310791,"67":-0.8964961171150208,"68":-1.1071990728378296,"69":-0.18582744896411896,"70":-1.1295100450515747,"71":3.0982003211975098,"72":0.2167673408985138,"73":-2.9009385108947754,"74":1.4490357637405396,"75":-1.6419436931610107,"76":0.003950911108404398,"77":-1.057655692100525,"78":1.9294337034225464,"79":-0.18871095776557922,"80":2.3010942935943604,"81":0.022943492978811264,"82":-3.0356874465942383,"83":1.944840908050537,"84":-0.6638343930244446,"85":0.29618164896965027,"86":1.296336054801941,"87":1.434898018836975,"88":-2.0052762031555176,"89":-1.308392882347107,"90":1.3002475500106812,"91":-1.7792621850967407,"92":1.1076396703720093,"93":1.8272467851638794,"94":-0.15342673659324646,"95":2.025203227996826,"96":1.3093987703323364,"97":-1.1110817193984985,"98":-6.022189140319824,"99":-0.9141063690185547}},"13":{"bias":1.632913589477539,"weights":{"0":-0.9650241136550903,"1":0.02049085684120655,"2":1.349621057510376,"3":-3.8657286167144775,"4":-0.9066348075866699,"5":-0.6457013487815857,"6":-0.6408646702766418,"7":2.7566328048706055,"8":0.2557544410228729,"9":-2.9547996520996094,"10":0.19919902086257935,"11":0.05468001961708069,"12":-1.1685495376586914,"13":0.40267395973205566,"14":0.5921602249145508,"15":-0.3632602393627167,"16":-0.14976872503757477,"17":2.226388692855835,"18":1.5679121017456055,"19":3.640834093093872,"20":0.12665902078151703,"21":-0.5929691791534424,"22":-0.5124285221099854,"23":0.6218640208244324,"24":0.4105087220668793,"25":1.2401617765426636,"26":0.516787052154541,"27":0.49761712551116943,"28":2.3257415294647217,"29":1.648647665977478,"30":-1.0180696249008179,"31":1.626944661140442,"32":0.07569420337677002,"33":-1.4923663139343262,"34":-0.7813358902931213,"35":1.6066964864730835,"36":0.15156033635139465,"37":0.3223715126514435,"38":0.45602962374687195,"39":1.2447768449783325,"40":-3.3260111808776855,"41":0.8191407322883606,"42":0.8955333828926086,"43":-0.7768545150756836,"44":-1.0182249546051025,"45":0.8364754915237427,"46":-3.595841884613037,"47":1.0200122594833374,"48":0.5538727641105652,"49":-0.1946665495634079,"50":1.6564650535583496,"51":0.36803528666496277,"52":0.0028171641752123833,"53":0.019421087577939034,"54":-0.021693676710128784,"55":-0.40057995915412903,"56":-0.8750092387199402,"57":0.6505420207977295,"58":2.4329707622528076,"59":-0.822289228439331,"60":1.5251902341842651,"61":1.291146993637085,"62":-1.6075775623321533,"63":0.05605430528521538,"64":1.1230207681655884,"65":-0.3242763876914978,"66":-0.9882807731628418,"67":-1.4836795330047607,"68":0.6650134325027466,"69":-0.590549647808075,"70":1.1096137762069702,"71":0.4923091530799866,"72":-1.2881141901016235,"73":1.3713467121124268,"74":-0.2643284201622009,"75":-1.689263939857483,"76":0.04834405705332756,"77":2.411526679992676,"78":-0.7597018480300903,"79":-2.7413859367370605,"80":-0.9476175308227539,"81":-0.8335713744163513,"82":-2.9916489124298096,"83":-1.9776902198791504,"84":-1.420078992843628,"85":0.37683379650115967,"86":-0.1014317125082016,"87":-1.4931719303131104,"88":-1.5229312181472778,"89":1.3354090452194214,"90":-1.1264756917953491,"91":2.7652785778045654,"92":-0.7941508889198303,"93":-0.5698201060295105,"94":0.13419823348522186,"95":-1.1796351671218872,"96":0.6802758574485779,"97":-2.4497365951538086,"98":0.7698773741722107,"99":-0.8351060152053833}},"14":{"bias":-0.5150481462478638,"weights":{"0":0.2082280069589615,"1":3.709242343902588,"2":-2.5888776779174805,"3":1.891983151435852,"4":-1.5472701787948608,"5":2.1608402729034424,"6":-0.2835131883621216,"7":-1.3269386291503906,"8":0.7773185968399048,"9":-0.46264100074768066,"10":-0.14381030201911926,"11":2.349449872970581,"12":1.760505199432373,"13":1.8888427019119263,"14":-0.7128990888595581,"15":-2.431346893310547,"16":2.1122477054595947,"17":-0.47214484214782715,"18":0.203520268201828,"19":0.27038058638572693,"20":1.3749208450317383,"21":0.5104506611824036,"22":-4.168700695037842,"23":-0.8933937549591064,"24":-1.3651223182678223,"25":0.03806878626346588,"26":0.7743469476699829,"27":0.09869831800460815,"28":1.762351632118225,"29":-1.7477551698684692,"30":0.3839499354362488,"31":1.8970046043395996,"32":1.3022352457046509,"33":-1.4326478242874146,"34":0.9333017468452454,"35":3.083993434906006,"36":0.4125901758670807,"37":1.0597262382507324,"38":-1.2105721235275269,"39":-0.03349282965064049,"40":-1.5304499864578247,"41":1.0282909870147705,"42":0.47704291343688965,"43":-0.8316124081611633,"44":1.9587568044662476,"45":-3.3420464992523193,"46":-1.855968952178955,"47":1.1115660667419434,"48":-1.3336691856384277,"49":0.6385104060173035,"50":-1.2346919775009155,"51":0.846476674079895,"52":2.2551681995391846,"53":0.7932767868041992,"54":-1.7543175220489502,"55":3.51374888420105,"56":-1.865608811378479,"57":-0.43971988558769226,"58":-0.12919974327087402,"59":-1.3269217014312744,"60":3.6422035694122314,"61":3.9775941371917725,"62":0.43449169397354126,"63":-2.582247018814087,"64":0.20628473162651062,"65":-2.0593488216400146,"66":0.05126190930604935,"67":-1.7462849617004395,"68":1.109010934829712,"69":-0.5898469686508179,"70":-0.25568458437919617,"71":-5.475955009460449,"72":0.6652160882949829,"73":-1.3399450778961182,"74":-2.6398723125457764,"75":0.0991511270403862,"76":0.03167545422911644,"77":1.3008519411087036,"78":-1.0582777261734009,"79":2.449800729751587,"80":-3.5196852684020996,"81":-0.6302505731582642,"82":-0.6880806088447571,"83":0.7660175561904907,"84":3.3096067905426025,"85":-3.061676025390625,"86":2.7202823162078857,"87":1.4287543296813965,"88":0.5424871444702148,"89":3.5156548023223877,"90":3.851194381713867,"91":2.5118234157562256,"92":-3.0293006896972656,"93":-0.06491825729608536,"94":-1.1569244861602783,"95":1.1434885263442993,"96":-3.719451904296875,"97":-2.2633566856384277,"98":1.2462176084518433,"99":-4.196173667907715}},"15":{"bias":0.6417294144630432,"weights":{"0":0.5038692355155945,"1":0.6465080380439758,"2":-0.8322524428367615,"3":-1.072007656097412,"4":-2.3735506534576416,"5":0.4602954089641571,"6":0.9767272472381592,"7":0.15246422588825226,"8":1.2643494606018066,"9":-1.4113730192184448,"10":-1.3099737167358398,"11":-6.962855339050293,"12":1.6510618925094604,"13":1.9140663146972656,"14":-2.565000295639038,"15":0.4253268837928772,"16":-0.16532030701637268,"17":2.0626144409179688,"18":0.8971337080001831,"19":2.438632011413574,"20":-1.8210009336471558,"21":0.4743782579898834,"22":-2.4111526012420654,"23":-2.422581672668457,"24":1.5218350887298584,"25":-2.229452610015869,"26":1.0561336278915405,"27":1.8169633150100708,"28":1.9506884813308716,"29":1.9698480367660522,"30":2.069493293762207,"31":-0.43946364521980286,"32":-0.2539253234863281,"33":1.112121343612671,"34":-1.4657251834869385,"35":0.6029210090637207,"36":-4.324614524841309,"37":-0.13586488366127014,"38":0.25540000200271606,"39":0.20409488677978516,"40":2.735215187072754,"41":0.10615114867687225,"42":-2.4027535915374756,"43":-0.9287694692611694,"44":-0.586392343044281,"45":1.8471771478652954,"46":1.5251858234405518,"47":0.6869987845420837,"48":-2.5614523887634277,"49":-0.8064854145050049,"50":-2.256913661956787,"51":-0.006036366801708937,"52":0.38563382625579834,"53":-1.3983036279678345,"54":2.5298237800598145,"55":1.4748510122299194,"56":1.681235671043396,"57":-2.6379146575927734,"58":-2.7280757427215576,"59":-2.0991711616516113,"60":-1.2445086240768433,"61":4.844430923461914,"62":1.0745552778244019,"63":0.840875506401062,"64":1.2503172159194946,"65":-0.10629406571388245,"66":1.4846394062042236,"67":1.8793195486068726,"68":-1.300078272819519,"69":-1.0162969827651978,"70":1.4332338571548462,"71":0.93146812915802,"72":-1.737053394317627,"73":2.833325147628784,"74":-2.474165916442871,"75":0.0919160544872284,"76":-3.22953724861145,"77":-2.291750431060791,"78":3.472965717315674,"79":-0.8049719929695129,"80":1.2451826333999634,"81":-0.4360417425632477,"82":-1.1124169826507568,"83":-0.0015819411491975188,"84":-1.3443440198898315,"85":2.8200292587280273,"86":-2.7195184230804443,"87":0.5418489575386047,"88":-1.548933506011963,"89":-1.9304873943328857,"90":-1.667656421661377,"91":2.3058924674987793,"92":-2.123628616333008,"93":0.6936964988708496,"94":0.6153643131256104,"95":2.318645477294922,"96":3.921616554260254,"97":-0.3531894087791443,"98":1.396372675895691,"99":-0.44101467728614807}},"16":{"bias":0.8681594133377075,"weights":{"0":1.2731853723526,"1":0.6546626091003418,"2":-0.8720633387565613,"3":-1.1479979753494263,"4":0.13226623833179474,"5":-2.5740203857421875,"6":-2.505120038986206,"7":-1.0747902393341064,"8":-1.6592191457748413,"9":1.0376511812210083,"10":1.2939672470092773,"11":-1.9182873964309692,"12":1.6870168447494507,"13":-0.8260254263877869,"14":-2.867525577545166,"15":2.3915820121765137,"16":-1.8483668565750122,"17":-2.3032264709472656,"18":-0.7027739882469177,"19":-1.296992540359497,"20":0.8067600131034851,"21":1.865230917930603,"22":1.8311055898666382,"23":-4.4034881591796875,"24":1.1460000276565552,"25":2.29144549369812,"26":-1.0662189722061157,"27":1.1866837739944458,"28":1.4839855432510376,"29":1.0610589981079102,"30":-1.3757675886154175,"31":1.399682879447937,"32":-2.028733968734741,"33":1.6653780937194824,"34":1.0552372932434082,"35":1.1869100332260132,"36":2.236302375793457,"37":1.6733194589614868,"38":-0.7609529495239258,"39":-0.31758469343185425,"40":2.5767860412597656,"41":0.6351639628410339,"42":-0.2721213698387146,"43":1.9748499393463135,"44":-1.4488471746444702,"45":0.17207856476306915,"46":0.7772624492645264,"47":-1.5922925472259521,"48":2.3991527557373047,"49":-1.7579851150512695,"50":-3.447722911834717,"51":-0.4167099595069885,"52":-0.9408879280090332,"53":2.8623878955841064,"54":-2.0318639278411865,"55":-0.8808144330978394,"56":-1.55702543258667,"57":3.3960208892822266,"58":0.313980370759964,"59":-3.835059881210327,"60":0.0320904366672039,"61":-3.0546681880950928,"62":-1.1702994108200073,"63":-1.7676975727081299,"64":-0.6092039346694946,"65":-0.8353496789932251,"66":-2.058574914932251,"67":1.3110178709030151,"68":1.1768425703048706,"69":1.4665286540985107,"70":3.0306975841522217,"71":0.32101452350616455,"72":3.567110300064087,"73":-0.832597553730011,"74":-2.1093225479125977,"75":0.30316126346588135,"76":2.565931558609009,"77":1.3839293718338013,"78":2.7657132148742676,"79":1.94455885887146,"80":1.5885305404663086,"81":-1.8473883867263794,"82":-0.6313712000846863,"83":-0.9913710355758667,"84":2.208951711654663,"85":-2.6264824867248535,"86":0.11913572251796722,"87":-2.5778136253356934,"88":-1.9333935976028442,"89":0.973237931728363,"90":-0.7600312829017639,"91":1.4712632894515991,"92":-1.5102450847625732,"93":0.6113654971122742,"94":-0.8640666007995605,"95":-1.7337560653686523,"96":-1.28439462184906,"97":2.576843500137329,"98":-0.8404598832130432,"99":0.005740096792578697}},"17":{"bias":1.0602563619613647,"weights":{"0":-2.0607752799987793,"1":-1.3531852960586548,"2":-1.536327838897705,"3":1.230450987815857,"4":1.0124560594558716,"5":2.1168479919433594,"6":-2.3516693115234375,"7":-3.7650153636932373,"8":1.07365083694458,"9":4.24585485458374,"10":1.0531601905822754,"11":1.6003509759902954,"12":-4.193039894104004,"13":-4.652404308319092,"14":2.095975637435913,"15":0.3265300691127777,"16":-2.2634408473968506,"17":1.1089520454406738,"18":-0.5653623938560486,"19":3.601710319519043,"20":-0.7117365002632141,"21":-3.2721378803253174,"22":0.5584719777107239,"23":3.749666929244995,"24":0.09201321750879288,"25":-1.853187918663025,"26":-1.033501386642456,"27":0.1102490946650505,"28":-0.5998197197914124,"29":-1.8305307626724243,"30":-1.3179757595062256,"31":-0.030876727774739265,"32":-0.8263293504714966,"33":-2.5320286750793457,"34":-1.0859568119049072,"35":0.6211158633232117,"36":-0.43701326847076416,"37":3.856572389602661,"38":0.11400425434112549,"39":-1.6153717041015625,"40":-1.4553431272506714,"41":-1.5983694791793823,"42":1.2709733247756958,"43":1.7859728336334229,"44":2.7642078399658203,"45":1.1441168785095215,"46":-1.504910945892334,"47":-1.1848751306533813,"48":-1.017905831336975,"49":-1.3826003074645996,"50":0.06985965371131897,"51":-0.5126195549964905,"52":-0.6885319948196411,"53":1.315284013748169,"54":2.881624937057495,"55":-3.5568408966064453,"56":-2.4883697032928467,"57":1.406812071800232,"58":3.7580928802490234,"59":-1.2872554063796997,"60":0.07119578868150711,"61":1.3032591342926025,"62":-1.5328457355499268,"63":0.4012114405632019,"64":2.1719253063201904,"65":-0.6582505702972412,"66":1.8052161931991577,"67":0.9225165843963623,"68":0.36601120233535767,"69":0.13436488807201385,"70":3.5209641456604004,"71":0.18309719860553741,"72":1.722947597503662,"73":-2.3585989475250244,"74":-0.9707743525505066,"75":0.7371637225151062,"76":-0.1385646015405655,"77":2.001657485961914,"78":-0.6439961194992065,"79":1.2065163850784302,"80":-2.0777933597564697,"81":-2.4457786083221436,"82":1.5130308866500854,"83":1.505301833152771,"84":0.47824397683143616,"85":2.795158624649048,"86":1.4766623973846436,"87":0.16429635882377625,"88":-1.2841342687606812,"89":0.19222792983055115,"90":-0.4281984567642212,"91":0.81949383020401,"92":-2.114697217941284,"93":-2.196754217147827,"94":-2.0277669429779053,"95":-1.6164374351501465,"96":1.256075382232666,"97":-1.8306314945220947,"98":1.7976018190383911,"99":2.7327189445495605}},"18":{"bias":-0.42423778772354126,"weights":{"0":3.3785951137542725,"1":-1.8071967363357544,"2":0.29147279262542725,"3":-1.065535068511963,"4":-1.478169322013855,"5":2.5284500122070312,"6":3.451007604598999,"7":-0.5939813852310181,"8":-3.7664706707000732,"9":-2.2163774967193604,"10":1.397701621055603,"11":1.283072590827942,"12":-2.2130887508392334,"13":1.1590324640274048,"14":-1.2089217901229858,"15":-3.714215040206909,"16":-1.5404549837112427,"17":-0.5008967518806458,"18":-0.6691911220550537,"19":0.2323457896709442,"20":-3.510011911392212,"21":-1.1313233375549316,"22":0.44187021255493164,"23":1.4625295400619507,"24":-3.9645209312438965,"25":-0.5590775609016418,"26":-0.5210360884666443,"27":-0.5552928447723389,"28":-1.199344515800476,"29":-3.395768642425537,"30":-0.6990385055541992,"31":-2.3942148685455322,"32":2.10776424407959,"33":0.772158145904541,"34":-0.1925722062587738,"35":-0.753352701663971,"36":0.2868404984474182,"37":0.9046815633773804,"38":-2.011009931564331,"39":-1.6396143436431885,"40":-1.3507665395736694,"41":3.2398059368133545,"42":0.6087798476219177,"43":2.752110481262207,"44":-1.4533923864364624,"45":0.8823890686035156,"46":0.30005666613578796,"47":-0.8723351955413818,"48":-2.615522623062134,"49":-2.6982879638671875,"50":-2.8311948776245117,"51":-2.5444180965423584,"52":-0.49452683329582214,"53":2.3897812366485596,"54":1.863200068473816,"55":-0.4029240608215332,"56":1.3198127746582031,"57":2.3794872760772705,"58":-3.2430713176727295,"59":0.20525480806827545,"60":0.4887141287326813,"61":-0.24561017751693726,"62":1.7585477828979492,"63":0.3959304094314575,"64":1.1891226768493652,"65":-0.040601637214422226,"66":2.3134114742279053,"67":-1.253791093826294,"68":1.2454928159713745,"69":0.7770516872406006,"70":-2.017472743988037,"71":2.4243173599243164,"72":1.5549037456512451,"73":3.564016819000244,"74":-0.7613791823387146,"75":0.7610775232315063,"76":0.22699210047721863,"77":1.3399497270584106,"78":3.173813819885254,"79":-4.035135746002197,"80":-0.642483115196228,"81":-0.4208524525165558,"82":1.0013142824172974,"83":4.024836540222168,"84":-0.06901608407497406,"85":-0.41465795040130615,"86":-2.4365854263305664,"87":0.9476609230041504,"88":4.167909145355225,"89":0.6407724022865295,"90":-1.2201138734817505,"91":-0.33236607909202576,"92":0.7431968450546265,"93":2.597402334213257,"94":-0.5002889037132263,"95":0.8673784732818604,"96":-0.33288997411727905,"97":2.5877811908721924,"98":1.2637027502059937,"99":-0.4959098696708679}},"19":{"bias":-1.6923118829727173,"weights":{"0":0.2769910395145416,"1":0.3390643000602722,"2":3.0764596462249756,"3":0.12754961848258972,"4":0.6382140517234802,"5":1.4202936887741089,"6":0.3789730668067932,"7":-1.2678136825561523,"8":-1.3626610040664673,"9":-0.6976889967918396,"10":-3.8688127994537354,"11":-2.913841962814331,"12":-0.07036547362804413,"13":1.2415122985839844,"14":-2.2679550647735596,"15":1.8492544889450073,"16":-0.6142430305480957,"17":0.37582889199256897,"18":-1.5339003801345825,"19":1.4483962059020996,"20":-1.9891986846923828,"21":-1.1315834522247314,"22":0.27975618839263916,"23":-1.4237807989120483,"24":0.3905973434448242,"25":-0.031371768563985825,"26":-2.6722865104675293,"27":1.414715051651001,"28":-1.9717170000076294,"29":2.4411733150482178,"30":1.8470081090927124,"31":0.20222429931163788,"32":-0.15312491357326508,"33":-0.03976505994796753,"34":-0.8325682282447815,"35":-2.7303717136383057,"36":2.625485420227051,"37":-1.7963453531265259,"38":0.067192941904068,"39":0.8938603401184082,"40":-0.21968446671962738,"41":0.28665691614151,"42":3.062007427215576,"43":-2.3826887607574463,"44":-1.5016930103302002,"45":-1.2334263324737549,"46":1.882188320159912,"47":-4.197015285491943,"48":1.5604655742645264,"49":1.0027228593826294,"50":-3.4896914958953857,"51":2.1489830017089844,"52":-2.174708604812622,"53":-0.4398161470890045,"54":2.8274452686309814,"55":-3.3461873531341553,"56":-1.0652611255645752,"57":3.0292580127716064,"58":1.8572546243667603,"59":2.1503069400787354,"60":-0.617419421672821,"61":0.568007230758667,"62":-0.6782932877540588,"63":-2.7298927307128906,"64":0.4189073443412781,"65":0.4232933819293976,"66":0.8180440664291382,"67":2.6840054988861084,"68":-1.5322415828704834,"69":3.950471878051758,"70":-0.566195547580719,"71":-0.9469333291053772,"72":-0.19694304466247559,"73":-2.1668882369995117,"74":0.27279654145240784,"75":-1.5653321743011475,"76":0.5779016017913818,"77":-1.9266977310180664,"78":-0.6780481934547424,"79":0.7840904593467712,"80":1.1244381666183472,"81":1.659018874168396,"82":1.3303375244140625,"83":2.7599480152130127,"84":0.022212833166122437,"85":3.7461769580841064,"86":-2.2179431915283203,"87":0.7307018041610718,"88":1.3840546607971191,"89":-2.6270813941955566,"90":0.5108016133308411,"91":2.681918144226074,"92":1.5175127983093262,"93":1.395671010017395,"94":2.1762378215789795,"95":2.917935848236084,"96":-1.4706599712371826,"97":2.2325143814086914,"98":-4.370691776275635,"99":-0.014145215041935444}},"20":{"bias":0.7013058662414551,"weights":{"0":2.2627909183502197,"1":1.1016453504562378,"2":0.4093693494796753,"3":-0.2657548487186432,"4":-1.4241962432861328,"5":-1.5979851484298706,"6":3.1947827339172363,"7":0.4351864159107208,"8":-3.067593812942505,"9":-1.1710025072097778,"10":-3.2155356407165527,"11":-0.8206251859664917,"12":-0.8705129027366638,"13":-2.775563955307007,"14":-0.19825421273708344,"15":-0.5399104356765747,"16":-1.1162912845611572,"17":-0.10061770677566528,"18":0.10357341170310974,"19":2.416368246078491,"20":1.8452494144439697,"21":1.076667308807373,"22":-0.07789827883243561,"23":2.528228998184204,"24":0.8884856104850769,"25":0.4962560832500458,"26":-1.0402355194091797,"27":2.3245720863342285,"28":1.3791918754577637,"29":-0.974223256111145,"30":0.7813268899917603,"31":2.150225877761841,"32":-0.9036438465118408,"33":-1.4610979557037354,"34":-1.4947422742843628,"35":-0.7253073453903198,"36":-1.3236229419708252,"37":1.708538293838501,"38":1.7696352005004883,"39":-0.5472866892814636,"40":-2.936182737350464,"41":0.3726380169391632,"42":0.2765454351902008,"43":-1.715522050857544,"44":-0.3851023018360138,"45":-1.0440490245819092,"46":-0.4918637275695801,"47":0.4281741976737976,"48":-0.39798638224601746,"49":-1.1034598350524902,"50":-1.128658652305603,"51":-0.17346906661987305,"52":-0.7838181257247925,"53":0.9023607969284058,"54":-0.11538232862949371,"55":1.0260878801345825,"56":0.6756938695907593,"57":0.7149872183799744,"58":0.13464470207691193,"59":-0.26866158843040466,"60":0.8440816402435303,"61":1.1049258708953857,"62":-1.3018696308135986,"63":-0.19813591241836548,"64":1.6765470504760742,"65":0.2812489867210388,"66":1.2184951305389404,"67":-0.12357857078313828,"68":0.17290839552879333,"69":0.6270560026168823,"70":3.131864070892334,"71":0.9330205917358398,"72":1.52114999294281,"73":3.3638486862182617,"74":-0.9019739627838135,"75":0.11934933066368103,"76":1.651358723640442,"77":-0.5448851585388184,"78":0.3763704299926758,"79":2.2794415950775146,"80":-0.8551236987113953,"81":-0.46619829535484314,"82":0.6731715798377991,"83":-1.594435691833496,"84":-2.8597450256347656,"85":0.9748505353927612,"86":0.31942328810691833,"87":-3.6847829818725586,"88":-0.07012540102005005,"89":0.200959250330925,"90":0.1412067860364914,"91":1.7826191186904907,"92":-2.160491466522217,"93":-1.6524238586425781,"94":-0.5669633150100708,"95":1.7475260496139526,"96":-1.8842699527740479,"97":-1.0872396230697632,"98":-2.523662567138672,"99":-0.3790135979652405}},"21":{"bias":-1.034640908241272,"weights":{"0":2.612083911895752,"1":-5.686616897583008,"2":-3.3801515102386475,"3":2.3136072158813477,"4":-1.5191324949264526,"5":0.8124852180480957,"6":1.3975023031234741,"7":-0.20244941115379333,"8":-0.21641603112220764,"9":0.9960950016975403,"10":0.21897777915000916,"11":1.6319862604141235,"12":-0.6463339924812317,"13":-0.9722092151641846,"14":2.2787392139434814,"15":3.2701315879821777,"16":-1.2800990343093872,"17":0.5041037201881409,"18":-1.3774574995040894,"19":0.634251594543457,"20":-1.0392531156539917,"21":-0.217723086476326,"22":-0.22054463624954224,"23":1.5646547079086304,"24":2.0796399116516113,"25":-1.6375460624694824,"26":0.9516102075576782,"27":-2.0805392265319824,"28":-0.5297448039054871,"29":2.925421953201294,"30":1.8018670082092285,"31":-0.9079451560974121,"32":-1.531130313873291,"33":0.7351836562156677,"34":0.582381546497345,"35":-1.1247925758361816,"36":1.270085096359253,"37":-2.2168056964874268,"38":0.736309826374054,"39":-2.2536404132843018,"40":0.27511924505233765,"41":-1.465193510055542,"42":-1.2009166479110718,"43":3.8077821731567383,"44":0.5526707768440247,"45":1.5018590688705444,"46":-1.739195704460144,"47":0.9800470471382141,"48":0.05773698911070824,"49":1.3877875804901123,"50":0.9879041910171509,"51":-2.2045395374298096,"52":-2.0168776512145996,"53":-1.3918333053588867,"54":-1.382874846458435,"55":1.262252926826477,"56":-1.1524264812469482,"57":1.2177287340164185,"58":-3.513725519180298,"59":-1.4614423513412476,"60":-1.3814258575439453,"61":-0.6901265382766724,"62":-1.2761417627334595,"63":2.239285945892334,"64":0.860579252243042,"65":-0.11386392265558243,"66":5.035752296447754,"67":1.5647491216659546,"68":2.0875167846679688,"69":-1.569260597229004,"70":1.0387251377105713,"71":-2.321377754211426,"72":2.5291805267333984,"73":0.21707971394062042,"74":2.7798800468444824,"75":3.0909018516540527,"76":1.4162428379058838,"77":1.0678799152374268,"78":-1.4718387126922607,"79":-0.6964306235313416,"80":-2.8493266105651855,"81":1.6522217988967896,"82":0.5898614525794983,"83":0.11494114995002747,"84":0.6793011426925659,"85":1.0632944107055664,"86":-3.0691077709198,"87":1.2225244045257568,"88":-2.6050524711608887,"89":-1.0927722454071045,"90":-2.2530624866485596,"91":-0.5913921594619751,"92":-1.2485337257385254,"93":-1.5456418991088867,"94":-0.8436240553855896,"95":0.8984295725822449,"96":0.9975612163543701,"97":2.028041124343872,"98":1.6304125785827637,"99":-1.4974263906478882}},"22":{"bias":-0.07405737042427063,"weights":{"0":-1.3875659704208374,"1":-0.3598061203956604,"2":1.795971155166626,"3":-0.7296833395957947,"4":-1.0208871364593506,"5":-1.4215917587280273,"6":2.2353694438934326,"7":-3.2343404293060303,"8":-1.3345966339111328,"9":1.12053382396698,"10":0.3681395947933197,"11":0.4946899116039276,"12":-0.08490436524152756,"13":0.19562123715877533,"14":-4.096318244934082,"15":-0.2887080907821655,"16":-1.086879849433899,"17":0.5221126079559326,"18":2.4186694622039795,"19":1.710905909538269,"20":1.3400362730026245,"21":-1.5802607536315918,"22":0.027042057365179062,"23":1.4256479740142822,"24":-4.284716606140137,"25":-1.4032186269760132,"26":-1.048616647720337,"27":1.992724061012268,"28":1.8130812644958496,"29":-0.40714773535728455,"30":1.467788815498352,"31":-2.050509452819824,"32":0.18001903593540192,"33":-0.8956322073936462,"34":1.7264597415924072,"35":2.008486270904541,"36":1.7783297300338745,"37":0.7490516901016235,"38":-0.7903074026107788,"39":0.9883636832237244,"40":-2.5887339115142822,"41":2.9508121013641357,"42":1.6696628332138062,"43":0.0976237803697586,"44":0.11854226142168045,"45":0.24275344610214233,"46":0.8968351483345032,"47":1.2685461044311523,"48":-2.0087170600891113,"49":0.6991379261016846,"50":-0.7798466682434082,"51":0.7584858536720276,"52":0.8880929946899414,"53":1.5474560260772705,"54":-1.8096415996551514,"55":0.2384747415781021,"56":0.33290383219718933,"57":-0.7014427781105042,"58":-2.140421152114868,"59":1.5742818117141724,"60":-0.28379663825035095,"61":0.5824862718582153,"62":0.16367371380329132,"63":-0.08065082132816315,"64":-0.26207435131073,"65":-0.5545523166656494,"66":-1.3242099285125732,"67":-1.9184229373931885,"68":1.7626147270202637,"69":0.7464950680732727,"70":1.1082004308700562,"71":0.4833214581012726,"72":0.18520574271678925,"73":0.832779586315155,"74":0.510419487953186,"75":3.205550193786621,"76":-0.7457665801048279,"77":-0.32012122869491577,"78":-1.6265755891799927,"79":1.451611042022705,"80":-3.415325880050659,"81":0.20734506845474243,"82":-2.4780611991882324,"83":-2.6972005367279053,"84":-0.2301274836063385,"85":-0.9564186930656433,"86":-0.6551957726478577,"87":-0.5588046908378601,"88":1.756664514541626,"89":0.6338216066360474,"90":-0.28635644912719727,"91":-0.014413134194910526,"92":0.09345288574695587,"93":0.27823132276535034,"94":-0.32132092118263245,"95":1.0787262916564941,"96":-0.7206160426139832,"97":0.8328970074653625,"98":0.10685676336288452,"99":0.824402928352356}},"23":{"bias":0.5096389055252075,"weights":{"0":1.785517692565918,"1":0.9233092069625854,"2":0.28851714730262756,"3":0.07934055477380753,"4":4.17191219329834,"5":-1.088497281074524,"6":-0.8475854992866516,"7":0.8613775968551636,"8":1.6409696340560913,"9":-1.6872538328170776,"10":1.4837112426757812,"11":2.6048920154571533,"12":-0.10737872123718262,"13":-0.7911372780799866,"14":-2.541048288345337,"15":2.481070041656494,"16":1.3105852603912354,"17":-2.8742165565490723,"18":3.228858709335327,"19":2.8685896396636963,"20":-0.5303325653076172,"21":0.14047884941101074,"22":0.45873603224754333,"23":-2.162029981613159,"24":1.7140791416168213,"25":-0.08114258199930191,"26":-2.0863795280456543,"27":-0.9692429900169373,"28":1.0365113019943237,"29":2.3337314128875732,"30":0.8524797558784485,"31":-1.322081446647644,"32":0.7760217785835266,"33":0.49696972966194153,"34":-1.132276177406311,"35":1.4951648712158203,"36":-1.4702495336532593,"37":3.778672218322754,"38":1.8006196022033691,"39":-0.6189567446708679,"40":-2.876072645187378,"41":1.0796350240707397,"42":1.3955271244049072,"43":-0.5966607928276062,"44":-0.1381390392780304,"45":1.3460839986801147,"46":-0.6038657426834106,"47":-3.7661426067352295,"48":0.2729863226413727,"49":-2.7041175365448,"50":2.855680227279663,"51":1.5713953971862793,"52":-4.082149982452393,"53":0.2814173996448517,"54":1.3849124908447266,"55":2.697753667831421,"56":-0.15697410702705383,"57":-4.771884918212891,"58":1.36532461643219,"59":1.8427684307098389,"60":0.053084373474121094,"61":0.5933770537376404,"62":0.24104546010494232,"63":0.8204498291015625,"64":0.5455092191696167,"65":-1.4309535026550293,"66":-3.7950947284698486,"67":0.2843148112297058,"68":0.7119965553283691,"69":-1.5533092021942139,"70":-1.8477057218551636,"71":-0.918230414390564,"72":-0.31428229808807373,"73":1.4707283973693848,"74":0.19013620913028717,"75":-0.4201257824897766,"76":-4.709424018859863,"77":2.2287545204162598,"78":-1.455166220664978,"79":-0.5407940745353699,"80":1.4861278533935547,"81":-0.017800288274884224,"82":-2.6817667484283447,"83":-1.6307175159454346,"84":-1.8814986944198608,"85":1.6885104179382324,"86":0.20056751370429993,"87":0.790490984916687,"88":0.05389592796564102,"89":-1.4220062494277954,"90":-0.08671705424785614,"91":0.0562407486140728,"92":-0.8541949987411499,"93":-0.1670355647802353,"94":-0.24216940999031067,"95":-0.2786976993083954,"96":2.4745678901672363,"97":-1.9721304178237915,"98":-2.4461190700531006,"99":0.6413661241531372}},"24":{"bias":-0.04333098605275154,"weights":{"0":3.002574920654297,"1":-3.3786449432373047,"2":0.6302036643028259,"3":0.49953219294548035,"4":2.298339605331421,"5":-0.7874100208282471,"6":-1.6199761629104614,"7":0.1891404539346695,"8":-2.719316244125366,"9":2.458606004714966,"10":0.09904013574123383,"11":-2.5865485668182373,"12":0.06224304810166359,"13":-0.07028622180223465,"14":3.5319292545318604,"15":1.6223424673080444,"16":-2.0135326385498047,"17":1.8093332052230835,"18":0.22153741121292114,"19":-1.9202604293823242,"20":-0.11404912918806076,"21":-1.338228702545166,"22":-0.8621233701705933,"23":-2.195164918899536,"24":-0.5781311392784119,"25":-1.724120855331421,"26":-1.3998024463653564,"27":-0.13520459830760956,"28":-0.39326241612434387,"29":1.5275969505310059,"30":-1.95320463180542,"31":-2.3926308155059814,"32":-3.4694690704345703,"33":1.1672804355621338,"34":-0.47847872972488403,"35":-1.2744605541229248,"36":1.7088531255722046,"37":-2.7372167110443115,"38":1.5378369092941284,"39":-0.3819100856781006,"40":1.8953784704208374,"41":2.438899517059326,"42":-2.086113691329956,"43":-1.3878222703933716,"44":0.781978964805603,"45":2.2232792377471924,"46":-0.7737696170806885,"47":3.2101056575775146,"48":0.3536622226238251,"49":3.030693531036377,"50":-2.9001307487487793,"51":-1.383350133895874,"52":-1.140683650970459,"53":1.6337255239486694,"54":0.382999449968338,"55":-2.5498321056365967,"56":0.6791379451751709,"57":-2.0289440155029297,"58":3.192659378051758,"59":0.6267435550689697,"60":1.4179177284240723,"61":-3.491271734237671,"62":1.4604136943817139,"63":-2.325181245803833,"64":-1.5706334114074707,"65":1.5850499868392944,"66":-2.293458938598633,"67":-2.0826022624969482,"68":-1.297248125076294,"69":0.7508075833320618,"70":-1.0457932949066162,"71":0.15783676505088806,"72":-1.9716719388961792,"73":0.3765534460544586,"74":-0.5799310207366943,"75":1.8948122262954712,"76":0.3974255919456482,"77":4.183793544769287,"78":3.95662260055542,"79":2.1349406242370605,"80":-1.2380775213241577,"81":-0.5326189398765564,"82":3.431406021118164,"83":0.6990871429443359,"84":-0.4058195948600769,"85":0.42831844091415405,"86":1.3427380323410034,"87":-0.4695044159889221,"88":-0.1600901335477829,"89":2.791034698486328,"90":0.20372530817985535,"91":0.16156397759914398,"92":0.5400657653808594,"93":0.6203931570053101,"94":-1.0542038679122925,"95":-1.2699421644210815,"96":1.6271787881851196,"97":0.28138503432273865,"98":-2.3445868492126465,"99":2.800692319869995}},"25":{"bias":2.071458578109741,"weights":{"0":-1.070442795753479,"1":-2.7159461975097656,"2":-0.3500039577484131,"3":-1.710030198097229,"4":0.7172740697860718,"5":0.8001333475112915,"6":-1.508805274963379,"7":-1.3329782485961914,"8":2.3558034896850586,"9":0.5556267499923706,"10":-1.3197780847549438,"11":-0.9669273495674133,"12":-0.9136027097702026,"13":0.35594525933265686,"14":-0.16001205146312714,"15":-2.391280174255371,"16":0.4867919087409973,"17":-1.7495237588882446,"18":-0.13145913183689117,"19":1.4157987833023071,"20":-0.5719882845878601,"21":0.3853073716163635,"22":0.9339632987976074,"23":0.13622163236141205,"24":-1.2496370077133179,"25":2.8350799083709717,"26":1.2180722951889038,"27":-1.0498307943344116,"28":-1.332299828529358,"29":-0.6786299347877502,"30":-1.7874606847763062,"31":0.8544167876243591,"32":-1.6121468544006348,"33":3.7802529335021973,"34":0.7824917435646057,"35":-2.680774211883545,"36":-1.2742966413497925,"37":1.3491239547729492,"38":2.2006170749664307,"39":-2.315490961074829,"40":1.633621335029602,"41":-0.1652645319700241,"42":-1.871855616569519,"43":0.22548644244670868,"44":-0.8039975166320801,"45":-0.41789931058883667,"46":0.31684407591819763,"47":1.9499266147613525,"48":0.5232998132705688,"49":1.6847753524780273,"50":0.28314271569252014,"51":-0.6871780753135681,"52":1.0596121549606323,"53":-2.4043991565704346,"54":4.169332981109619,"55":1.6259546279907227,"56":-0.2615758776664734,"57":0.6771879196166992,"58":2.6429500579833984,"59":0.10785439610481262,"60":1.6596156358718872,"61":0.5089194774627686,"62":1.2820411920547485,"63":0.9414027333259583,"64":-1.2544641494750977,"65":-1.5214229822158813,"66":-0.03694567456841469,"67":-0.7799394130706787,"68":0.8265241384506226,"69":0.8519974946975708,"70":1.4642599821090698,"71":0.7837268710136414,"72":-1.8777987957000732,"73":-0.2141122668981552,"74":-1.9603191614151,"75":0.10216184705495834,"76":-1.230109453201294,"77":-2.414320468902588,"78":0.9697430729866028,"79":-0.09174329787492752,"80":0.8367122411727905,"81":-1.690987229347229,"82":-1.140887975692749,"83":-1.101850152015686,"84":0.03504028171300888,"85":-0.19636067748069763,"86":0.1312248706817627,"87":-1.009416937828064,"88":-0.2462380975484848,"89":0.5916036367416382,"90":3.457256317138672,"91":-0.04346667602658272,"92":-2.1207637786865234,"93":-1.535379409790039,"94":-0.6314768195152283,"95":1.1811209917068481,"96":0.6339596509933472,"97":-0.94028639793396,"98":-3.173539876937866,"99":1.5153088569641113}},"26":{"bias":-0.4232284724712372,"weights":{"0":0.6761243939399719,"1":-1.5675253868103027,"2":0.43977949023246765,"3":-0.2518653869628906,"4":-2.190403461456299,"5":-3.1271862983703613,"6":2.299710750579834,"7":-0.982987105846405,"8":1.4295704364776611,"9":2.066678047180176,"10":0.5304017066955566,"11":3.0689733028411865,"12":0.1575300693511963,"13":-0.3074241876602173,"14":0.12935061752796173,"15":3.4381208419799805,"16":-2.9978771209716797,"17":-1.3517208099365234,"18":-1.477806806564331,"19":-3.4479494094848633,"20":1.4355031251907349,"21":1.0108345746994019,"22":0.5630010366439819,"23":-0.8332948088645935,"24":3.5638182163238525,"25":0.282192587852478,"26":-0.31333446502685547,"27":1.590029239654541,"28":-1.7033991813659668,"29":-3.1272799968719482,"30":1.3566666841506958,"31":-0.3826969861984253,"32":1.3345685005187988,"33":-0.47222477197647095,"34":-2.2254879474639893,"35":-1.8604092597961426,"36":0.29448339343070984,"37":-0.8308009505271912,"38":-1.6617399454116821,"39":0.37328216433525085,"40":0.04136668145656586,"41":-1.7361563444137573,"42":-1.74336838722229,"43":0.7315754294395447,"44":-1.689355731010437,"45":1.5883712768554688,"46":0.6655225157737732,"47":1.1574112176895142,"48":1.1448625326156616,"49":-1.374649167060852,"50":0.09681912511587143,"51":-1.0889403820037842,"52":-4.3660736083984375,"53":-0.45809513330459595,"54":2.6272733211517334,"55":-1.128771424293518,"56":2.2129383087158203,"57":-2.786532163619995,"58":-0.17450912296772003,"59":-5.05264139175415,"60":-0.45435839891433716,"61":-1.5912916660308838,"62":-0.5094961524009705,"63":2.871086597442627,"64":2.032672882080078,"65":0.8936318755149841,"66":-0.24775820970535278,"67":2.961745023727417,"68":2.8530004024505615,"69":-3.35075306892395,"70":-0.7302616238594055,"71":0.539789080619812,"72":2.361611843109131,"73":2.8611361980438232,"74":1.4799399375915527,"75":1.9874094724655151,"76":-0.5078944563865662,"77":0.3181149661540985,"78":0.19052369892597198,"79":-1.27438485622406,"80":2.0677378177642822,"81":-1.8014826774597168,"82":0.2829377353191376,"83":1.490523099899292,"84":0.04428311064839363,"85":-1.4583112001419067,"86":-1.671243667602539,"87":-1.5961261987686157,"88":0.39703717827796936,"89":-0.5377925038337708,"90":-0.44374603033065796,"91":0.0824422538280487,"92":0.6197060346603394,"93":2.680371046066284,"94":3.5914838314056396,"95":-0.437563955783844,"96":0.597697377204895,"97":-1.7564239501953125,"98":-0.5417701601982117,"99":1.4055448770523071}},"27":{"bias":-2.6076393127441406,"weights":{"0":1.3990813493728638,"1":-1.524590253829956,"2":-2.5400915145874023,"3":0.13313709199428558,"4":-0.06100313365459442,"5":0.7904936671257019,"6":0.5357416868209839,"7":-0.5695069432258606,"8":0.19776304066181183,"9":1.2223072052001953,"10":-3.6188199520111084,"11":0.9830175042152405,"12":1.815177321434021,"13":0.6420669555664062,"14":-2.228853702545166,"15":-0.8816627264022827,"16":-1.480120062828064,"17":-0.663192093372345,"18":-0.05484400689601898,"19":0.6742538213729858,"20":0.4761376678943634,"21":-0.6148155331611633,"22":1.311455249786377,"23":1.572942852973938,"24":-0.45036229491233826,"25":-1.2123937606811523,"26":1.5628273487091064,"27":-0.5593649744987488,"28":0.9255809187889099,"29":-1.8153389692306519,"30":1.043456792831421,"31":2.025318145751953,"32":0.14569708704948425,"33":-5.449838638305664,"34":0.7972769141197205,"35":-1.2021028995513916,"36":-0.061322156339883804,"37":-1.9911607503890991,"38":-0.9731156826019287,"39":-0.3012596368789673,"40":0.5416857004165649,"41":-2.758237600326538,"42":0.5077486634254456,"43":0.3247610032558441,"44":-0.4608328640460968,"45":-0.16087324917316437,"46":0.6499986052513123,"47":-0.34989169239997864,"48":1.4612133502960205,"49":-1.7696559429168701,"50":0.25631317496299744,"51":-0.06147725507616997,"52":-0.7352175116539001,"53":0.20079895853996277,"54":-1.3215750455856323,"55":1.935413122177124,"56":-0.010836884379386902,"57":-0.15809623897075653,"58":-0.6134771108627319,"59":1.637168288230896,"60":1.9542255401611328,"61":-1.3893288373947144,"62":1.6198092699050903,"63":2.5707428455352783,"64":-1.3022781610488892,"65":0.5450643301010132,"66":1.250183343887329,"67":2.301560163497925,"68":-0.35453709959983826,"69":-1.4483566284179688,"70":1.8497716188430786,"71":-0.06907940655946732,"72":1.4062150716781616,"73":0.21769529581069946,"74":1.2981038093566895,"75":3.056783676147461,"76":-1.2060542106628418,"77":-1.296059250831604,"78":-1.8655847311019897,"79":-0.2719014585018158,"80":-0.8738195300102234,"81":3.47479248046875,"82":-1.0514824390411377,"83":-0.02010379731655121,"84":1.8447316884994507,"85":0.13892875611782074,"86":1.5896351337432861,"87":1.0829929113388062,"88":0.2941238582134247,"89":0.6455032229423523,"90":2.154963493347168,"91":-2.5998334884643555,"92":2.7996339797973633,"93":0.6917151808738708,"94":-1.809557557106018,"95":0.5189202427864075,"96":0.9609937071800232,"97":2.197530746459961,"98":0.8856003880500793,"99":-2.8830981254577637}},"28":{"bias":-1.9586949348449707,"weights":{"0":2.38846492767334,"1":-0.05297644063830376,"2":-0.7288312911987305,"3":-2.072248935699463,"4":-1.9194042682647705,"5":1.3211500644683838,"6":0.6663080453872681,"7":0.09640541672706604,"8":-0.6830984950065613,"9":-1.6138339042663574,"10":-0.3894948959350586,"11":0.3264009356498718,"12":1.1907535791397095,"13":3.388571262359619,"14":-1.743174433708191,"15":-0.36875444650650024,"16":0.36138805747032166,"17":1.6717904806137085,"18":0.26122987270355225,"19":2.7374799251556396,"20":-1.911472201347351,"21":0.9950090050697327,"22":-0.23149684071540833,"23":1.3839704990386963,"24":2.5926589965820312,"25":-1.42220938205719,"26":0.298272043466568,"27":1.3883616924285889,"28":0.8864052891731262,"29":1.3194986581802368,"30":1.4053256511688232,"31":2.4556992053985596,"32":-2.5348494052886963,"33":-1.61309015750885,"34":1.5560213327407837,"35":0.8224031925201416,"36":0.6734986305236816,"37":-0.13973881304264069,"38":1.1605169773101807,"39":-1.2404900789260864,"40":2.690586566925049,"41":-2.0328755378723145,"42":-0.603676974773407,"43":-0.3521321713924408,"44":-0.6417815685272217,"45":-0.8846420645713806,"46":-0.20069356262683868,"47":0.9238622188568115,"48":-1.2079371213912964,"49":0.652065098285675,"50":-2.8968467712402344,"51":-3.451660633087158,"52":2.024689197540283,"53":-0.6914025545120239,"54":-1.0293776988983154,"55":-0.8711552023887634,"56":-0.6091036796569824,"57":-3.2919223308563232,"58":-1.7861008644104004,"59":0.030586441978812218,"60":-2.149824619293213,"61":3.8446643352508545,"62":-0.6708296537399292,"63":0.44200071692466736,"64":1.5575031042099,"65":0.6542221903800964,"66":2.046611785888672,"67":0.0174060370773077,"68":1.6068106889724731,"69":-0.05109584331512451,"70":3.316626787185669,"71":-0.16482412815093994,"72":-2.054133892059326,"73":-0.9166300892829895,"74":-2.521912097930908,"75":1.0612417459487915,"76":1.7263147830963135,"77":-2.9179270267486572,"78":-3.012173891067505,"79":0.5567798018455505,"80":1.762424111366272,"81":-1.453205943107605,"82":1.93368661403656,"83":-0.7593672275543213,"84":1.599260926246643,"85":-2.3414247035980225,"86":1.0447214841842651,"87":2.5058810710906982,"88":-0.4109008014202118,"89":2.70683217048645,"90":1.7709945440292358,"91":-1.2836321592330933,"92":-3.3490498065948486,"93":-0.9813284873962402,"94":0.3822707235813141,"95":-3.188530921936035,"96":1.3319963216781616,"97":3.121574878692627,"98":0.7114195227622986,"99":-0.6331409811973572}},"29":{"bias":1.561772108078003,"weights":{"0":1.3505024909973145,"1":-1.8091944456100464,"2":1.6493265628814697,"3":1.4074348211288452,"4":0.30845847725868225,"5":-1.6968530416488647,"6":-1.2938287258148193,"7":-1.4421696662902832,"8":0.3295225203037262,"9":-1.237604022026062,"10":-0.8316439986228943,"11":-3.992295026779175,"12":1.0200848579406738,"13":0.322492778301239,"14":2.0464186668395996,"15":0.2601950466632843,"16":0.42485350370407104,"17":0.3881845772266388,"18":1.286172866821289,"19":0.8813710808753967,"20":0.9891067743301392,"21":-2.2968013286590576,"22":-2.716837167739868,"23":-1.9998224973678589,"24":0.142624631524086,"25":1.7237106561660767,"26":2.69860577583313,"27":1.9283320903778076,"28":0.11088245362043381,"29":-0.11434707045555115,"30":-0.4467368721961975,"31":-0.32189100980758667,"32":-0.32613691687583923,"33":-1.0495123863220215,"34":-0.7383670806884766,"35":3.2762808799743652,"36":-0.023129962384700775,"37":-2.162771701812744,"38":-0.5404055118560791,"39":-1.911312460899353,"40":1.2634090185165405,"41":-0.5532687306404114,"42":1.6960175037384033,"43":-0.4141005575656891,"44":-0.61854088306427,"45":-0.3842394948005676,"46":2.321075439453125,"47":-1.8962310552597046,"48":1.3401011228561401,"49":-1.1971285343170166,"50":-3.4470601081848145,"51":-1.0495723485946655,"52":-0.36549732089042664,"53":-0.8163236975669861,"54":-1.7085540294647217,"55":-0.5487027764320374,"56":-2.076880931854248,"57":1.0884279012680054,"58":0.6890180110931396,"59":-2.576854944229126,"60":0.5084020495414734,"61":1.9407933950424194,"62":-2.299758195877075,"63":-3.6199402809143066,"64":-0.15015530586242676,"65":-3.1557464599609375,"66":1.7915782928466797,"67":1.606176495552063,"68":1.9476805925369263,"69":-1.3510284423828125,"70":0.2515241503715515,"71":-0.21615135669708252,"72":2.6605119705200195,"73":-0.48227185010910034,"74":-0.9939566254615784,"75":-1.7213793992996216,"76":-1.2904386520385742,"77":0.5182550549507141,"78":-0.2942292094230652,"79":1.9962471723556519,"80":-0.9585404992103577,"81":0.4560815095901489,"82":0.5137535929679871,"83":0.4899260401725769,"84":1.8278104066848755,"85":-1.9378862380981445,"86":2.4028234481811523,"87":0.2369617372751236,"88":1.0226550102233887,"89":-0.09154047816991806,"90":0.17032776772975922,"91":-1.2722361087799072,"92":-0.49316325783729553,"93":0.8668307065963745,"94":-0.24932442605495453,"95":-1.3949370384216309,"96":3.258192539215088,"97":4.427229881286621,"98":1.7181532382965088,"99":-0.8528159260749817}},"30":{"bias":0.2355215698480606,"weights":{"0":-0.4310152232646942,"1":-0.285067081451416,"2":0.009849530644714832,"3":-1.5392370223999023,"4":2.5690596103668213,"5":2.1894724369049072,"6":-3.185243606567383,"7":2.958057165145874,"8":-1.5199187994003296,"9":1.5613433122634888,"10":-0.04808172583580017,"11":-3.2082467079162598,"12":0.7267159223556519,"13":1.6791315078735352,"14":1.711215853691101,"15":-2.709045648574829,"16":0.08289866149425507,"17":1.062706470489502,"18":-1.2408726215362549,"19":-2.2346279621124268,"20":-0.8529285788536072,"21":-3.149869680404663,"22":-1.6352369785308838,"23":-0.8822351694107056,"24":4.523705959320068,"25":-1.7553036212921143,"26":0.1887076050043106,"27":-1.632049798965454,"28":-1.1561213731765747,"29":0.5335484147071838,"30":-2.4024646282196045,"31":-1.887757658958435,"32":-0.9637340307235718,"33":0.12806661427021027,"34":0.5995027422904968,"35":-3.2941038608551025,"36":0.6602321267127991,"37":2.2594428062438965,"38":1.7227258682250977,"39":2.7289786338806152,"40":0.9203360676765442,"41":-1.5809235572814941,"42":0.7907997965812683,"43":-0.6953439712524414,"44":2.559907913208008,"45":3.0583150386810303,"46":-2.0907886028289795,"47":2.1258115768432617,"48":0.9008013606071472,"49":2.0807290077209473,"50":-5.054847240447998,"51":-0.21876901388168335,"52":-3.7754461765289307,"53":0.8966213464736938,"54":-0.14697396755218506,"55":1.4899990558624268,"56":-2.0029456615448,"57":2.8021085262298584,"58":1.2726945877075195,"59":-1.7378870248794556,"60":1.6817517280578613,"61":-0.5982162356376648,"62":1.3779791593551636,"63":-3.5850980281829834,"64":2.150480270385742,"65":0.8537645936012268,"66":1.7232688665390015,"67":4.30331563949585,"68":-0.16134683787822723,"69":0.2260880470275879,"70":2.9942972660064697,"71":-0.01925426349043846,"72":1.9311378002166748,"73":-2.3226916790008545,"74":-1.1112639904022217,"75":0.1595880538225174,"76":-1.8351473808288574,"77":-1.9837762117385864,"78":-1.2339533567428589,"79":-1.2642549276351929,"80":2.2612154483795166,"81":-0.05297546088695526,"82":0.2807419002056122,"83":1.178290605545044,"84":2.0830769538879395,"85":4.9875593185424805,"86":-0.0020715126302093267,"87":-0.1866912692785263,"88":-2.9382996559143066,"89":-1.1767585277557373,"90":1.013935923576355,"91":-3.393237590789795,"92":1.1479202508926392,"93":-0.9497984051704407,"94":-0.8345950841903687,"95":-1.7325797080993652,"96":3.354557752609253,"97":1.0007268190383911,"98":-2.5003812313079834,"99":-1.785762071609497}},"31":{"bias":0.27727651596069336,"weights":{"0":1.6973408460617065,"1":3.1959786415100098,"2":0.22340860962867737,"3":-0.4599740505218506,"4":2.0288732051849365,"5":-1.1319199800491333,"6":0.31099438667297363,"7":-1.057354211807251,"8":0.6000872850418091,"9":0.018152354285120964,"10":-0.37246766686439514,"11":-1.139219045639038,"12":-2.211461305618286,"13":1.3451646566390991,"14":1.46365487575531,"15":0.6064903140068054,"16":-3.50984787940979,"17":-0.3421977460384369,"18":0.8183242082595825,"19":0.30439868569374084,"20":-0.40467262268066406,"21":-1.3864949941635132,"22":1.9545539617538452,"23":2.6005051136016846,"24":-1.1635289192199707,"25":-2.671783685684204,"26":2.552661180496216,"27":-0.7919584512710571,"28":-0.5055006146430969,"29":-2.2121098041534424,"30":-1.4983108043670654,"31":1.2370049953460693,"32":1.8260294198989868,"33":-1.1945106983184814,"34":-0.2628929018974304,"35":-2.512510299682617,"36":3.5846107006073,"37":0.9724608063697815,"38":-0.43727245926856995,"39":0.9743850231170654,"40":-2.235344886779785,"41":-3.603847026824951,"42":1.169456958770752,"43":1.5303155183792114,"44":-0.22501608729362488,"45":0.7853883504867554,"46":-0.8436350226402283,"47":-0.25595715641975403,"48":-0.5451073050498962,"49":3.1643548011779785,"50":2.5681803226470947,"51":-3.153369665145874,"52":-0.03015676885843277,"53":-0.6635423302650452,"54":2.420769453048706,"55":-2.0114426612854004,"56":-1.0632737874984741,"57":0.5304457545280457,"58":4.115890026092529,"59":1.7072056531906128,"60":1.2673085927963257,"61":-4.128779888153076,"62":-0.08028315007686615,"63":-1.2550206184387207,"64":-1.9855822324752808,"65":-2.03096079826355,"66":1.822399616241455,"67":-0.21095556020736694,"68":-1.9382622241973877,"69":-0.07293078303337097,"70":0.13766683638095856,"71":-2.245490074157715,"72":-0.3507267236709595,"73":4.831813335418701,"74":0.45360010862350464,"75":0.3856051564216614,"76":2.2124388217926025,"77":1.9143483638763428,"78":0.025422614067792892,"79":0.6106813549995422,"80":-1.143555760383606,"81":-0.6308534145355225,"82":0.6100370287895203,"83":-2.7394602298736572,"84":-2.1347405910491943,"85":-1.1875358819961548,"86":-0.6004564762115479,"87":1.9182730913162231,"88":-0.7960897088050842,"89":2.8761847019195557,"90":-1.8423080444335938,"91":1.228701114654541,"92":1.5116829872131348,"93":0.4693572223186493,"94":-1.3212076425552368,"95":1.9951056241989136,"96":-1.5047602653503418,"97":-3.244502544403076,"98":-3.549266815185547,"99":1.7830203771591187}},"32":{"bias":-2.532313346862793,"weights":{"0":0.0886097252368927,"1":-2.0277960300445557,"2":0.34527847170829773,"3":0.12129374593496323,"4":-1.0851364135742188,"5":1.1263023614883423,"6":1.1063176393508911,"7":-1.0582314729690552,"8":1.8322337865829468,"9":-4.410689353942871,"10":-0.5594031810760498,"11":2.988712787628174,"12":0.7521226406097412,"13":2.661120891571045,"14":-0.9659186601638794,"15":-0.7914595007896423,"16":0.994104266166687,"17":-3.319214105606079,"18":-0.12327300012111664,"19":0.8057308197021484,"20":-1.1092088222503662,"21":1.843057632446289,"22":3.170346736907959,"23":-1.248478889465332,"24":3.3032045364379883,"25":-0.20244503021240234,"26":-2.7820489406585693,"27":-1.6052931547164917,"28":3.6757121086120605,"29":0.5286104679107666,"30":1.1113637685775757,"31":1.377638578414917,"32":-0.7571399211883545,"33":-2.161424398422241,"34":1.3075830936431885,"35":-0.4107390344142914,"36":-0.9419828653335571,"37":0.5527331233024597,"38":-1.8548802137374878,"39":0.16816268861293793,"40":-0.35272684693336487,"41":0.9999098181724548,"42":-2.5003929138183594,"43":1.9106698036193848,"44":0.8100346922874451,"45":1.2430219650268555,"46":1.1391881704330444,"47":1.069269061088562,"48":2.3063502311706543,"49":-3.1690919399261475,"50":0.748723566532135,"51":-2.971285343170166,"52":-1.6806559562683105,"53":-1.8246362209320068,"54":-0.9463388919830322,"55":-0.4633149802684784,"56":-1.7520084381103516,"57":0.5751078724861145,"58":1.1169352531433105,"59":2.3657407760620117,"60":4.545133590698242,"61":1.957916259765625,"62":1.6646355390548706,"63":1.529676079750061,"64":-1.2388169765472412,"65":0.142195463180542,"66":0.7763797640800476,"67":-5.378179550170898,"68":0.4145531952381134,"69":-0.5517668128013611,"70":0.2978065013885498,"71":3.2171688079833984,"72":1.6830732822418213,"73":1.2307243347167969,"74":3.128309726715088,"75":-0.6868737936019897,"76":3.2265896797180176,"77":-1.611274242401123,"78":-0.07739874720573425,"79":-0.7051776647567749,"80":-0.3171384334564209,"81":3.3282039165496826,"82":2.47391414642334,"83":-1.493902325630188,"84":-1.274648666381836,"85":-1.0647850036621094,"86":0.5279709100723267,"87":1.2670451402664185,"88":0.6037137508392334,"89":0.8090501427650452,"90":-0.9134483337402344,"91":-4.035044193267822,"92":-0.2814452648162842,"93":0.23981459438800812,"94":-1.4340271949768066,"95":3.689323663711548,"96":-4.027705669403076,"97":0.24855975806713104,"98":-3.171316623687744,"99":-2.3864169120788574}},"33":{"bias":-0.39412397146224976,"weights":{"0":-0.0785621851682663,"1":1.0914567708969116,"2":0.4191901385784149,"3":2.03440523147583,"4":-1.3566991090774536,"5":-0.6938583850860596,"6":-1.9217926263809204,"7":-0.8981569409370422,"8":0.9581071138381958,"9":-1.2959637641906738,"10":1.2004523277282715,"11":0.501314640045166,"12":-0.6544169783592224,"13":0.8796797394752502,"14":0.5868666172027588,"15":-4.6035051345825195,"16":0.458030641078949,"17":1.8081365823745728,"18":-1.2901687622070312,"19":1.3700731992721558,"20":2.395702362060547,"21":-0.8187570571899414,"22":0.7805350422859192,"23":3.0815773010253906,"24":-1.5298131704330444,"25":-0.6757145524024963,"26":-0.3827694356441498,"27":0.4529290795326233,"28":-2.9677791595458984,"29":-2.9356815814971924,"30":-0.21167489886283875,"31":-0.27546659111976624,"32":0.5288403034210205,"33":-1.22236168384552,"34":-0.9002622961997986,"35":1.8647663593292236,"36":1.4157170057296753,"37":-0.4739980399608612,"38":-4.301841735839844,"39":0.5969344973564148,"40":0.4016604423522949,"41":0.5068213939666748,"42":3.2024831771850586,"43":0.45939385890960693,"44":0.41504746675491333,"45":0.9518843293190002,"46":1.6603533029556274,"47":-1.5034836530685425,"48":0.6207057237625122,"49":0.20350658893585205,"50":0.34079474210739136,"51":0.5119408369064331,"52":2.520726442337036,"53":-2.6666688919067383,"54":4.353919982910156,"55":-2.460468292236328,"56":3.1856613159179688,"57":-1.4396690130233765,"58":0.5355710983276367,"59":-0.09825786203145981,"60":-0.373433917760849,"61":0.8177917003631592,"62":0.016346344724297523,"63":-0.40722063183784485,"64":0.0016485648229718208,"65":-0.1606353521347046,"66":3.6234309673309326,"67":0.3306243121623993,"68":1.1622583866119385,"69":-1.4501302242279053,"70":-2.9814000129699707,"71":0.9855045080184937,"72":0.7136521339416504,"73":-1.8200372457504272,"74":1.2961432933807373,"75":0.3108074963092804,"76":-2.522308826446533,"77":-0.1895199418067932,"78":-1.0103113651275635,"79":-2.93336820602417,"80":1.0193760395050049,"81":-0.4458257257938385,"82":0.5814898014068604,"83":-0.6882830262184143,"84":-1.6673332452774048,"85":-2.8171579837799072,"86":3.081271171569824,"87":0.3669319152832031,"88":1.268508791923523,"89":0.4234400987625122,"90":0.8428528904914856,"91":-2.3816518783569336,"92":-1.6880995035171509,"93":2.91872239112854,"94":-1.6732364892959595,"95":-0.5291230082511902,"96":-0.8096826076507568,"97":1.2395107746124268,"98":2.786555051803589,"99":0.042644478380680084}},"34":{"bias":1.790731430053711,"weights":{"0":-1.9211634397506714,"1":-2.943838596343994,"2":1.17984938621521,"3":-1.3533965349197388,"4":0.9478839635848999,"5":-0.21170824766159058,"6":-0.2598017156124115,"7":1.316667914390564,"8":-0.42683330178260803,"9":-0.42667311429977417,"10":-0.3116017282009125,"11":0.516215980052948,"12":1.0966637134552002,"13":-3.437398910522461,"14":0.10420729964971542,"15":2.2390429973602295,"16":2.146260976791382,"17":-0.226011723279953,"18":1.4809762239456177,"19":1.5527045726776123,"20":-0.2992217540740967,"21":-1.8257701396942139,"22":-0.9658793807029724,"23":3.4613308906555176,"24":0.5814967751502991,"25":0.4537607431411743,"26":-0.7903819680213928,"27":1.3206560611724854,"28":1.1417605876922607,"29":-0.6036036610603333,"30":1.2115755081176758,"31":-0.20648588240146637,"32":1.6055691242218018,"33":1.5556670427322388,"34":-0.4286983907222748,"35":0.5395808815956116,"36":-1.0947808027267456,"37":1.4375991821289062,"38":-0.8930719494819641,"39":0.6826085448265076,"40":-0.4155317544937134,"41":1.0967137813568115,"42":-0.581577479839325,"43":-0.44905516505241394,"44":0.7638307213783264,"45":1.6868577003479004,"46":-0.9686589241027832,"47":0.14803248643875122,"48":-2.4047000408172607,"49":-2.0261850357055664,"50":0.6957389712333679,"51":-0.5530175566673279,"52":-1.281111478805542,"53":-1.1187852621078491,"54":1.6936618089675903,"55":2.3388984203338623,"56":0.36385369300842285,"57":-1.170796513557434,"58":-2.6299827098846436,"59":0.7446219325065613,"60":-0.4218759536743164,"61":1.6597702503204346,"62":-1.9005486965179443,"63":0.7567958235740662,"64":0.435944139957428,"65":-1.1629631519317627,"66":-1.2866743803024292,"67":-2.0710062980651855,"68":-1.3925751447677612,"69":1.5903209447860718,"70":-0.5954060554504395,"71":1.1500030755996704,"72":0.33009427785873413,"73":-4.602745532989502,"74":0.06811936944723129,"75":-2.7941160202026367,"76":-1.0903083086013794,"77":0.03428846225142479,"78":-0.37016215920448303,"79":1.8353440761566162,"80":0.8508817553520203,"81":-2.532111883163452,"82":0.479546457529068,"83":-0.7891983985900879,"84":-0.6425209045410156,"85":-1.2786946296691895,"86":-3.6786818504333496,"87":1.085874080657959,"88":1.99088454246521,"89":-1.7834138870239258,"90":1.2903542518615723,"91":2.242541551589966,"92":-0.8964198231697083,"93":2.4993176460266113,"94":1.1530429124832153,"95":-1.801992654800415,"96":0.7947326302528381,"97":-2.781273603439331,"98":0.6444541215896606,"99":1.51462721824646}},"35":{"bias":0.26821961998939514,"weights":{"0":1.6402984857559204,"1":0.44167640805244446,"2":0.5520372986793518,"3":-0.9465878009796143,"4":0.9929582476615906,"5":-0.6000648140907288,"6":-1.0798155069351196,"7":-1.4888319969177246,"8":-0.9986068606376648,"9":-1.468921184539795,"10":-1.7513837814331055,"11":1.5255036354064941,"12":0.7335482835769653,"13":-0.177219420671463,"14":1.5478624105453491,"15":-0.7588963508605957,"16":-0.10027334094047546,"17":1.3978688716888428,"18":-1.7368674278259277,"19":1.1304724216461182,"20":-0.05990215763449669,"21":-2.013658285140991,"22":-0.9913401007652283,"23":2.0171921253204346,"24":0.8841499090194702,"25":-0.36041259765625,"26":0.5928695201873779,"27":-3.812070608139038,"28":-0.7710117101669312,"29":-0.9360107183456421,"30":-0.43188440799713135,"31":-0.7988765239715576,"32":1.283980131149292,"33":2.3288965225219727,"34":1.4689570665359497,"35":-0.32221513986587524,"36":1.6536378860473633,"37":-0.8487662076950073,"38":2.035024881362915,"39":-0.114067442715168,"40":2.5862009525299072,"41":0.4364364743232727,"42":1.0708643198013306,"43":0.933229923248291,"44":-3.0120129585266113,"45":0.6616328358650208,"46":-4.776103496551514,"47":-0.769034743309021,"48":0.5995621681213379,"49":-0.25356799364089966,"50":3.468108654022217,"51":0.17979490756988525,"52":0.6115244030952454,"53":0.7717835307121277,"54":0.052091602236032486,"55":0.8074303269386292,"56":-2.5653560161590576,"57":3.5414505004882812,"58":2.2105090618133545,"59":2.069071054458618,"60":-0.7755500674247742,"61":-1.6032947301864624,"62":0.14418677985668182,"63":2.4861910343170166,"64":-1.0309256315231323,"65":0.6952632665634155,"66":-0.23411081731319427,"67":-0.2803495228290558,"68":-0.8428895473480225,"69":-2.488049030303955,"70":-0.38365060091018677,"71":-1.9771645069122314,"72":-0.39204153418540955,"73":-0.3883081078529358,"74":1.1886286735534668,"75":0.26445630192756653,"76":1.3731943368911743,"77":1.6139060258865356,"78":1.1933205127716064,"79":-1.8135253190994263,"80":-1.8931676149368286,"81":-0.9243507385253906,"82":-2.1488354206085205,"83":1.3522307872772217,"84":-3.91221022605896,"85":0.9230124354362488,"86":-2.507617712020874,"87":-0.23768937587738037,"88":-0.8348910212516785,"89":1.0452020168304443,"90":-2.092433452606201,"91":0.6603789329528809,"92":1.033484697341919,"93":1.5994666814804077,"94":0.0615842230618,"95":0.45660024881362915,"96":-0.5825122594833374,"97":-0.5230036973953247,"98":0.8777644038200378,"99":2.3065898418426514}},"36":{"bias":0.9323955774307251,"weights":{"0":-1.1812162399291992,"1":2.793247699737549,"2":1.2162933349609375,"3":1.1807805299758911,"4":-1.1822171211242676,"5":-0.6312233805656433,"6":-0.282720148563385,"7":0.5264743566513062,"8":-1.1749510765075684,"9":-0.4610970616340637,"10":-2.740182399749756,"11":-1.6976110935211182,"12":0.8065128326416016,"13":1.044206142425537,"14":0.47830793261528015,"15":-3.2608048915863037,"16":0.43074294924736023,"17":-0.14656661450862885,"18":2.318784236907959,"19":2.342625617980957,"20":-0.4145522117614746,"21":0.6473841667175293,"22":0.42598456144332886,"23":0.9274808168411255,"24":-0.4997062683105469,"25":0.7006484270095825,"26":1.827697992324829,"27":1.098597526550293,"28":3.2981600761413574,"29":-1.3110750913619995,"30":-2.171250343322754,"31":-0.7231032252311707,"32":-2.739020586013794,"33":-0.11144939810037613,"34":-0.008238770067691803,"35":1.6584436893463135,"36":0.3876562714576721,"37":-4.395730495452881,"38":-0.19077898561954498,"39":1.1828365325927734,"40":0.26316729187965393,"41":-1.4576388597488403,"42":-0.7206124067306519,"43":-2.392644166946411,"44":-0.3191877603530884,"45":0.8794465661048889,"46":-0.0701509490609169,"47":-0.6065731048583984,"48":1.0168026685714722,"49":0.5537493228912354,"50":2.3299062252044678,"51":0.21714851260185242,"52":1.4187495708465576,"53":0.39711275696754456,"54":1.6033414602279663,"55":4.771360397338867,"56":0.014577350579202175,"57":-2.458338499069214,"58":3.6106247901916504,"59":1.128152847290039,"60":-0.888507068157196,"61":1.9874985218048096,"62":0.6053856611251831,"63":-1.4013105630874634,"64":-3.6988327503204346,"65":-1.739257574081421,"66":-2.0178680419921875,"67":1.9470672607421875,"68":-0.25216543674468994,"69":-1.2948825359344482,"70":-2.017286539077759,"71":0.17944565415382385,"72":-2.17372727394104,"73":2.932626485824585,"74":1.553252935409546,"75":0.8669449090957642,"76":-2.3921945095062256,"77":1.89202082157135,"78":1.6981611251831055,"79":-1.443852424621582,"80":-2.6434614658355713,"81":-0.28041747212409973,"82":1.192979335784912,"83":-0.2526104748249054,"84":-0.9081588387489319,"85":-0.7562097311019897,"86":2.264174461364746,"87":3.0715739727020264,"88":-0.3361784517765045,"89":-4.129583358764648,"90":-0.7687211632728577,"91":-1.249391794204712,"92":-2.1355173587799072,"93":-1.083512544631958,"94":-1.3798402547836304,"95":-1.1923537254333496,"96":3.938788890838623,"97":-2.4342434406280518,"98":1.4098899364471436,"99":-1.1282858848571777}},"37":{"bias":-1.178684115409851,"weights":{"0":0.22260835766792297,"1":-1.1998752355575562,"2":0.4117441773414612,"3":-0.6889511942863464,"4":3.62410831451416,"5":0.2894662618637085,"6":-0.25176477432250977,"7":0.07135146111249924,"8":4.906220436096191,"9":0.9607921242713928,"10":0.16550451517105103,"11":0.41813328862190247,"12":1.1724413633346558,"13":-0.0498785637319088,"14":-1.2477025985717773,"15":-0.44782957434654236,"16":-0.1816457211971283,"17":0.22887051105499268,"18":-0.2254704385995865,"19":1.2707923650741577,"20":2.5279853343963623,"21":1.1009405851364136,"22":-0.9336135983467102,"23":-1.444707989692688,"24":0.6002480983734131,"25":-2.9550342559814453,"26":0.8172485828399658,"27":2.98970103263855,"28":-0.8304417133331299,"29":0.0702243372797966,"30":0.7451559901237488,"31":-2.6760740280151367,"32":-0.9078241586685181,"33":0.4771435260772705,"34":1.7738697528839111,"35":-3.639185905456543,"36":-1.879180669784546,"37":-0.09099500626325607,"38":0.6220943927764893,"39":3.2668297290802,"40":1.6539651155471802,"41":0.010749963112175465,"42":-0.30247190594673157,"43":-1.6794190406799316,"44":-2.067547559738159,"45":0.953744649887085,"46":-0.02659691497683525,"47":2.5602264404296875,"48":3.3670477867126465,"49":0.9447193741798401,"50":1.401121735572815,"51":-0.32969072461128235,"52":-1.6826565265655518,"53":-2.912031650543213,"54":3.237962245941162,"55":-2.537684679031372,"56":-0.8844759464263916,"57":-3.187830686569214,"58":2.991671323776245,"59":-0.03295557200908661,"60":3.040027379989624,"61":2.0772719383239746,"62":-0.20461447536945343,"63":1.0336008071899414,"64":-2.743513345718384,"65":-1.2474380731582642,"66":-1.3761392831802368,"67":-2.6032166481018066,"68":1.1147023439407349,"69":0.4897906482219696,"70":-0.6370782256126404,"71":1.4654483795166016,"72":-0.6393684148788452,"73":1.5700184106826782,"74":-0.3407612442970276,"75":0.36962395906448364,"76":-1.0505644083023071,"77":-0.39767810702323914,"78":-0.2533080279827118,"79":-1.2988569736480713,"80":-1.8780537843704224,"81":-0.008287337608635426,"82":-1.3275445699691772,"83":-2.417243003845215,"84":-0.7567318677902222,"85":-2.737291097640991,"86":-1.2279785871505737,"87":0.8834888935089111,"88":-0.7293312549591064,"89":3.7325594425201416,"90":4.932501792907715,"91":0.7915759682655334,"92":-0.2025461345911026,"93":-3.1696300506591797,"94":0.920600175857544,"95":0.701140284538269,"96":-2.482274293899536,"97":0.7811189889907837,"98":-2.6325345039367676,"99":3.1262824535369873}},"38":{"bias":0.2649885416030884,"weights":{"0":-0.11183203756809235,"1":1.799239158630371,"2":-1.4115017652511597,"3":2.4769182205200195,"4":0.23773738741874695,"5":-1.4977322816848755,"6":1.3780667781829834,"7":0.020391710102558136,"8":-1.7637395858764648,"9":1.765985369682312,"10":1.1507365703582764,"11":2.0102686882019043,"12":1.9520736932754517,"13":-1.6197130680084229,"14":1.6174319982528687,"15":0.443011075258255,"16":0.36559340357780457,"17":0.9098777174949646,"18":-0.4391739070415497,"19":-2.28403639793396,"20":-1.0733835697174072,"21":-0.8822375535964966,"22":1.0050016641616821,"23":2.4993045330047607,"24":-0.18324586749076843,"25":-1.8643064498901367,"26":-2.4319331645965576,"27":1.155293345451355,"28":-0.6366473436355591,"29":-0.40801310539245605,"30":0.3457508385181427,"31":-0.5944411158561707,"32":1.6130315065383911,"33":0.5505675077438354,"34":0.04696616157889366,"35":1.6055961847305298,"36":0.40546077489852905,"37":-0.7277026176452637,"38":-1.1901330947875977,"39":1.4906015396118164,"40":-2.154513120651245,"41":0.7939117550849915,"42":-0.3809562623500824,"43":2.0440993309020996,"44":-3.3324334621429443,"45":-2.22163462638855,"46":2.095146417617798,"47":-0.05867774412035942,"48":-0.7700580954551697,"49":-0.03235616907477379,"50":0.8254333734512329,"51":-0.027542509138584137,"52":1.4426459074020386,"53":1.5865281820297241,"54":-1.2908397912979126,"55":2.245405912399292,"56":0.20135989785194397,"57":-0.3965017795562744,"58":-1.0266683101654053,"59":1.357939600944519,"60":1.6301928758621216,"61":-0.05552282556891441,"62":-1.6106771230697632,"63":1.1247222423553467,"64":-3.2410593032836914,"65":0.7241156101226807,"66":-1.9032981395721436,"67":1.9710626602172852,"68":-2.2042832374572754,"69":-2.5276896953582764,"70":-1.2915197610855103,"71":-0.21186146140098572,"72":-2.275876522064209,"73":-1.6244935989379883,"74":1.0637164115905762,"75":1.611903429031372,"76":0.07122080028057098,"77":1.4621772766113281,"78":-0.6416943669319153,"79":-0.885263979434967,"80":-0.4684217870235443,"81":-2.7415318489074707,"82":0.6669764518737793,"83":0.399667888879776,"84":-2.7707808017730713,"85":0.5521382689476013,"86":0.5828105211257935,"87":0.2973269522190094,"88":0.2760847806930542,"89":1.8019163608551025,"90":0.13533639907836914,"91":0.7446442246437073,"92":1.687807559967041,"93":-0.9166690111160278,"94":-0.04946257546544075,"95":1.9768246412277222,"96":0.872505247592926,"97":-1.2201602458953857,"98":-2.375840902328491,"99":-0.7686523795127869}},"39":{"bias":1.3253439664840698,"weights":{"0":-2.5881576538085938,"1":-1.4091945886611938,"2":1.6177703142166138,"3":-0.7263237237930298,"4":0.6441584825515747,"5":-2.1793060302734375,"6":-1.7207409143447876,"7":2.976288080215454,"8":1.666584849357605,"9":2.561958074569702,"10":0.5186383128166199,"11":-0.2564525306224823,"12":1.2149646282196045,"13":1.5989526510238647,"14":0.47459059953689575,"15":1.104993224143982,"16":-1.4304847717285156,"17":0.7805071473121643,"18":-2.0208210945129395,"19":-3.2769272327423096,"20":-0.4986702799797058,"21":3.81604266166687,"22":3.138268232345581,"23":-1.6953274011611938,"24":3.490241527557373,"25":0.4974900484085083,"26":-0.6941792368888855,"27":0.16376613080501556,"28":2.218256950378418,"29":0.8319291472434998,"30":-1.169163703918457,"31":1.8525354862213135,"32":-1.2912839651107788,"33":-1.8943928480148315,"34":-0.7497292757034302,"35":-0.3366965651512146,"36":0.5951671004295349,"37":2.1327948570251465,"38":-0.5219284892082214,"39":-2.360999822616577,"40":-2.386794090270996,"41":0.6934596300125122,"42":0.00044983261614106596,"43":1.4362306594848633,"44":3.813194751739502,"45":2.6722524166107178,"46":1.4833732843399048,"47":-2.626948356628418,"48":-0.1931549310684204,"49":1.1399847269058228,"50":-0.4399262070655823,"51":-3.6617913246154785,"52":1.9237301349639893,"53":-2.144343137741089,"54":-2.4091882705688477,"55":-1.4853564500808716,"56":-2.4186134338378906,"57":1.4796981811523438,"58":-2.5157647132873535,"59":-0.33130499720573425,"60":-1.294777512550354,"61":-1.1852933168411255,"62":-0.17924395203590393,"63":1.9910507202148438,"64":-1.2255141735076904,"65":-0.841437816619873,"66":1.1024401187896729,"67":3.5692946910858154,"68":-1.8033509254455566,"69":4.374415397644043,"70":-3.6767826080322266,"71":1.1905006170272827,"72":0.806039035320282,"73":-1.8421295881271362,"74":0.2599332928657532,"75":-0.1545584797859192,"76":0.2353750467300415,"77":0.8821189403533936,"78":0.3217451274394989,"79":0.4539357125759125,"80":-1.7379827499389648,"81":0.9855044484138489,"82":-0.39072665572166443,"83":-2.7318172454833984,"84":-2.0157980918884277,"85":-3.6797666549682617,"86":0.40825745463371277,"87":0.65450519323349,"88":-0.39512941241264343,"89":-4.239480018615723,"90":-1.3056342601776123,"91":0.2580821216106415,"92":-0.025114862248301506,"93":0.9303041100502014,"94":-0.13489389419555664,"95":2.5414528846740723,"96":1.617371916770935,"97":1.8552091121673584,"98":0.3711751103401184,"99":2.2220711708068848}},"40":{"bias":-0.8140355944633484,"weights":{"0":1.4012458324432373,"1":-0.9846478700637817,"2":-3.042160749435425,"3":0.8719896078109741,