{"sizes":[100,50,37],"layers":[{"0":{},"1":{},"2":{},"3":{},"4":{},"5":{},"6":{},"7":{},"8":{},"9":{},"10":{},"11":{},"12":{},"13":{},"14":{},"15":{},"16":{},"17":{},"18":{},"19":{},"20":{},"21":{},"22":{},"23":{},"24":{},"25":{},"26":{},"27":{},"28":{},"29":{},"30":{},"31":{},"32":{},"33":{},"34":{},"35":{},"36":{},"37":{},"38":{},"39":{},"40":{},"41":{},"42":{},"43":{},"44":{},"45":{},"46":{},"47":{},"48":{},"49":{},"50":{},"51":{},"52":{},"53":{},"54":{},"55":{},"56":{},"57":{},"58":{},"59":{},"60":{},"61":{},"62":{},"63":{},"64":{},"65":{},"66":{},"67":{},"68":{},"69":{},"70":{},"71":{},"72":{},"73":{},"74":{},"75":{},"76":{},"77":{},"78":{},"79":{},"80":{},"81":{},"82":{},"83":{},"84":{},"85":{},"86":{},"87":{},"88":{},"89":{},"90":{},"91":{},"92":{},"93":{},"94":{},"95":{},"96":{},"97":{},"98":{},"99":{}},{"0":{"bias":1.3863192796707153,"weights":{"0":0.37468817830085754,"1":0.3456892669200897,"2":-0.4720408618450165,"3":-0.40375658869743347,"4":1.7794238328933716,"5":3.581087112426758,"6":0.4065456688404083,"7":-1.9855283498764038,"8":2.269639730453491,"9":-0.8422314524650574,"10":0.3182678818702698,"11":-0.13164708018302917,"12":0.49431973695755005,"13":2.5146169662475586,"14":-0.8529201745986938,"15":0.6929524540901184,"16":-3.8909542560577393,"17":-2.490159034729004,"18":-0.4657704532146454,"19":0.9753787517547607,"20":4.8952956199646,"21":0.15126898884773254,"22":1.2585804462432861,"23":2.0258114337921143,"24":-0.8907077312469482,"25":-2.1450650691986084,"26":1.0956048965454102,"27":-0.4041914939880371,"28":-2.1463565826416016,"29":0.8179798126220703,"30":-0.12314154207706451,"31":1.7017111778259277,"32":-1.5934730768203735,"33":0.06746713817119598,"34":-0.052278537303209305,"35":-4.589771747589111,"36":-2.6551263332366943,"37":0.9034538269042969,"38":-1.1214697360992432,"39":-0.2645946145057678,"40":-2.1168951988220215,"41":5.0790228843688965,"42":0.9456987977027893,"43":1.2147067785263062,"44":-0.970881462097168,"45":1.721054196357727,"46":-2.3311007022857666,"47":-0.38224855065345764,"48":2.2161788940429688,"49":-3.094414234161377,"50":-2.5213518142700195,"51":0.28424108028411865,"52":-2.228936195373535,"53":-3.5957980155944824,"54":0.06917297095060349,"55":1.33468759059906,"56":3.987226963043213,"57":3.132808208465576,"58":2.367130994796753,"59":1.1786572933197021,"60":1.2454913854599,"61":-1.0945075750350952,"62":1.6875311136245728,"63":-0.62066251039505,"64":-2.095449447631836,"65":0.6955150961875916,"66":0.8791468143463135,"67":0.43413397669792175,"68":-2.495086431503296,"69":-2.681828737258911,"70":3.1815567016601562,"71":-1.637043833732605,"72":0.7059596180915833,"73":-1.9167523384094238,"74":-0.9551661014556885,"75":-0.18373852968215942,"76":-0.15655528008937836,"77":-0.19912563264369965,"78":-4.185939311981201,"79":-0.7411993741989136,"80":3.0492584705352783,"81":3.0063209533691406,"82":0.32349729537963867,"83":-0.684149980545044,"84":-2.4026215076446533,"85":2.7214741706848145,"86":-0.8180493116378784,"87":-0.28056997060775757,"88":-2.9176621437072754,"89":-4.665903568267822,"90":1.613999843597412,"91":-1.1361432075500488,"92":4.11599588394165,"93":-0.20807713270187378,"94":-0.3751296401023865,"95":0.1460619419813156,"96":2.8675475120544434,"97":-0.3429442048072815,"98":1.697700023651123,"99":-4.321204662322998}},"1":{"bias":-0.33742755651474,"weights":{"0":0.24761971831321716,"1":1.7477786540985107,"2":0.7904052138328552,"3":1.7332721948623657,"4":2.1988420486450195,"5":0.19093531370162964,"6":-2.9361610412597656,"7":-0.47268134355545044,"8":-0.35778263211250305,"9":-2.5070178508758545,"10":-1.015708327293396,"11":0.698897123336792,"12":-0.9881383180618286,"13":0.5417625904083252,"14":-2.1387569904327393,"15":-2.3283145427703857,"16":1.4494162797927856,"17":1.4928051233291626,"18":-0.8068102598190308,"19":-0.8216139078140259,"20":-0.5114331245422363,"21":0.25751397013664246,"22":4.535834789276123,"23":-1.2722269296646118,"24":0.7600873708724976,"25":1.0767204761505127,"26":-1.1936759948730469,"27":0.5257203578948975,"28":2.828702688217163,"29":-0.7109025120735168,"30":-3.0048668384552,"31":0.22826728224754333,"32":-2.6585795879364014,"33":-1.4920779466629028,"34":-1.8945871591567993,"35":0.5138962268829346,"36":-0.9872655868530273,"37":1.8447247743606567,"38":2.0761988162994385,"39":-2.009242534637451,"40":2.4171855449676514,"41":-0.7847354412078857,"42":-4.662029266357422,"43":2.3610785007476807,"44":3.471503734588623,"45":0.5594329833984375,"46":0.38780638575553894,"47":-0.12486583739519119,"48":-3.7611653804779053,"49":1.9284151792526245,"50":0.8739058971405029,"51":-0.04885851591825485,"52":0.2552829682826996,"53":1.084048867225647,"54":-3.091909170150757,"55":-0.14145812392234802,"56":-0.9371243119239807,"57":-0.8934516906738281,"58":-1.0639839172363281,"59":-3.601931571960449,"60":1.2078399658203125,"61":-3.8985610008239746,"62":-1.9229633808135986,"63":-2.8483433723449707,"64":1.677808403968811,"65":0.11699698120355606,"66":-2.399082899093628,"67":-1.4666980504989624,"68":2.103705883026123,"69":1.1388826370239258,"70":1.6032520532608032,"71":1.5011993646621704,"72":-0.9627635478973389,"73":1.0638564825057983,"74":2.1722311973571777,"75":1.224222183227539,"76":2.080491781234741,"77":0.8758906126022339,"78":-0.6289892196655273,"79":0.19397003948688507,"80":1.2039446830749512,"81":-4.2089643478393555,"82":2.3813693523406982,"83":0.33667030930519104,"84":4.436023235321045,"85":1.2851173877716064,"86":-1.9159667491912842,"87":-0.5618951320648193,"88":-1.9918171167373657,"89":0.5342516899108887,"90":1.118868350982666,"91":2.727846145629883,"92":0.015084353275597095,"93":-0.6379638314247131,"94":0.6037105321884155,"95":-0.7121968269348145,"96":1.9319157600402832,"97":-0.12408020347356796,"98":2.1187734603881836,"99":-1.3877671957015991}},"2":{"bias":2.2395951747894287,"weights":{"0":-0.7053846716880798,"1":-0.8547251224517822,"2":-1.2741268873214722,"3":-1.5969517230987549,"4":1.2987233400344849,"5":-3.2437899112701416,"6":0.26437893509864807,"7":0.07026799768209457,"8":0.946580708026886,"9":-1.9989984035491943,"10":1.5703037977218628,"11":1.9213815927505493,"12":2.224855899810791,"13":0.09052080661058426,"14":-2.114729404449463,"15":2.029435634613037,"16":-2.660315752029419,"17":1.0973485708236694,"18":0.6320973634719849,"19":2.6557068824768066,"20":-3.072328805923462,"21":-0.4942413568496704,"22":-1.2053197622299194,"23":0.995291531085968,"24":-2.025481700897217,"25":2.3047935962677,"26":-4.9553351402282715,"27":0.24521943926811218,"28":-0.3525504469871521,"29":-1.323212742805481,"30":2.286008834838867,"31":1.6407201290130615,"32":2.627182722091675,"33":-1.2487894296646118,"34":-0.6982331275939941,"35":0.8272503614425659,"36":0.13834989070892334,"37":-0.320167601108551,"38":1.8996773958206177,"39":4.482504844665527,"40":-4.122927188873291,"41":2.08009934425354,"42":1.9992527961730957,"43":0.3176601529121399,"44":-1.4364075660705566,"45":-0.31854018568992615,"46":2.2845957279205322,"47":-2.397885799407959,"48":2.286919593811035,"49":-0.42728152871131897,"50":-1.2985376119613647,"51":-0.274520605802536,"52":-1.5129706859588623,"53":1.698150634765625,"54":-0.39028432965278625,"55":1.6972942352294922,"56":-0.5975748896598816,"57":1.8618476390838623,"58":2.395677089691162,"59":-0.06362110376358032,"60":1.2678345441818237,"61":-1.99397611618042,"62":2.179624557495117,"63":-2.6340134143829346,"64":-2.99418568611145,"65":0.5180229544639587,"66":-1.4820047616958618,"67":-0.24730436503887177,"68":-1.1354643106460571,"69":2.4312655925750732,"70":-3.403391122817993,"71":1.1917039155960083,"72":1.686844825744629,"73":0.608530580997467,"74":2.028975486755371,"75":0.37854716181755066,"76":-2.770374059677124,"77":-0.74016273021698,"78":-4.854909420013428,"79":0.1868736892938614,"80":1.2025889158248901,"81":-0.5106090903282166,"82":-4.594210624694824,"83":0.8840678930282593,"84":2.063016653060913,"85":-0.9948281645774841,"86":0.9316510558128357,"87":-1.5331108570098877,"88":-2.8562521934509277,"89":1.8368903398513794,"90":-0.37425658106803894,"91":0.3744308054447174,"92":-1.7963207960128784,"93":-0.9121587872505188,"94":0.07871243357658386,"95":-0.15330812335014343,"96":-0.8083840608596802,"97":0.85713791847229,"98":0.46648675203323364,"99":1.1382445096969604}},"3":{"bias":-4.744577884674072,"weights":{"0":-1.0768946409225464,"1":-2.2995383739471436,"2":2.381202459335327,"3":2.0150954723358154,"4":1.3044536113739014,"5":1.3421450853347778,"6":-0.344955712556839,"7":3.088499069213867,"8":2.048961877822876,"9":-2.1181299686431885,"10":-0.39168453216552734,"11":0.9898686408996582,"12":1.5499460697174072,"13":0.8751048445701599,"14":3.7775723934173584,"15":1.877299189567566,"16":-0.6053006052970886,"17":0.20268292725086212,"18":0.08810288459062576,"19":-1.4476885795593262,"20":-1.918349027633667,"21":3.06302809715271,"22":-4.408129692077637,"23":0.286262571811676,"24":-3.411327600479126,"25":-1.4543020725250244,"26":2.6717689037323,"27":1.0918151140213013,"28":1.1565561294555664,"29":-1.4463701248168945,"30":2.5374395847320557,"31":-4.633620738983154,"32":1.1829239130020142,"33":-1.3405072689056396,"34":-3.1403074264526367,"35":-0.3489885926246643,"36":1.2250394821166992,"37":1.0852222442626953,"38":5.078837871551514,"39":-3.238912343978882,"40":0.9188401699066162,"41":-4.187563896179199,"42":1.3399173021316528,"43":0.16857297718524933,"44":-3.9008913040161133,"45":2.207834005355835,"46":0.002031975891441107,"47":1.3126229047775269,"48":-1.7722116708755493,"49":-0.09431276470422745,"50":2.351248264312744,"51":-0.08336947113275528,"52":2.2027623653411865,"53":0.05772305652499199,"54":2.993969678878784,"55":-3.952028751373291,"56":2.344121217727661,"57":0.10387033224105835,"58":-1.6359035968780518,"59":0.6308368444442749,"60":-1.1951830387115479,"61":1.000240683555603,"62":0.8681963682174683,"63":1.6932165622711182,"64":-0.3699556291103363,"65":-0.7828887104988098,"66":2.9150991439819336,"67":3.7664926052093506,"68":-1.3851497173309326,"69":-0.20707829296588898,"70":1.1108078956604004,"71":-0.531327486038208,"72":1.2388432025909424,"73":1.7587051391601562,"74":3.44879150390625,"75":0.8158881068229675,"76":1.946435809135437,"77":1.5961990356445312,"78":6.877845287322998,"79":-3.257547378540039,"80":-0.3308030366897583,"81":-1.4131553173065186,"82":0.07771839946508408,"83":-3.0157954692840576,"84":1.642551302909851,"85":-1.6825618743896484,"86":-1.5629786252975464,"87":-3.2537078857421875,"88":2.7457098960876465,"89":-0.7475534081459045,"90":1.5252957344055176,"91":-0.5358582139015198,"92":-0.4529086649417877,"93":0.17469927668571472,"94":0.06292000412940979,"95":-0.4399777948856354,"96":-0.8742778897285461,"97":-1.4564316272735596,"98":-2.3855745792388916,"99":-1.0119520425796509}},"4":{"bias":0.9886341094970703,"weights":{"0":1.7136189937591553,"1":0.2736828327178955,"2":2.0437252521514893,"3":0.6372561454772949,"4":0.3789377212524414,"5":-1.9240111112594604,"6":0.3061334490776062,"7":0.6035091876983643,"8":-0.20007219910621643,"9":1.3694796562194824,"10":-2.1942293643951416,"11":-0.6970980763435364,"12":-0.0962911993265152,"13":0.5102397203445435,"14":-0.014286006800830364,"15":1.0355472564697266,"16":-0.1446378529071808,"17":-0.14153026044368744,"18":-0.07970789819955826,"19":0.5914989113807678,"20":0.7938682436943054,"21":1.654368281364441,"22":1.0517029762268066,"23":0.4536183178424835,"24":-0.07721982896327972,"25":-1.5549265146255493,"26":-1.6573872566223145,"27":-0.6029379367828369,"28":-1.1988606452941895,"29":2.6488993167877197,"30":-0.6356167793273926,"31":1.1826024055480957,"32":-0.1775074452161789,"33":0.09350161999464035,"34":-1.6587624549865723,"35":-1.936206340789795,"36":1.5907139778137207,"37":1.045155644416809,"38":0.29530054330825806,"39":2.7402851581573486,"40":-0.4403323233127594,"41":-2.0272409915924072,"42":-2.1123616695404053,"43":1.2292358875274658,"44":1.6767690181732178,"45":-0.23560155928134918,"46":-1.7812433242797852,"47":-1.1227141618728638,"48":-1.621386170387268,"49":-0.2925243377685547,"50":-2.1043190956115723,"51":0.40409988164901733,"52":0.06411267071962357,"53":0.930003821849823,"54":1.0685243606567383,"55":1.5012925863265991,"56":1.0484979152679443,"57":-0.17822298407554626,"58":0.9002717137336731,"59":0.03965108469128609,"60":0.3138655424118042,"61":-0.020281456410884857,"62":-0.8227941989898682,"63":-1.2811007499694824,"64":-0.5246428847312927,"65":-0.02701645903289318,"66":-0.06535675376653671,"67":-2.005274772644043,"68":-0.9550124406814575,"69":1.9097836017608643,"70":1.0846366882324219,"71":-1.4856674671173096,"72":0.7930818200111389,"73":-0.767591655254364,"74":1.7530595064163208,"75":0.25161615014076233,"76":0.8582102060317993,"77":0.8428142666816711,"78":-2.903853178024292,"79":1.9663712978363037,"80":1.4344003200531006,"81":-3.6954548358917236,"82":0.7764512300491333,"83":0.06061883270740509,"84":-1.6923505067825317,"85":1.2119051218032837,"86":-1.226684331893921,"87":1.7365107536315918,"88":0.6056859493255615,"89":-1.4833729267120361,"90":-4.235259056091309,"91":0.462490051984787,"92":-1.5188249349594116,"93":-0.007958107627928257,"94":-0.5499818921089172,"95":0.616858184337616,"96":0.4381010830402374,"97":-0.4224908649921417,"98":2.1709349155426025,"99":-2.0576298236846924}},"5":{"bias":-1.6934460401535034,"weights":{"0":-0.6317058205604553,"1":0.37342479825019836,"2":0.3785738945007324,"3":-1.7017881870269775,"4":0.23333601653575897,"5":0.5317471623420715,"6":0.997837245464325,"7":-0.2556862235069275,"8":3.073317527770996,"9":-1.1099828481674194,"10":0.908746063709259,"11":-3.1850264072418213,"12":-0.8579089045524597,"13":0.6417436599731445,"14":1.2548357248306274,"15":-4.298107624053955,"16":-2.3304049968719482,"17":-0.6425626873970032,"18":-1.07195246219635,"19":-1.768556833267212,"20":-0.07822124660015106,"21":-2.1543431282043457,"22":-2.0692408084869385,"23":1.889344334602356,"24":0.9304056167602539,"25":2.541139602661133,"26":1.48849356174469,"27":0.5630864500999451,"28":2.104846715927124,"29":-0.4506343603134155,"30":3.278557300567627,"31":-0.8718112707138062,"32":1.397017478942871,"33":3.7694802284240723,"34":0.39326977729797363,"35":-0.03257285803556442,"36":0.21915414929389954,"37":-3.213883638381958,"38":-0.43976569175720215,"39":0.7795742154121399,"40":-0.22181256115436554,"41":-0.7082995176315308,"42":0.5131358504295349,"43":-0.38523760437965393,"44":0.6713780164718628,"45":-2.1217920780181885,"46":1.3576740026474,"47":-3.7648260593414307,"48":1.6900626420974731,"49":1.1125116348266602,"50":-1.5983703136444092,"51":-1.7242950201034546,"52":1.6657559871673584,"53":2.774782419204712,"54":-2.268521785736084,"55":-0.16670969128608704,"56":-1.2921459674835205,"57":-0.9194977283477783,"58":1.2508552074432373,"59":0.26994460821151733,"60":0.48895594477653503,"61":1.2275989055633545,"62":0.8621525168418884,"63":0.251716673374176,"64":1.8624014854431152,"65":-1.0895549058914185,"66":-3.0835182666778564,"67":-2.205308675765991,"68":1.83304762840271,"69":-1.9089772701263428,"70":-0.2600651681423187,"71":-4.596579074859619,"72":2.0065667629241943,"73":-0.49607592821121216,"74":2.7628185749053955,"75":4.4313130378723145,"76":-0.4578716456890106,"77":0.026976635679602623,"78":1.9814786911010742,"79":0.2105732560157776,"80":-1.3989673852920532,"81":0.2226913720369339,"82":0.04101141169667244,"83":2.5695712566375732,"84":-1.0146467685699463,"85":-2.421732187271118,"86":0.8571969270706177,"87":2.0629920959472656,"88":0.3302394449710846,"89":0.11124219000339508,"90":-3.519871950149536,"91":2.742372751235962,"92":-1.6946122646331787,"93":1.0736377239227295,"94":4.7814621925354,"95":-0.8252374529838562,"96":-1.6333917379379272,"97":0.8800027370452881,"98":-2.4082677364349365,"99":2.763371706008911}},"6":{"bias":0.7260018587112427,"weights":{"0":-0.8792059421539307,"1":0.30933302640914917,"2":-3.140394926071167,"3":0.604884147644043,"4":3.6020548343658447,"5":1.1298977136611938,"6":-0.8927656412124634,"7":-1.4541767835617065,"8":-1.7993837594985962,"9":2.2674460411071777,"10":3.087064027786255,"11":3.6715574264526367,"12":-1.9378103017807007,"13":-2.8856136798858643,"14":-0.4941447675228119,"15":-1.456865668296814,"16":-0.42658883333206177,"17":-2.6474215984344482,"18":-1.162229061126709,"19":0.4915681779384613,"20":-5.184454441070557,"21":-2.337923526763916,"22":-1.9606629610061646,"23":1.2497844696044922,"24":-0.348868191242218,"25":-1.4673701524734497,"26":2.720576286315918,"27":0.5547433495521545,"28":-0.09888619184494019,"29":-4.111886024475098,"30":1.6904982328414917,"31":-1.8961409330368042,"32":-3.5551183223724365,"33":1.4744497537612915,"34":-0.1689404547214508,"35":-2.011683702468872,"36":-0.8643558621406555,"37":1.2948988676071167,"38":2.206305742263794,"39":6.793928623199463,"40":-0.7123737335205078,"41":0.3951049745082855,"42":-1.0150034427642822,"43":-0.7802082300186157,"44":-3.5396759510040283,"45":0.5544741153717041,"46":-2.1351964473724365,"47":-0.8670470118522644,"48":0.23897387087345123,"49":-0.8473786115646362,"50":0.7698949575424194,"51":0.9754231572151184,"52":3.3041200637817383,"53":1.1973720788955688,"54":-1.13994300365448,"55":0.3396098017692566,"56":1.7185438871383667,"57":1.6594945192337036,"58":-1.0994980335235596,"59":0.5654864311218262,"60":-0.9891969561576843,"61":-3.4055845737457275,"62":0.21440157294273376,"63":-1.3473998308181763,"64":-1.2163097858428955,"65":0.3353603780269623,"66":1.2474414110183716,"67":-1.0400506258010864,"68":-2.0047824382781982,"69":-1.1544601917266846,"70":-3.1412463188171387,"71":-1.6045846939086914,"72":-0.6915464997291565,"73":1.5035369396209717,"74":1.7262884378433228,"75":-1.1972250938415527,"76":0.9196522235870361,"77":2.1190061569213867,"78":-0.7418511509895325,"79":-0.5393785834312439,"80":1.6839579343795776,"81":2.1781978607177734,"82":-2.5966415405273438,"83":1.3485233783721924,"84":0.5127156972885132,"85":-0.7119541764259338,"86":-0.8781604170799255,"87":1.6301777362823486,"88":1.126217007637024,"89":0.1074247881770134,"90":-2.0596351623535156,"91":2.1445200443267822,"92":0.7879729270935059,"93":3.2182931900024414,"94":0.8901703357696533,"95":2.806892156600952,"96":4.341074466705322,"97":2.831918478012085,"98":-2.0192878246307373,"99":1.4134495258331299}},"7":{"bias":-0.3190757632255554,"weights":{"0":2.426424503326416,"1":1.7523587942123413,"2":0.265433669090271,"3":0.8048439025878906,"4":1.788402795791626,"5":1.193240761756897,"6":1.2922829389572144,"7":0.6017796397209167,"8":2.035173177719116,"9":-0.489799439907074,"10":0.1698344647884369,"11":-1.9870972633361816,"12":3.2091174125671387,"13":-0.6306073069572449,"14":3.0118141174316406,"15":0.261877179145813,"16":-1.7486518621444702,"17":-0.06362267583608627,"18":0.18916407227516174,"19":1.6458193063735962,"20":-0.40722912549972534,"21":1.06330406665802,"22":-1.0884286165237427,"23":2.4611682891845703,"24":1.0814862251281738,"25":-2.298384428024292,"26":3.6164023876190186,"27":1.263302206993103,"28":2.195081949234009,"29":-1.7163361310958862,"30":2.7775063514709473,"31":-1.4394946098327637,"32":2.324003219604492,"33":2.4001386165618896,"34":0.5110271573066711,"35":-1.399086833000183,"36":-0.8243313431739807,"37":-3.256856918334961,"38":-2.015284299850464,"39":-0.962058961391449,"40":-2.6240875720977783,"41":2.8194937705993652,"42":-0.41642969846725464,"43":-1.1882531642913818,"44":3.2801003456115723,"45":-2.7612409591674805,"46":1.7477529048919678,"47":0.6410494446754456,"48":-0.3757975995540619,"49":-0.2778235077857971,"50":-1.2489503622055054,"51":0.29235032200813293,"52":-4.939822196960449,"53":0.4102308750152588,"54":-0.21068693697452545,"55":-0.41204944252967834,"56":0.6020539999008179,"57":-0.10726770758628845,"58":1.7908318042755127,"59":3.3636624813079834,"60":-0.9340830445289612,"61":-3.2155604362487793,"62":-3.3042354583740234,"63":0.5008682012557983,"64":2.850355386734009,"65":4.79478120803833,"66":-3.197460174560547,"67":1.0210933685302734,"68":-1.3829481601715088,"69":-4.243729114532471,"70":-1.9704935550689697,"71":-2.7683653831481934,"72":-0.8663358092308044,"73":2.659109115600586,"74":0.33557406067848206,"75":-2.77097749710083,"76":-0.012911300174891949,"77":-1.021411657333374,"78":0.11017726361751556,"79":-0.278996080160141,"80":-3.103027820587158,"81":1.8550312519073486,"82":2.134119749069214,"83":0.605777382850647,"84":-0.15792147815227509,"85":-2.167343854904175,"86":1.039198637008667,"87":0.127623051404953,"88":-3.827507972717285,"89":0.2407771497964859,"90":1.481385588645935,"91":0.6694742441177368,"92":0.7374552488327026,"93":0.8818855881690979,"94":2.9932727813720703,"95":-4.151210308074951,"96":-0.4885237514972687,"97":-2.326852798461914,"98":-2.2047855854034424,"99":1.653125524520874}},"8":{"bias":1.883927583694458,"weights":{"0":-0.4121631383895874,"1":-1.112625002861023,"2":0.008199739269912243,"3":1.425485372543335,"4":0.4077092707157135,"5":-1.113488793373108,"6":-0.5704948306083679,"7":0.5589275360107422,"8":1.0788524150848389,"9":0.05640376731753349,"10":-2.1468265056610107,"11":1.7503058910369873,"12":-5.2495341300964355,"13":0.2100764811038971,"14":-3.8890926837921143,"15":-1.173910140991211,"16":0.050042178481817245,"17":-1.2503994703292847,"18":0.680596649646759,"19":-3.5919666290283203,"20":-1.3291888236999512,"21":1.9700846672058105,"22":-1.6724086999893188,"23":2.301039695739746,"24":4.175124645233154,"25":0.5574301481246948,"26":2.9663376808166504,"27":-0.12404236197471619,"28":-1.090261697769165,"29":-0.3413638770580292,"30":1.2758656740188599,"31":-0.22704197466373444,"32":0.3645603656768799,"33":0.22444115579128265,"34":-0.7145748734474182,"35":1.6684296131134033,"36":3.9267637729644775,"37":2.3742079734802246,"38":-2.508272886276245,"39":-3.287527561187744,"40":-4.574834823608398,"41":-0.19753238558769226,"42":2.226391315460205,"43":-0.6549931764602661,"44":2.5773048400878906,"45":-0.36331287026405334,"46":0.1745678186416626,"47":-1.7544351816177368,"48":-1.2286505699157715,"49":0.2789260447025299,"50":-0.6298654079437256,"51":-0.3470068871974945,"52":-1.7218345403671265,"53":-0.7210792899131775,"54":-0.35485365986824036,"55":0.07535645365715027,"56":-1.65121328830719,"57":-0.3730308711528778,"58":1.2721068859100342,"59":-2.730119228363037,"60":0.9534515142440796,"61":-3.1044299602508545,"62":2.3255186080932617,"63":1.3198410272598267,"64":3.38883900642395,"65":1.8148210048675537,"66":-0.5000149011611938,"67":-2.5955779552459717,"68":-2.834238052368164,"69":4.818927764892578,"70":-0.581335186958313,"71":0.7359911799430847,"72":0.6858815550804138,"73":0.23644286394119263,"74":-0.16786614060401917,"75":-0.17924563586711884,"76":-1.1729894876480103,"77":-2.966724395751953,"78":0.29828253388404846,"79":-0.0071745808236300945,"80":0.9434913992881775,"81":2.4570412635803223,"82":3.9930050373077393,"83":0.7147138118743896,"84":0.0779324397444725,"85":-0.5845356583595276,"86":-1.3548541069030762,"87":-1.511310338973999,"88":2.593099355697632,"89":-1.2469600439071655,"90":-0.7747200131416321,"91":0.38948798179626465,"92":4.786168098449707,"93":-0.06151517853140831,"94":-0.9321920871734619,"95":-2.41552472114563,"96":-3.0483522415161133,"97":0.3534350097179413,"98":0.5117099285125732,"99":-0.5433688759803772}},"9":{"bias":1.7592724561691284,"weights":{"0":-2.822190999984741,"1":2.502182960510254,"2":-1.3948079347610474,"3":-0.2352217137813568,"4":1.269057035446167,"5":-2.1261610984802246,"6":-0.6671679615974426,"7":1.1365809440612793,"8":0.3122299015522003,"9":-0.34890174865722656,"10":0.7542130351066589,"11":3.9046669006347656,"12":1.5686768293380737,"13":-2.337449312210083,"14":-1.67433762550354,"15":0.6811738014221191,"16":2.3857338428497314,"17":-2.8332479000091553,"18":-0.5038003921508789,"19":-2.07820725440979,"20":-0.8243551254272461,"21":1.2008464336395264,"22":-0.46114176511764526,"23":0.11184024065732956,"24":0.11834458261728287,"25":1.0765246152877808,"26":1.6543926000595093,"27":0.6145927906036377,"28":2.620300769805908,"29":0.08424384146928787,"30":0.15774041414260864,"31":0.8452792763710022,"32":-0.1412661224603653,"33":2.8495709896087646,"34":0.12003912776708603,"35":-2.6761460304260254,"36":-2.1245336532592773,"37":-2.4675793647766113,"38":1.6714134216308594,"39":-0.6999855041503906,"40":4.069659233093262,"41":1.0868932008743286,"42":0.08039519935846329,"43":-0.12077818810939789,"44":0.6330824494361877,"45":-0.9332683682441711,"46":1.1888264417648315,"47":-2.9190807342529297,"48":0.8976151943206787,"49":-3.5536181926727295,"50":-1.4261786937713623,"51":3.474201202392578,"52":-0.530415952205658,"53":-0.22620385885238647,"54":-0.5839356184005737,"55":-0.14100779592990875,"56":-2.144850254058838,"57":1.6834303140640259,"58":2.48480224609375,"59":-1.4570252895355225,"60":-2.203460454940796,"61":2.369281530380249,"62":0.9408469200134277,"63":2.4265799522399902,"64":1.2252357006072998,"65":-4.668358325958252,"66":-1.3563672304153442,"67":-0.4244861900806427,"68":-0.7095677256584167,"69":0.4607731103897095,"70":1.743211269378662,"71":-1.8457739353179932,"72":2.7383389472961426,"73":0.795798122882843,"74":0.38637709617614746,"75":-0.6100123524665833,"76":-1.035487174987793,"77":-2.58371639251709,"78":0.7823573350906372,"79":-1.7038718461990356,"80":2.202378034591675,"81":-2.0231235027313232,"82":-1.938321590423584,"83":-1.8884763717651367,"84":-1.0920418500900269,"85":0.377981960773468,"86":-0.10952866077423096,"87":-1.3026453256607056,"88":0.4381128251552582,"89":0.005036863032728434,"90":-0.007694256026297808,"91":1.4315481185913086,"92":-2.4230825901031494,"93":-3.329493999481201,"94":2.764540672302246,"95":-0.9734117388725281,"96":0.3267507255077362,"97":0.8252516984939575,"98":-0.9573537111282349,"99":1.3191955089569092}},"10":{"bias":3.525212049484253,"weights":{"0":1.1057029962539673,"1":-1.900195837020874,"2":-0.08731605112552643,"3":2.4576029777526855,"4":2.305415391921997,"5":1.3785873651504517,"6":-3.1895923614501953,"7":0.10156257450580597,"8":-0.42357614636421204,"9":1.298650860786438,"10":-2.5319459438323975,"11":-0.29856517910957336,"12":3.097048759460449,"13":0.1900600790977478,"14":-3.2313172817230225,"15":-0.706818163394928,"16":-1.8581078052520752,"17":0.34545183181762695,"18":0.11538594216108322,"19":1.2286962270736694,"20":-0.2131306231021881,"21":-1.8307334184646606,"22":-1.1641160249710083,"23":-3.723928213119507,"24":-4.192976474761963,"25":-3.0427985191345215,"26":-1.8802435398101807,"27":2.160313606262207,"28":-2.0462095737457275,"29":2.8224518299102783,"30":0.022519078105688095,"31":2.346339464187622,"32":2.9359140396118164,"33":2.0043044090270996,"34":-1.0212085247039795,"35":-0.34545257687568665,"36":1.2952786684036255,"37":1.1556637287139893,"38":1.3055579662322998,"39":-2.698927164077759,"40":-2.963494062423706,"41":0.964746356010437,"42":2.494256019592285,"43":4.701080322265625,"44":-3.1032867431640625,"45":0.326048344373703,"46":-2.5891551971435547,"47":2.8714027404785156,"48":6.206747055053711,"49":-0.4968937337398529,"50":-5.019516468048096,"51":-0.589994490146637,"52":-1.9778605699539185,"53":-2.160738229751587,"54":4.011590003967285,"55":-3.3916773796081543,"56":1.372710943222046,"57":-1.506384015083313,"58":-2.62446665763855,"59":-0.14007599651813507,"60":1.0733269453048706,"61":2.3180735111236572,"62":-1.9385905265808105,"63":0.11477768421173096,"64":-1.5139491558074951,"65":-3.6045892238616943,"66":1.0664469003677368,"67":-3.282832145690918,"68":-0.07314998656511307,"69":2.6743922233581543,"70":2.548295736312866,"71":-1.6665139198303223,"72":0.06428354233503342,"73":0.5010111331939697,"74":-4.458738327026367,"75":-0.1378529667854309,"76":-2.284029483795166,"77":-1.0423166751861572,"78":0.24603448808193207,"79":-0.7157253623008728,"80":1.6527420282363892,"81":0.1596883237361908,"82":3.184447765350342,"83":-4.782618522644043,"84":-3.727224826812744,"85":0.21355324983596802,"86":0.25501370429992676,"87":-0.19493262469768524,"88":0.14390644431114197,"89":-1.1981054544448853,"90":4.276355266571045,"91":-2.3722333908081055,"92":1.3320029973983765,"93":2.619840383529663,"94":2.6800804138183594,"95":2.8460257053375244,"96":-0.8296681642532349,"97":-0.9384763240814209,"98":2.790975332260132,"99":-2.356062412261963}},"11":{"bias":-1.7324119806289673,"weights":{"0":1.4218659400939941,"1":-1.5239461660385132,"2":3.3319573402404785,"3":-1.1359388828277588,"4":-3.473376750946045,"5":1.1859277486801147,"6":-0.2954801023006439,"7":0.8190791606903076,"8":1.20345139503479,"9":2.3606529235839844,"10":0.9017202258110046,"11":4.68597936630249,"12":-0.6463407278060913,"13":0.36124902963638306,"14":-1.7851489782333374,"15":1.8839890956878662,"16":0.31516146659851074,"17":-0.46439129114151,"18":0.0012125771027058363,"19":0.4428781270980835,"20":-0.13201311230659485,"21":4.591063976287842,"22":-1.9550217390060425,"23":0.6436176896095276,"24":0.33388760685920715,"25":-0.8518723249435425,"26":5.505995750427246,"27":0.37108683586120605,"28":0.5978694558143616,"29":5.34587287902832,"30":-0.8156622052192688,"31":-0.7311275601387024,"32":-2.2353603839874268,"33":-1.2745660543441772,"34":-0.24464108049869537,"35":-2.4384608268737793,"36":0.05015339329838753,"37":-2.633727788925171,"38":1.0602784156799316,"39":-1.5484521389007568,"40":-1.187676191329956,"41":-1.3364956378936768,"42":-3.2880847454071045,"43":0.9023839235305786,"44":-2.0539708137512207,"45":0.8784911036491394,"46":-3.7802622318267822,"47":1.7279846668243408,"48":0.279886394739151,"49":-3.129042863845825,"50":1.483556866645813,"51":0.7134429216384888,"52":-0.11209002882242203,"53":-0.5786542296409607,"54":0.6999956369400024,"55":-0.7635929584503174,"56":-1.3231537342071533,"57":-3.3470077514648438,"58":0.3111182749271393,"59":-1.5385404825210571,"60":-2.0093162059783936,"61":0.348435640335083,"62":0.9883449077606201,"63":0.06420668214559555,"64":1.3764935731887817,"65":1.828564167022705,"66":1.0699818134307861,"67":1.260669469833374,"68":3.356745958328247,"69":0.8199357986450195,"70":-0.28924694657325745,"71":-4.171697616577148,"72":-2.4197497367858887,"73":1.7726119756698608,"74":0.5116690993309021,"75":2.7530996799468994,"76":0.24414612352848053,"77":-2.8709311485290527,"78":3.3874099254608154,"79":0.8932357430458069,"80":4.0390706062316895,"81":0.14081579446792603,"82":4.615871906280518,"83":0.33633965253829956,"84":-1.1965867280960083,"85":-0.055823687463998795,"86":-2.8497350215911865,"87":-0.5127120018005371,"88":0.15731364488601685,"89":-2.394385576248169,"90":2.1470277309417725,"91":-3.3922343254089355,"92":1.5824123620986938,"93":-1.9775865077972412,"94":0.5808234214782715,"95":-1.0502128601074219,"96":-1.133331298828125,"97":-0.14039279520511627,"98":-0.7480136752128601,"99":2.417297601699829}},"12":{"bias":2.3629136085510254,"weights":{"0":-0.41781169176101685,"1":0.9806985259056091,"2":0.7210337519645691,"3":-1.8131189346313477,"4":-1.5336543321609497,"5":0.7808809876441956,"6":1.0913820266723633,"7":-1.8120406866073608,"8":2.735720634460449,"9":-2.9251439571380615,"10":-2.246126651763916,"11":-0.0012186323292553425,"12":-2.175591468811035,"13":1.501617193222046,"14":-1.9453277587890625,"15":0.20121194422245026,"16":0.1278746873140335,"17":0.3228445053100586,"18":0.11026547104120255,"19":0.10241324454545975,"20":-0.34379392862319946,"21":-0.5522544384002686,"22":-2.8113503456115723,"23":1.4924261569976807,"24":-0.096037358045578,"25":0.6202540993690491,"26":0.019340205937623978,"27":-2.4445807933807373,"28":1.666670560836792,"29":0.7689008116722107,"30":0.7005049586296082,"31":-0.5456440448760986,"32":-0.35135847330093384,"33":-2.241547107696533,"34":-2.3829731941223145,"35":2.9793176651000977,"36":0.08785496652126312,"37":-1.084348440170288,"38":-0.2829316258430481,"39":1.79932701587677,"40":-2.7529220581054688,"41":-1.3576565980911255,"42":1.9268301725387573,"43":0.799006462097168,"44":-0.9236351251602173,"45":-0.8369499444961548,"46":2.43695330619812,"47":-0.8429654240608215,"48":0.6283444166183472,"49":-3.2172951698303223,"50":-2.5482442378997803,"51":0.7284476161003113,"52":0.3917401134967804,"53":1.5536456108093262,"54":-2.905322551727295,"55":2.1707310676574707,"56":1.873044490814209,"57":-1.2508207559585571,"58":3.365780830383301,"59":1.2151868343353271,"60":-0.3624761700630188,"61":2.031491279602051,"62":4.355825901031494,"63":1.6205226182937622,"64":-0.7702546715736389,"65":0.8958300948143005,"66":0.5332658290863037,"67":0.7449650764465332,"68":-2.020235538482666,"69":1.910568118095398,"70":-0.6949617266654968,"71":3.4621105194091797,"72":-1.0402252674102783,"73":-5.470108985900879,"74":1.008155107498169,"75":-0.2919032871723175,"76":2.9109156131744385,"77":-4.898787975311279,"78":-0.4603371024131775,"79":0.6692391633987427,"80":-2.888424873352051,"81":-4.998202323913574,"82":-1.8809585571289062,"83":2.0394582748413086,"84":-1.7306067943572998,"85":0.5844200849533081,"86":-1.4899485111236572,"87":0.08363354951143265,"88":-2.9506735801696777,"89":2.415780544281006,"90":-3.3918540477752686,"91":2.5418267250061035,"92":0.7546555399894714,"93":0.3825486898422241,"94":-0.05202551186084747,"95":4.420982360839844,"96":1.1076586246490479,"97":-0.9957358837127686,"98":-0.25882235169410706,"99":0.9403935670852661}},"13":{"bias":1.4822502136230469,"weights":{"0":-2.90167236328125,"1":1.0890870094299316,"2":-1.0089514255523682,"3":1.2753342390060425,"4":1.8175963163375854,"5":-0.4948746860027313,"6":-0.32404693961143494,"7":2.410994291305542,"8":0.1251477748155594,"9":0.11889582127332687,"10":-2.6701693534851074,"11":-3.569221019744873,"12":-2.4680988788604736,"13":0.9203450679779053,"14":1.5327284336090088,"15":-3.6850318908691406,"16":0.7307378649711609,"17":-0.8032962083816528,"18":-1.8986668586730957,"19":0.3920201361179352,"20":-2.635830879211426,"21":-2.3688881397247314,"22":1.1642847061157227,"23":2.017991542816162,"24":0.013339078985154629,"25":0.5469242334365845,"26":-0.04537956416606903,"27":3.063188314437866,"28":2.976238489151001,"29":-0.8530983328819275,"30":-2.127821683883667,"31":-1.169724464416504,"32":-3.065347194671631,"33":2.5763168334960938,"34":-0.3785531222820282,"35":0.7544673085212708,"36":0.9744948744773865,"37":2.202547311782837,"38":2.29911470413208,"39":1.0298032760620117,"40":-2.5149896144866943,"41":1.95915949344635,"42":0.385640412569046,"43":0.9877673387527466,"44":-2.291463613510132,"45":-2.0599777698516846,"46":-0.899355411529541,"47":-0.18478646874427795,"48":-3.206291437149048,"49":0.9510225653648376,"50":0.3692026734352112,"51":-1.2119044065475464,"52":3.602649450302124,"53":-0.33253487944602966,"54":1.600763201713562,"55":0.5177673697471619,"56":-0.8964822888374329,"57":-4.470610618591309,"58":-3.2265515327453613,"59":-3.6678121089935303,"60":0.3469105064868927,"61":-1.778164029121399,"62":-0.49016326665878296,"63":-3.595191240310669,"64":1.1447187662124634,"65":4.607169151306152,"66":0.15976330637931824,"67":-3.674327850341797,"68":-3.517652750015259,"69":0.06517545133829117,"70":-0.28659796714782715,"71":2.288891077041626,"72":-1.4500880241394043,"73":-0.8444213271141052,"74":-1.1434729099273682,"75":0.8449023962020874,"76":1.0941414833068848,"77":3.3857295513153076,"78":2.326700210571289,"79":1.9937456846237183,"80":1.2448716163635254,"81":-2.7044427394866943,"82":-2.9832675457000732,"83":1.989072322845459,"84":-3.7137105464935303,"85":1.1649670600891113,"86":2.588848114013672,"87":1.129872441291809,"88":0.4096555709838867,"89":1.360496997833252,"90":-5.35305118560791,"91":3.0097742080688477,"92":4.334333419799805,"93":-0.01674988865852356,"94":-0.5239440202713013,"95":-1.6559847593307495,"96":4.727867603302002,"97":-0.09621690213680267,"98":1.4930682182312012,"99":1.0646607875823975}},"14":{"bias":-0.6046273708343506,"weights":{"0":-1.9802510738372803,"1":-0.5708380341529846,"2":0.5007060170173645,"3":-0.5832416415214539,"4":2.406531810760498,"5":-0.7621954679489136,"6":3.3570549488067627,"7":2.0791196823120117,"8":1.421883225440979,"9":1.8886291980743408,"10":-2.819112777709961,"11":-0.30584344267845154,"12":-1.7478623390197754,"13":2.000933885574341,"14":1.0595619678497314,"15":0.6014520525932312,"16":-1.1045026779174805,"17":1.330129861831665,"18":0.6563061475753784,"19":-0.5800570845603943,"20":-0.6690115928649902,"21":1.7872593402862549,"22":-3.0848231315612793,"23":-1.5972789525985718,"24":1.19861900806427,"25":-0.3974776566028595,"26":-0.7761277556419373,"27":-0.19566260278224945,"28":-0.5104008913040161,"29":0.2972649931907654,"30":0.40575850009918213,"31":-0.1558631956577301,"32":0.694533109664917,"33":1.8461328744888306,"34":0.6727950572967529,"35":0.2043623924255371,"36":1.7274463176727295,"37":-1.2486635446548462,"38":1.3231470584869385,"39":0.5816584825515747,"40":2.2191059589385986,"41":2.917848825454712,"42":-1.4822074174880981,"43":1.3518694639205933,"44":-1.4808664321899414,"45":-4.028687953948975,"46":1.6223465204238892,"47":0.015992987900972366,"48":1.617830514907837,"49":-3.2100162506103516,"50":-0.4499613344669342,"51":-1.1625715494155884,"52":-1.4800162315368652,"53":-0.24402375519275665,"54":1.110067367553711,"55":-0.18486899137496948,"56":-1.2373379468917847,"57":-3.3618810176849365,"58":-0.5819321274757385,"59":1.3791794776916504,"60":0.6475637555122375,"61":-1.2694337368011475,"62":-2.676140546798706,"63":-2.924656391143799,"64":-0.3079019784927368,"65":0.13182911276817322,"66":0.9137240052223206,"67":2.3519163131713867,"68":-0.758915901184082,"69":-1.395989179611206,"70":0.37091806530952454,"71":3.0466971397399902,"72":2.1785690784454346,"73":-0.9857508540153503,"74":0.18383722007274628,"75":3.1362693309783936,"76":0.047239575535058975,"77":-2.1704859733581543,"78":-1.085368037223816,"79":2.1617720127105713,"80":1.0048539638519287,"81":1.5221964120864868,"82":-2.0329830646514893,"83":-0.3199237883090973,"84":2.2004897594451904,"85":-1.2613551616668701,"86":-0.5434573292732239,"87":1.1880978345870972,"88":-1.7653487920761108,"89":1.756399154663086,"90":0.15222033858299255,"91":-0.2557409405708313,"92":-1.4598872661590576,"93":-1.198813557624817,"94":0.5149982571601868,"95":0.8987682461738586,"96":0.182294562458992,"97":-0.21849662065505981,"98":-0.8056178092956543,"99":0.21484211087226868}},"15":{"bias":1.3784302473068237,"weights":{"0":-0.9791544675827026,"1":1.9712564945220947,"2":0.0821952372789383,"3":-1.177743911743164,"4":0.03723890334367752,"5":-0.13293802738189697,"6":-0.9600117802619934,"7":2.79180908203125,"8":0.15040089190006256,"9":-1.6596766710281372,"10":2.1477766036987305,"11":-1.6309309005737305,"12":0.37931719422340393,"13":0.9300060272216797,"14":-0.34594854712486267,"15":-1.0343550443649292,"16":-1.4618512392044067,"17":-0.44229426980018616,"18":-0.1765073835849762,"19":-0.9828775525093079,"20":-3.4101104736328125,"21":2.1942532062530518,"22":-2.5420191287994385,"23":-1.072065830230713,"24":-0.9876134991645813,"25":0.6037005186080933,"26":-0.928347647190094,"27":-2.475998640060425,"28":-2.1082160472869873,"29":2.113494396209717,"30":-3.203611373901367,"31":2.158794641494751,"32":0.11417879164218903,"33":4.110557556152344,"34":3.407942771911621,"35":2.340773820877075,"36":-1.5659289360046387,"37":-0.9402212500572205,"38":-3.949873208999634,"39":0.33704203367233276,"40":-0.41082531213760376,"41":-1.5710433721542358,"42":-0.12074876576662064,"43":2.5818328857421875,"44":0.6665865778923035,"45":1.7842752933502197,"46":-0.9759679436683655,"47":-2.733961582183838,"48":0.5333262085914612,"49":-0.3356902301311493,"50":0.09769287705421448,"51":-0.6619770526885986,"52":-0.2660863399505615,"53":-1.7615350484848022,"54":0.8742028474807739,"55":1.1105269193649292,"56":-1.0887391567230225,"57":2.865830421447754,"58":2.470551013946533,"59":-0.5554094314575195,"60":1.6351641416549683,"61":-0.17178846895694733,"62":1.2929480075836182,"63":-0.37253808975219727,"64":-2.093372106552124,"65":1.7586911916732788,"66":-0.7413455843925476,"67":-1.8990591764450073,"68":0.35160499811172485,"69":-2.486617088317871,"70":-1.681540846824646,"71":1.9016512632369995,"72":-1.215396761894226,"73":1.7290351390838623,"74":-1.1920831203460693,"75":2.739023208618164,"76":-2.3913822174072266,"77":2.7717487812042236,"78":-3.1685051918029785,"79":-1.866689682006836,"80":1.03969407081604,"81":0.6431401371955872,"82":-3.100795030593872,"83":-0.30065029859542847,"84":-2.262847423553467,"85":1.4853435754776,"86":1.703061580657959,"87":-0.3510124981403351,"88":3.563389539718628,"89":1.688442587852478,"90":-2.7874155044555664,"91":0.6820041537284851,"92":-0.5669015645980835,"93":1.4911595582962036,"94":3.0191075801849365,"95":2.6579372882843018,"96":-1.9430952072143555,"97":2.2844769954681396,"98":-1.516326665878296,"99":-1.3571879863739014}},"16":{"bias":-0.4823121428489685,"weights":{"0":-2.3287265300750732,"1":1.6638497114181519,"2":1.767757534980774,"3":0.4795512557029724,"4":-1.2373207807540894,"5":-2.7161128520965576,"6":-2.9315602779388428,"7":0.9388787150382996,"8":3.852982521057129,"9":-2.8707115650177,"10":-1.0977603197097778,"11":0.9658437967300415,"12":-1.9048619270324707,"13":-0.3162022531032562,"14":2.2062783241271973,"15":2.0871729850769043,"16":2.811763286590576,"17":1.6236605644226074,"18":-3.5584123134613037,"19":-2.481477737426758,"20":0.6654396057128906,"21":-0.15447084605693817,"22":1.1810940504074097,"23":-2.5768890380859375,"24":1.490870475769043,"25":4.693985462188721,"26":-0.061954546719789505,"27":-0.5604617595672607,"28":1.2759616374969482,"29":-0.9128369688987732,"30":0.3082534968852997,"31":0.6797076463699341,"32":1.6251213550567627,"33":0.8685838580131531,"34":0.5441526770591736,"35":-2.1147985458374023,"36":0.6789268255233765,"37":0.3657180368900299,"38":0.7187665104866028,"39":-1.670966386795044,"40":1.745474934577942,"41":2.1599669456481934,"42":2.3503711223602295,"43":1.1472408771514893,"44":-0.9668834209442139,"45":-1.1541240215301514,"46":5.503575325012207,"47":-2.123474359512329,"48":-1.0574848651885986,"49":1.8391728401184082,"50":-1.9345664978027344,"51":2.7175021171569824,"52":-0.6855036616325378,"53":0.6385976672172546,"54":-0.6512213945388794,"55":-3.4351651668548584,"56":4.030187606811523,"57":-1.2956737279891968,"58":2.5998740196228027,"59":1.4702081680297852,"60":-1.7416478395462036,"61":1.4180908203125,"62":-3.3827078342437744,"63":0.5067356824874878,"64":2.802959442138672,"65":-1.706382393836975,"66":0.5446064472198486,"67":0.6390109062194824,"68":-2.4184460639953613,"69":1.5270333290100098,"70":1.1955091953277588,"71":2.9963762760162354,"72":1.6555306911468506,"73":1.4704234600067139,"74":-2.100572347640991,"75":-5.017929553985596,"76":0.7735998630523682,"77":-1.3064385652542114,"78":0.2523675560951233,"79":-0.7341503500938416,"80":-1.4714006185531616,"81":0.2512151598930359,"82":-2.8317434787750244,"83":-3.037733793258667,"84":-1.0473743677139282,"85":-0.7498592138290405,"86":0.9013832211494446,"87":2.2736966609954834,"88":1.2184088230133057,"89":-1.5944321155548096,"90":-2.000258684158325,"91":0.5134649276733398,"92":2.963235378265381,"93":-2.98272442817688,"94":1.4821232557296753,"95":0.7488366365432739,"96":-0.6055818200111389,"97":0.5553076863288879,"98":0.9863328337669373,"99":-0.5082520246505737}},"17":{"bias":0.12108307331800461,"weights":{"0":0.5486931800842285,"1":3.4955039024353027,"2":0.2718867063522339,"3":-0.7987407445907593,"4":2.8639075756073,"5":-0.6555231213569641,"6":-0.19607220590114594,"7":1.558204174041748,"8":-5.402651309967041,"9":2.1244547367095947,"10":-1.542234182357788,"11":3.723102569580078,"12":-0.6035272479057312,"13":0.46204817295074463,"14":0.032933566719293594,"15":1.7964394092559814,"16":0.13737370073795319,"17":1.6815335750579834,"18":-2.612553834915161,"19":-0.25715193152427673,"20":-5.366735458374023,"21":0.6662407517433167,"22":-1.8827818632125854,"23":-0.3929791748523712,"24":-1.3234772682189941,"25":-0.09625813364982605,"26":-1.579278588294983,"27":-0.1796402931213379,"28":-0.4787708520889282,"29":0.4307301938533783,"30":-0.5035464763641357,"31":0.3744909167289734,"32":3.003828525543213,"33":-0.4503125548362732,"34":-2.2158915996551514,"35":-1.312463402748108,"36":2.032618999481201,"37":3.4580118656158447,"38":-0.009311005473136902,"39":-0.01703077182173729,"40":-0.7272915840148926,"41":0.6796628832817078,"42":3.269103765487671,"43":-2.1694867610931396,"44":0.4650236666202545,"45":2.6322426795959473,"46":2.5843169689178467,"47":3.2041115760803223,"48":-1.7788593769073486,"49":0.7569102644920349,"50":0.4257051348686218,"51":-1.6307556629180908,"52":-1.7432645559310913,"53":-1.4851884841918945,"54":1.6363059282302856,"55":-0.3030932545661926,"56":0.9532551169395447,"57":-0.01170041598379612,"58":-1.994546890258789,"59":1.4716686010360718,"60":-0.582080066204071,"61":0.07229490578174591,"62":-0.4598792493343353,"63":0.21959245204925537,"64":-1.384729266166687,"65":2.9017765522003174,"66":-3.5410404205322266,"67":-0.23843038082122803,"68":2.0192346572875977,"69":-0.1182287335395813,"70":1.1238648891448975,"71":-1.7358239889144897,"72":-2.450089931488037,"73":0.8209396004676819,"74":-1.9015027284622192,"75":1.6601368188858032,"76":-1.5756586790084839,"77":-0.20073693990707397,"78":-1.262298583984375,"79":-1.4977396726608276,"80":-0.5065633058547974,"81":-3.5166358947753906,"82":-0.12380189448595047,"83":1.8285937309265137,"84":-2.8921964168548584,"85":1.465028166770935,"86":-0.2910398840904236,"87":4.9195027351379395,"88":1.1729580163955688,"89":-0.1956847459077835,"90":-0.46991127729415894,"91":-0.33764326572418213,"92":2.865936040878296,"93":-2.619246006011963,"94":-0.520466685295105,"95":0.6837801933288574,"96":0.25571054220199585,"97":-2.1143991947174072,"98":-0.0004125955456402153,"99":1.9233431816101074}},"18":{"bias":0.37476393580436707,"weights":{"0":0.97028648853302,"1":-1.618678331375122,"2":1.0546373128890991,"3":-0.09141555428504944,"4":0.8638147711753845,"5":2.3381776809692383,"6":2.1217145919799805,"7":0.6762679815292358,"8":-1.397749423980713,"9":-1.3516714572906494,"10":1.0916175842285156,"11":-0.9630140066146851,"12":-1.0736823081970215,"13":1.189565896987915,"14":1.0841634273529053,"15":-2.964653730392456,"16":-1.2075330018997192,"17":-1.5299692153930664,"18":0.8187614679336548,"19":1.5313208103179932,"20":1.2553175687789917,"21":-1.617611289024353,"22":0.3842482566833496,"23":0.13135869801044464,"24":0.9727110862731934,"25":-0.2149757593870163,"26":-0.9385523200035095,"27":-3.3549535274505615,"28":2.570408582687378,"29":1.5173810720443726,"30":-0.007170033175498247,"31":0.2730446457862854,"32":-1.4590760469436646,"33":-2.282411575317383,"34":-1.1055495738983154,"35":-0.680340588092804,"36":-0.9665325880050659,"37":0.008214304223656654,"38":1.791813850402832,"39":1.7411292791366577,"40":-1.2303378582000732,"41":-1.4297345876693726,"42":0.752025842666626,"43":0.16094575822353363,"44":1.175860047340393,"45":0.29669904708862305,"46":0.16855517029762268,"47":-0.542521059513092,"48":-3.6203441619873047,"49":-0.010155543684959412,"50":0.07110882550477982,"51":-0.030259642750024796,"52":1.3705341815948486,"53":0.7952837944030762,"54":-1.1684398651123047,"55":0.7367410063743591,"56":-0.8171951770782471,"57":1.9703726768493652,"58":-0.5000634789466858,"59":1.2102062702178955,"60":0.026900164783000946,"61":0.2260037511587143,"62":-0.27935296297073364,"63":-0.8680610656738281,"64":-0.7327948808670044,"65":0.6389296054840088,"66":-0.9573595523834229,"67":-2.4989662170410156,"68":1.7930010557174683,"69":2.8464250564575195,"70":-1.3130797147750854,"71":-1.4445072412490845,"72":1.0326319932937622,"73":0.637048602104187,"74":1.3039766550064087,"75":-1.4557126760482788,"76":-1.3653687238693237,"77":-0.6063896417617798,"78":-1.0218913555145264,"79":-1.7786586284637451,"80":0.9626462459564209,"81":-0.2909589409828186,"82":1.3542035818099976,"83":-1.7930256128311157,"84":-1.532080054283142,"85":2.554520845413208,"86":0.6537524461746216,"87":-0.9600560069084167,"88":1.0786975622177124,"89":-0.9937607645988464,"90":-1.13058340549469,"91":-0.19172649085521698,"92":-1.605172038078308,"93":1.8289250135421753,"94":-1.423902153968811,"95":0.7269580364227295,"96":1.835077166557312,"97":1.2911832332611084,"98":0.10784567892551422,"99":0.417168527841568}},"19":{"bias":-1.2718740701675415,"weights":{"0":-2.4218432903289795,"1":0.8872925639152527,"2":-1.1647791862487793,"3":0.8056450486183167,"4":-0.026633020490407944,"5":-2.0419211387634277,"6":0.7858811020851135,"7":0.7852511405944824,"8":0.05059147998690605,"9":1.6329087018966675,"10":4.299148082733154,"11":-0.582840085029602,"12":0.09920769184827805,"13":-1.2230701446533203,"14":-0.01847657561302185,"15":0.8796226978302002,"16":-1.8799325227737427,"17":1.5540627241134644,"18":1.979211688041687,"19":-1.9429603815078735,"20":2.1469051837921143,"21":-1.020747184753418,"22":-5.484795093536377,"23":-0.9486218690872192,"24":0.16151171922683716,"25":0.9977783560752869,"26":0.8947321772575378,"27":0.7891029119491577,"28":1.5142261981964111,"29":1.3296566009521484,"30":-1.9088308811187744,"31":-1.7852047681808472,"32":1.0450547933578491,"33":-1.6967127323150635,"34":-1.70048987865448,"35":0.5473898649215698,"36":2.909332275390625,"37":-3.1877927780151367,"38":0.5459089279174805,"39":-0.730308473110199,"40":-0.4309062957763672,"41":3.200612783432007,"42":-1.6568307876586914,"43":-0.12123969942331314,"44":0.5036624073982239,"45":0.15156753361225128,"46":-1.4498443603515625,"47":0.7065110206604004,"48":0.09703893959522247,"49":3.857909679412842,"50":1.652631402015686,"51":1.6531922817230225,"52":1.2449451684951782,"53":-1.6607252359390259,"54":-2.1755874156951904,"55":2.4636168479919434,"56":-2.073732614517212,"57":0.750773549079895,"58":0.12195134907960892,"59":0.6695042848587036,"60":-1.2998020648956299,"61":1.5188945531845093,"62":-0.4796181619167328,"63":3.3068971633911133,"64":-0.7459002733230591,"65":-1.6480910778045654,"66":-3.576374053955078,"67":-0.7322515249252319,"68":0.7067550420761108,"69":-0.7372561097145081,"70":-1.751904845237732,"71":-1.9470881223678589,"72":-1.1327037811279297,"73":0.8211514949798584,"74":-0.3605967164039612,"75":0.02813955768942833,"76":1.0386979579925537,"77":0.9486150741577148,"78":2.3567330837249756,"79":-2.759488344192505,"80":0.14277687668800354,"81":2.9577441215515137,"82":-0.5648793578147888,"83":-3.3811888694763184,"84":0.10109718888998032,"85":-3.770745277404785,"86":0.566994309425354,"87":-1.0804171562194824,"88":-1.4756721258163452,"89":3.134826898574829,"90":4.023531913757324,"91":2.0650837421417236,"92":1.4219913482666016,"93":4.062218189239502,"94":0.7311898469924927,"95":1.6139663457870483,"96":-1.124124526977539,"97":-0.09360872209072113,"98":0.4653196334838867,"99":-3.708646535873413}},"20":{"bias":-0.2241283804178238,"weights":{"0":1.1515119075775146,"1":1.6181572675704956,"2":-2.932145833969116,"3":-1.845159888267517,"4":-0.3044336438179016,"5":2.511674165725708,"6":5.274297714233398,"7":0.6383029818534851,"8":-1.090482234954834,"9":-2.3202874660491943,"10":-0.3494366705417633,"11":2.5138518810272217,"12":1.3348101377487183,"13":0.6750914454460144,"14":2.163991689682007,"15":-3.615917921066284,"16":4.101702690124512,"17":2.673494577407837,"18":-1.2606823444366455,"19":-1.7141547203063965,"20":-1.29996657371521,"21":-0.9064041376113892,"22":0.5436270833015442,"23":-0.18797515332698822,"24":0.3853532671928406,"25":-0.850275456905365,"26":0.027410270646214485,"27":-2.418652296066284,"28":-3.6248764991760254,"29":-3.3529739379882812,"30":2.607605218887329,"31":1.2894935607910156,"32":1.2266639471054077,"33":-2.813933849334717,"34":1.7679965496063232,"35":2.4580061435699463,"36":-0.034684520214796066,"37":-1.3747631311416626,"38":2.798168897628784,"39":-2.078855037689209,"40":0.6936452984809875,"41":1.694154977798462,"42":-0.3272940218448639,"43":0.3657989799976349,"44":2.886446952819824,"45":0.47008174657821655,"46":-0.18296240270137787,"47":0.18767675757408142,"48":2.1681175231933594,"49":-1.1568411588668823,"50":-1.2457958459854126,"51":0.4085434377193451,"52":-3.6557669639587402,"53":0.9429306983947754,"54":0.39857637882232666,"55":-4.332383155822754,"56":2.1930317878723145,"57":3.0644497871398926,"58":-2.1112406253814697,"59":0.7145575284957886,"60":-0.41850900650024414,"61":-1.5584709644317627,"62":1.5301623344421387,"63":0.4387573003768921,"64":2.92045521736145,"65":2.1087191104888916,"66":-1.3919899463653564,"67":0.3120284080505371,"68":-1.1425193548202515,"69":0.7803147435188293,"70":0.35696229338645935,"71":-1.817379117012024,"72":0.1653858721256256,"73":0.7551864385604858,"74":1.6105318069458008,"75":-0.4659387171268463,"76":-4.196672439575195,"77":-2.373222827911377,"78":0.9766616821289062,"79":-3.604400396347046,"80":-2.425673007965088,"81":-0.8874207735061646,"82":-2.679570436477661,"83":-0.7604917883872986,"84":3.2298996448516846,"85":-1.864171028137207,"86":0.31483155488967896,"87":-1.2626559734344482,"88":2.3965797424316406,"89":3.4695112705230713,"90":-1.379086971282959,"91":1.2392340898513794,"92":-2.8469293117523193,"93":1.3829792737960815,"94":-0.35731232166290283,"95":1.7465193271636963,"96":-2.5621495246887207,"97":1.0834553241729736,"98":-3.0428271293640137,"99":2.2353992462158203}},"21":{"bias":-2.1157431602478027,"weights":{"0":-1.7158770561218262,"1":-1.6990103721618652,"2":-3.135878562927246,"3":-0.29035118222236633,"4":-0.8474366068840027,"5":2.1748785972595215,"6":1.0975278615951538,"7":-3.3695502281188965,"8":0.5272119641304016,"9":-3.0603246688842773,"10":3.895811080932617,"11":-0.22777396440505981,"12":1.2818655967712402,"13":1.2517451047897339,"14":0.9142715334892273,"15":5.425721645355225,"16":-1.6168239116668701,"17":-4.22587776184082,"18":-2.6795008182525635,"19":-1.1794452667236328,"20":-0.5224960446357727,"21":1.9658324718475342,"22":2.620633602142334,"23":2.845412015914917,"24":-2.9586269855499268,"25":1.262815237045288,"26":2.164740562438965,"27":0.12024524062871933,"28":0.157538503408432,"29":-3.2946105003356934,"30":-2.411447525024414,"31":-0.27571043372154236,"32":-0.9366481304168701,"33":-1.3110846281051636,"34":1.4267847537994385,"35":-1.5377683639526367,"36":3.5418174266815186,"37":0.19506557285785675,"38":0.16135020554065704,"39":3.688370704650879,"40":2.264845371246338,"41":-0.8084494471549988,"42":0.6471889019012451,"43":0.895622730255127,"44":-1.104191541671753,"45":1.6669319868087769,"46":2.3712024688720703,"47":0.27535703778266907,"48":2.219038963317871,"49":0.2992894649505615,"50":-2.495546340942383,"51":-2.3173344135284424,"52":0.828163206577301,"53":-1.9315502643585205,"54":4.036356449127197,"55":0.8763676881790161,"56":0.3203541934490204,"57":-0.058770883828401566,"58":-1.9656999111175537,"59":1.0352721214294434,"60":0.807931661605835,"61":-1.2509398460388184,"62":-0.07438149303197861,"63":-0.2809981107711792,"64":-1.1513651609420776,"65":-1.2665691375732422,"66":0.2704084515571594,"67":-1.1092884540557861,"68":-0.5211672186851501,"69":2.0997731685638428,"70":3.8121485710144043,"71":0.9128735661506653,"72":-0.6640711426734924,"73":1.206760048866272,"74":-0.4540046155452728,"75":-3.634096384048462,"76":-0.6792513728141785,"77":6.145980358123779,"78":-0.5781928300857544,"79":-0.7199443578720093,"80":-2.8242673873901367,"81":3.818556547164917,"82":-3.904737710952759,"83":-0.3055184781551361,"84":0.1361617147922516,"85":-2.28385329246521,"86":0.3025057017803192,"87":-1.62993323802948,"88":1.2081115245819092,"89":0.3637096881866455,"90":-0.6445044875144958,"91":1.6684250831604004,"92":0.01263836957514286,"93":-2.576150417327881,"94":-0.11672212183475494,"95":3.2198104858398438,"96":-1.8264034986495972,"97":-0.6609315872192383,"98":-0.8334794640541077,"99":2.032825469970703}},"22":{"bias":1.656345248222351,"weights":{"0":0.8012485504150391,"1":1.8713082075119019,"2":0.14118742942810059,"3":-1.7496874332427979,"4":0.6797022819519043,"5":0.18309921026229858,"6":0.9473051428794861,"7":-1.097369909286499,"8":-1.6932610273361206,"9":-0.9977391362190247,"10":-0.20090211927890778,"11":-1.5130729675292969,"12":-0.1785397082567215,"13":-0.40374282002449036,"14":-2.5936331748962402,"15":-0.04262591898441315,"16":-2.306065082550049,"17":-0.6338745355606079,"18":0.2562721073627472,"19":1.6688610315322876,"20":-1.3958526849746704,"21":-0.651242733001709,"22":1.7414541244506836,"23":0.33826005458831787,"24":-0.283164918422699,"25":0.5438734292984009,"26":-1.2617496252059937,"27":-0.4336372911930084,"28":1.8144679069519043,"29":0.4141377806663513,"30":-0.7117538452148438,"31":0.172825425863266,"32":0.8394028544425964,"33":0.6038403511047363,"34":2.3174054622650146,"35":-1.474100947380066,"36":-0.6363892555236816,"37":1.6293509006500244,"38":-0.7974295020103455,"39":-1.0018701553344727,"40":-2.1403696537017822,"41":1.0207030773162842,"42":3.0188469886779785,"43":0.7751898765563965,"44":1.528572678565979,"45":-0.5469391942024231,"46":-1.93814218044281,"47":0.02385646104812622,"48":-0.6073761582374573,"49":0.22297333180904388,"50":-2.0360360145568848,"51":-1.9210407733917236,"52":-1.7971882820129395,"53":0.5998502373695374,"54":0.0025054686702787876,"55":0.7631783485412598,"56":0.3198710083961487,"57":-0.28006240725517273,"58":0.42279335856437683,"59":-0.7349539995193481,"60":0.20111864805221558,"61":-0.13001134991645813,"62":-1.5553390979766846,"63":-0.9602245688438416,"64":1.962280035018921,"65":-0.6374517679214478,"66":2.3223166465759277,"67":-1.708598256111145,"68":0.02967367321252823,"69":1.4492255449295044,"70":1.7326428890228271,"71":-1.745106816291809,"72":-1.349515438079834,"73":-1.014002799987793,"74":0.623330295085907,"75":-1.2089614868164062,"76":1.9418455362319946,"77":-1.536261796951294,"78":1.0187386274337769,"79":0.8136590123176575,"80":-0.4396827816963196,"81":0.9068685173988342,"82":-1.2738642692565918,"83":0.8700368404388428,"84":-1.0574617385864258,"85":0.1643572598695755,"86":0.8712475895881653,"87":-1.0859477519989014,"88":4.5843095779418945,"89":-1.0579246282577515,"90":-0.31169360876083374,"91":0.6818468570709229,"92":0.33958300948143005,"93":-2.8989102840423584,"94":-2.2805445194244385,"95":1.3136810064315796,"96":1.8923053741455078,"97":-1.1160510778427124,"98":0.27687615156173706,"99":1.1122634410858154}},"23":{"bias":-0.6873615980148315,"weights":{"0":-0.7448935508728027,"1":-2.4215927124023438,"2":0.6880489587783813,"3":1.322224736213684,"4":1.6555157899856567,"5":0.5192549228668213,"6":3.0619068145751953,"7":-1.22207772731781,"8":3.3839542865753174,"9":-4.209320545196533,"10":-0.35950177907943726,"11":-3.2514843940734863,"12":3.5379395484924316,"13":-2.0776424407958984,"14":1.0753796100616455,"15":3.3947181701660156,"16":-1.1045591831207275,"17":-2.1851775646209717,"18":-0.006901170127093792,"19":0.824740469455719,"20":-0.24711938202381134,"21":-0.683525025844574,"22":-0.30281880497932434,"23":2.0293421745300293,"24":2.2275338172912598,"25":-1.9249671697616577,"26":1.4459948539733887,"27":0.1775672286748886,"28":1.4938033819198608,"29":2.0801680088043213,"30":1.2623543739318848,"31":2.4430761337280273,"32":1.5373101234436035,"33":0.32284730672836304,"34":-0.2994808554649353,"35":-2.3129501342773438,"36":-1.1563349962234497,"37":-0.4566921591758728,"38":-0.2671443521976471,"39":2.4854841232299805,"40":2.600403070449829,"41":-1.1575833559036255,"42":1.7111142873764038,"43":-2.4818532466888428,"44":-2.2000572681427,"45":-1.8507835865020752,"46":1.7966564893722534,"47":-2.3845694065093994,"48":0.4733646512031555,"49":-1.6321749687194824,"50":2.978137493133545,"51":3.8744850158691406,"52":-1.689980387687683,"53":-3.4199342727661133,"54":0.13737668097019196,"55":-0.14579246938228607,"56":-2.737279176712036,"57":-2.853851556777954,"58":0.5006396770477295,"59":-0.9321594834327698,"60":-0.25888723134994507,"61":2.7096121311187744,"62":1.2138627767562866,"63":-3.7241454124450684,"64":-0.9509244561195374,"65":1.1344633102416992,"66":2.725260019302368,"67":1.4884527921676636,"68":-2.5830130577087402,"69":0.0847017765045166,"70":-2.3097426891326904,"71":-0.2898003160953522,"72":2.904447555541992,"73":0.8252014517784119,"74":0.947928249835968,"75":1.149241328239441,"76":-0.0754808634519577,"77":-1.0536859035491943,"78":2.235581159591675,"79":-1.0767312049865723,"80":-1.2361983060836792,"81":2.7066476345062256,"82":-3.896096706390381,"83":-1.6895713806152344,"84":-1.5668299198150635,"85":1.9231520891189575,"86":0.160832017660141,"87":-0.9260188341140747,"88":-0.7592257857322693,"89":-1.1608887910842896,"90":-1.0712311267852783,"91":-2.309436798095703,"92":-0.8994466662406921,"93":-1.3876560926437378,"94":-1.0554999113082886,"95":2.3189237117767334,"96":0.5182796120643616,"97":0.641779899597168,"98":-1.5248849391937256,"99":-2.2325057983398438}},"24":{"bias":-0.46436649560928345,"weights":{"0":4.722423553466797,"1":1.585403323173523,"2":1.719781517982483,"3":3.1864795684814453,"4":0.022313740104436874,"5":0.19225288927555084,"6":-0.999960720539093,"7":-3.2630510330200195,"8":-0.4214870035648346,"9":1.707062840461731,"10":-3.5137956142425537,"11":-0.3860829472541809,"12":-0.19270244240760803,"13":0.6125211715698242,"14":-3.810727834701538,"15":-0.9682281613349915,"16":0.11735592037439346,"17":-1.71308171749115,"18":-3.488352060317993,"19":6.262940406799316,"20":0.08694623410701752,"21":-1.6001583337783813,"22":0.6540728211402893,"23":-1.6576348543167114,"24":0.4479164779186249,"25":0.18655343353748322,"26":0.6262860894203186,"27":-3.007864475250244,"28":-1.3627815246582031,"29":2.0727901458740234,"30":-1.4838194847106934,"31":3.4631993770599365,"32":-1.3825920820236206,"33":-4.095560550689697,"34":0.7963716983795166,"35":-1.8866987228393555,"36":-0.5107084512710571,"37":0.28904029726982117,"38":-1.6796208620071411,"39":0.08123442530632019,"40":1.9347561597824097,"41":1.872960090637207,"42":0.8331515789031982,"43":-1.529681921005249,"44":1.70476233959198,"45":0.8024299740791321,"46":-0.6257537007331848,"47":-1.5804194211959839,"48":-1.0276379585266113,"49":0.8337526321411133,"50":1.1426374912261963,"51":0.769187867641449,"52":-3.912249803543091,"53":-0.8560290336608887,"54":3.1714181900024414,"55":0.044279199093580246,"56":1.8955711126327515,"57":0.9485024809837341,"58":-2.680659532546997,"59":-0.5593628287315369,"60":-0.715526819229126,"61":-0.18135707080364227,"62":-1.4036247730255127,"63":-4.564441204071045,"64":0.9224429130554199,"65":1.1514651775360107,"66":2.278125286102295,"67":-0.10697678476572037,"68":-0.7608552575111389,"69":3.467214345932007,"70":0.12197578698396683,"71":0.19143353402614594,"72":-0.6989341974258423,"73":-2.1278884410858154,"74":2.1777455806732178,"75":0.7540382742881775,"76":-2.433314323425293,"77":-0.3019070327281952,"78":0.46788355708122253,"79":4.446915626525879,"80":-1.158829689025879,"81":-1.9483357667922974,"82":2.0430641174316406,"83":-2.003732919692993,"84":0.5374593734741211,"85":0.17675566673278809,"86":2.562699317932129,"87":-3.1227879524230957,"88":-0.6875205636024475,"89":-1.0831172466278076,"90":2.7358410358428955,"91":0.3565918803215027,"92":-1.32608163356781,"93":-0.4997911751270294,"94":2.330869197845459,"95":-2.078680992126465,"96":0.7062429785728455,"97":1.5845603942871094,"98":3.8250632286071777,"99":3.1457788944244385}},"25":{"bias":-4.146942615509033,"weights":{"0":0.4844050705432892,"1":1.255105972290039,"2":-0.3086833953857422,"3":-1.504029631614685,"4":0.1279550939798355,"5":0.6301765441894531,"6":-4.8216633796691895,"7":-3.665327310562134,"8":-3.0843887329101562,"9":1.39697265625,"10":1.9344390630722046,"11":5.165087699890137,"12":-3.071660041809082,"13":-1.1708773374557495,"14":0.813346266746521,"15":2.8629276752471924,"16":-2.5535027980804443,"17":1.707762360572815,"18":-1.8495221138000488,"19":-0.29503169655799866,"20":-4.508812427520752,"21":-0.9753968715667725,"22":-2.504775285720825,"23":2.0850517749786377,"24":0.6258620023727417,"25":1.807190179824829,"26":-0.8906885981559753,"27":1.1081947088241577,"28":2.052448272705078,"29":1.733393669128418,"30":2.4609575271606445,"31":0.8080251812934875,"32":3.901026725769043,"33":1.3089313507080078,"34":0.8481107354164124,"35":1.3136627674102783,"36":-1.8072654008865356,"37":0.19295261800289154,"38":3.0651092529296875,"39":-1.9161548614501953,"40":-2.1986093521118164,"41":-0.12060374021530151,"42":-0.3646126389503479,"43":-1.5444649457931519,"44":-1.6326054334640503,"45":4.988774299621582,"46":1.3986706733703613,"47":-1.1473448276519775,"48":3.3634064197540283,"49":3.050679922103882,"50":-3.0885121822357178,"51":-1.049593210220337,"52":1.3143523931503296,"53":-2.0098276138305664,"54":0.13189880549907684,"55":2.8960094451904297,"56":3.846757173538208,"57":-1.5116431713104248,"58":4.006660461425781,"59":4.016815185546875,"60":1.911430835723877,"61":-0.7456586360931396,"62":-0.6616712212562561,"63":-0.25068581104278564,"64":-3.6561203002929688,"65":-1.2248791456222534,"66":-1.905894160270691,"67":-0.6127370595932007,"68":2.8774490356445312,"69":0.5044276118278503,"70":-1.422566294670105,"71":3.706648349761963,"72":-0.5649378895759583,"73":-0.6083438992500305,"74":0.018153877928853035,"75":0.437832236289978,"76":-3.5372633934020996,"77":2.758795738220215,"78":-1.6597332954406738,"79":0.18967868387699127,"80":2.2400808334350586,"81":-0.1377374827861786,"82":-1.2627049684524536,"83":1.8318713903427124,"84":-0.16469286382198334,"85":2.6701650619506836,"86":3.1127185821533203,"87":-0.6064410209655762,"88":0.8096761107444763,"89":-3.638432025909424,"90":-1.3815580606460571,"91":-0.7923948168754578,"92":-0.748887300491333,"93":-3.06199312210083,"94":-0.9048731327056885,"95":-0.6341602802276611,"96":-0.6614581942558289,"97":0.7097411751747131,"98":0.6322947144508362,"99":-0.22747130692005157}},"26":{"bias":-1.058856725692749,"weights":{"0":1.6787595748901367,"1":0.8841274976730347,"2":-1.3520839214324951,"3":-2.0355212688446045,"4":-0.33697617053985596,"5":0.10344795882701874,"6":-3.9168951511383057,"7":-1.5418944358825684,"8":0.04989105463027954,"9":0.6845945119857788,"10":3.067845106124878,"11":-2.219287872314453,"12":-0.0802573561668396,"13":1.2721693515777588,"14":-1.3970396518707275,"15":2.6184325218200684,"16":5.0013909339904785,"17":2.4047043323516846,"18":-2.4198684692382812,"19":-3.5338077545166016,"20":0.659400999546051,"21":0.03132190555334091,"22":-0.9622817039489746,"23":-3.367434024810791,"24":0.7895578145980835,"25":3.0448429584503174,"26":-1.82053542137146,"27":-1.1685088872909546,"28":1.724710464477539,"29":-0.8439047932624817,"30":2.517043352127075,"31":-2.057429790496826,"32":-1.121652364730835,"33":2.0577239990234375,"34":1.5091689825057983,"35":-3.298257350921631,"36":-0.12631243467330933,"37":0.03457009047269821,"38":4.057260513305664,"39":-2.495251417160034,"40":1.9496161937713623,"41":3.391550302505493,"42":-0.5523464679718018,"43":1.1796492338180542,"44":-2.3907017707824707,"45":4.348422527313232,"46":-1.67117440700531,"47":1.4205436706542969,"48":3.8197879791259766,"49":-0.3523080050945282,"50":-1.8865633010864258,"51":-0.8102380633354187,"52":-0.11898766458034515,"53":-0.5820043087005615,"54":-1.2645317316055298,"55":0.9104225635528564,"56":4.771042346954346,"57":-1.7429122924804688,"58":-0.08624298125505447,"59":0.5419889688491821,"60":3.991795539855957,"61":-2.7941060066223145,"62":-0.05479154363274574,"63":-0.11467791348695755,"64":0.8905079364776611,"65":-2.3426146507263184,"66":0.022925028577446938,"67":-1.1193495988845825,"68":0.6584823727607727,"69":2.7908995151519775,"70":-0.6988477110862732,"71":1.1293867826461792,"72":2.009108066558838,"73":-0.19851693511009216,"74":-1.7597450017929077,"75":-2.5238802433013916,"76":-0.4502338171005249,"77":1.2250258922576904,"78":0.16365517675876617,"79":-2.989549398422241,"80":1.1722780466079712,"81":2.367997646331787,"82":0.44791314005851746,"83":-3.018176317214966,"84":-0.6569957733154297,"85":-1.853722095489502,"86":-1.2666292190551758,"87":1.7479485273361206,"88":-0.23745819926261902,"89":-1.8751415014266968,"90":1.9240764379501343,"91":-0.00316796381957829,"92":0.6226891279220581,"93":-1.7164825201034546,"94":-2.458000659942627,"95":-4.165796279907227,"96":-0.08142296969890594,"97":4.6487016677856445,"98":-3.767373561859131,"99":-0.027928411960601807}},"27":{"bias":0.05742612108588219,"weights":{"0":-1.2373093366622925,"1":0.6719485521316528,"2":-4.039743423461914,"3":-1.4862736463546753,"4":3.7190916538238525,"5":3.4022345542907715,"6":1.5293338298797607,"7":-1.7776106595993042,"8":3.1268997192382812,"9":-1.8906607627868652,"10":-1.346103549003601,"11":-2.9467430114746094,"12":2.1280393600463867,"13":1.7632118463516235,"14":2.6598851680755615,"15":-2.3897578716278076,"16":-0.9218724370002747,"17":-2.1147754192352295,"18":0.4419081211090088,"19":-0.7680244445800781,"20":1.8036166429519653,"21":1.4807558059692383,"22":-1.3090176582336426,"23":1.5590295791625977,"24":-0.9396169781684875,"25":1.2506829500198364,"26":-4.722741603851318,"27":1.730828881263733,"28":1.3346613645553589,"29":-2.238755941390991,"30":-1.3797086477279663,"31":-0.15086820721626282,"32":-1.0610657930374146,"33":1.9959708452224731,"34":0.8985729813575745,"35":-0.30718207359313965,"36":-0.32747790217399597,"37":-0.9946664571762085,"38":1.5123522281646729,"39":0.6649907827377319,"40":1.84201180934906,"41":0.997052788734436,"42":2.0460011959075928,"43":-0.512520968914032,"44":-0.36475232243537903,"45":-3.583777666091919,"46":0.45393598079681396,"47":-2.1451191902160645,"48":2.254546880722046,"49":-2.7398765087127686,"50":0.3740992844104767,"51":1.8223931789398193,"52":-0.14825767278671265,"53":-0.35413968563079834,"54":1.0693682432174683,"55":-0.8393979072570801,"56":-1.2643853425979614,"57":0.7682870626449585,"58":1.2269718647003174,"59":-1.4878536462783813,"60":-2.3792684078216553,"61":2.395209312438965,"62":-0.47747617959976196,"63":-1.9341280460357666,"64":-3.288710594177246,"65":-1.5907270908355713,"66":1.5772125720977783,"67":-2.7143917083740234,"68":3.6873764991760254,"69":-0.14131395518779755,"70":1.5991572141647339,"71":0.4961112141609192,"72":4.404369831085205,"73":1.0670408010482788,"74":-1.4435075521469116,"75":-2.2220852375030518,"76":3.6726558208465576,"77":-1.0933748483657837,"78":3.174919843673706,"79":-3.614335298538208,"80":2.450227737426758,"81":0.4802285432815552,"82":0.6696355938911438,"83":-1.2283421754837036,"84":0.4136275053024292,"85":1.6873465776443481,"86":-3.661045789718628,"87":-0.5804116725921631,"88":0.9010807871818542,"89":3.543729543685913,"90":-2.986424207687378,"91":-0.18377803266048431,"92":-1.1257133483886719,"93":-0.4644114673137665,"94":2.0971155166625977,"95":-2.9210307598114014,"96":-0.8439560532569885,"97":-0.5331705808639526,"98":-1.2441505193710327,"99":2.581433057785034}},"28":{"bias":-0.5365557670593262,"weights":{"0":-0.22408489882946014,"1":-0.08334515988826752,"2":1.3369477987289429,"3":0.6896834969520569,"4":1.3483906984329224,"5":2.088268280029297,"6":1.7144925594329834,"7":-1.3606115579605103,"8":-0.2588461637496948,"9":0.01036144234240055,"10":0.7307296991348267,"11":-0.9354913234710693,"12":-1.3960760831832886,"13":-2.398435592651367,"14":1.67338228225708,"15":2.3180246353149414,"16":-3.835096836090088,"17":0.22759120166301727,"18":0.04260639846324921,"19":0.21874473989009857,"20":3.3961243629455566,"21":-0.41717392206192017,"22":2.038517475128174,"23":-1.4851435422897339,"24":2.0852468013763428,"25":-0.0032352525740861893,"26":0.20136785507202148,"27":1.5425333976745605,"28":0.9330440759658813,"29":0.9044737219810486,"30":-2.3987021446228027,"31":0.5935940742492676,"32":1.6394617557525635,"33":-2.764620065689087,"34":1.6312453746795654,"35":1.255226731300354,"36":2.644566297531128,"37":0.9325971603393555,"38":0.27751806378364563,"39":-3.007310152053833,"40":-1.145594596862793,"41":-2.671116352081299,"42":2.9069623947143555,"43":-3.6695773601531982,"44":1.9182753562927246,"45":2.9369328022003174,"46":-0.4894214868545532,"47":1.4392385482788086,"48":2.1119699478149414,"49":4.809222221374512,"50":3.5865421295166016,"51":-0.18643631041049957,"52":0.6960635781288147,"53":-0.2848603427410126,"54":0.7561138868331909,"55":1.182313084602356,"56":-1.8765591382980347,"57":0.7767407894134521,"58":0.012136249803006649,"59":-0.8659086227416992,"60":-1.667128562927246,"61":-1.8438212871551514,"62":-1.7239961624145508,"63":0.35056808590888977,"64":0.6999728083610535,"65":-1.6282509565353394,"66":2.082916259765625,"67":2.0467233657836914,"68":-2.864518642425537,"69":-1.2113324403762817,"70":0.21991245448589325,"71":3.0666050910949707,"72":-0.5245187282562256,"73":-2.069443464279175,"74":-0.8380763530731201,"75":1.1821389198303223,"76":-0.8934856057167053,"77":-1.126600980758667,"78":-0.6464365124702454,"79":-0.5551632046699524,"80":-3.8729312419891357,"81":3.2401864528656006,"82":-1.085115909576416,"83":1.2836555242538452,"84":-3.089139223098755,"85":-2.006762742996216,"86":0.10406569391489029,"87":-2.84014630317688,"88":-1.3464237451553345,"89":-5.535987854003906,"90":-1.1181620359420776,"91":0.066548652946949,"92":0.4102190136909485,"93":-4.529142379760742,"94":1.5612229108810425,"95":1.213431715965271,"96":-1.5230985879898071,"97":0.8331405520439148,"98":1.4280344247817993,"99":1.1362439393997192}},"29":{"bias":-0.9373101592063904,"weights":{"0":-2.711951971054077,"1":-1.4041579961776733,"2":2.002218008041382,"3":-1.8158156871795654,"4":-3.287778854370117,"5":-1.7856500148773193,"6":0.4868389666080475,"7":-1.3248721361160278,"8":2.084268569946289,"9":-3.931781768798828,"10":-2.024367570877075,"11":0.2794451117515564,"12":-0.17265518009662628,"13":-1.3751946687698364,"14":1.004625678062439,"15":0.4888685643672943,"16":-0.9401096105575562,"17":3.191009283065796,"18":-3.3482279777526855,"19":-0.5520497560501099,"20":1.3492997884750366,"21":-3.0303549766540527,"22":-1.940847396850586,"23":-0.05278272554278374,"24":2.8482825756073,"25":3.7591850757598877,"26":0.06355589628219604,"27":1.082751989364624,"28":-1.4497226476669312,"29":1.1985814571380615,"30":-0.11596259474754333,"31":1.8900030851364136,"32":-2.4858994483947754,"33":-1.060119867324829,"34":-1.7555046081542969,"35":-1.163686990737915,"36":1.0631216764450073,"37":2.1436381340026855,"38":-0.06614689528942108,"39":-0.7042244076728821,"40":3.5721166133880615,"41":-0.6805078983306885,"42":-0.280680388212204,"43":3.1015892028808594,"44":0.5139733552932739,"45":0.04273173585534096,"46":-2.9148359298706055,"47":-2.105199098587036,"48":1.4038914442062378,"49":1.7238010168075562,"50":-4.080231666564941,"51":0.4877723455429077,"52":1.2324399948120117,"53":-0.826784610748291,"54":-1.7168916463851929,"55":0.23989717662334442,"56":-4.26449728012085,"57":-3.144036054611206,"58":-1.4488708972930908,"59":0.962929904460907,"60":-0.3065960109233856,"61":0.4529752731323242,"62":-0.1713486760854721,"63":0.25473201274871826,"64":-0.6063123941421509,"65":-2.20100474357605,"66":0.08100401610136032,"67":0.5070873498916626,"68":0.09345784783363342,"69":-1.5816594362258911,"70":-1.0903434753417969,"71":1.2784440517425537,"72":-0.6832066774368286,"73":-2.875753402709961,"74":4.627178192138672,"75":2.4020497798919678,"76":0.7371907830238342,"77":-1.000976324081421,"78":-0.7795311212539673,"79":2.6196482181549072,"80":2.588090658187866,"81":1.2807133197784424,"82":2.2101633548736572,"83":0.29832690954208374,"84":1.4989508390426636,"85":0.09107601642608643,"86":3.7862489223480225,"87":0.5800125598907471,"88":2.9492790699005127,"89":-0.9642647504806519,"90":-2.042809009552002,"91":1.879774808883667,"92":-1.2032160758972168,"93":1.4079509973526,"94":0.06866323202848434,"95":-0.4272429347038269,"96":1.3534026145935059,"97":3.367094039916992,"98":2.8539977073669434,"99":-1.770058274269104}},"30":{"bias":0.4042242467403412,"weights":{"0":-3.348593235015869,"1":-4.3900322914123535,"2":2.3534111976623535,"3":0.01014962699264288,"4":1.0539062023162842,"5":2.9543087482452393,"6":0.7307003140449524,"7":0.014090877026319504,"8":0.28321367502212524,"9":-4.845546245574951,"10":0.9829582571983337,"11":-3.0665900707244873,"12":1.9513417482376099,"13":-0.5162497758865356,"14":-2.6873269081115723,"15":3.7821078300476074,"16":-5.178640842437744,"17":-1.0282233953475952,"18":1.8235909938812256,"19":-0.8980459570884705,"20":3.4618613719940186,"21":1.400792121887207,"22":-1.9196524620056152,"23":-0.6345691680908203,"24":2.0721688270568848,"25":1.4397612810134888,"26":3.88051700592041,"27":-1.7804498672485352,"28":3.7253525257110596,"29":3.7964556217193604,"30":3.2189738750457764,"31":-3.2464659214019775,"32":-1.3476279973983765,"33":-3.6369686126708984,"34":2.191903829574585,"35":-1.4921882152557373,"36":0.1042347326874733,"37":3.708648443222046,"38":2.913726806640625,"39":0.14121635258197784,"40":2.528332233428955,"41":-0.6739839911460876,"42":1.8537710905075073,"43":-2.5587430000305176,"44":-1.5481303930282593,"45":1.2708405256271362,"46":-3.332775831222534,"47":-0.5341910719871521,"48":-4.06367301940918,"49":2.7877156734466553,"50":2.3488147258758545,"51":1.2962602376937866,"52":1.1179898977279663,"53":-0.5665846467018127,"54":-2.226611375808716,"55":-0.07089141011238098,"56":-0.2744539976119995,"57":-0.3494997024536133,"58":-0.13095518946647644,"59":5.221947193145752,"60":1.5199958086013794,"61":-1.8895747661590576,"62":0.2036496102809906,"63":-1.223343014717102,"64":1.3270766735076904,"65":1.254407525062561,"66":-2.324144124984741,"67":-1.4305413961410522,"68":1.6524466276168823,"69":-0.8040159940719604,"70":-1.462066411972046,"71":1.9864399433135986,"72":-0.658480703830719,"73":0.012915308587253094,"74":-1.0283372402191162,"75":4.913450717926025,"76":-2.319371223449707,"77":1.937273621559143,"78":-2.5464086532592773,"79":1.1401327848434448,"80":-0.10182003676891327,"81":1.0229016542434692,"82":-0.8380607962608337,"83":1.2761479616165161,"84":0.2627637982368469,"85":0.3224185109138489,"86":-3.6677653789520264,"87":0.703278124332428,"88":0.14878951013088226,"89":-4.498042583465576,"90":-1.1430798768997192,"91":-0.025899291038513184,"92":0.2581319510936737,"93":-4.760074138641357,"94":1.3382660150527954,"95":-0.07223962992429733,"96":-1.7123723030090332,"97":1.0223991870880127,"98":-2.1158111095428467,"99":-0.3388141393661499}},"31":{"bias":0.9068906307220459,"weights":{"0":-1.608787178993225,"1":-2.26908802986145,"2":0.9192360639572144,"3":1.9470099210739136,"4":-0.07117971777915955,"5":-4.250741481781006,"6":-0.20891131460666656,"7":-5.2353410720825195,"8":-0.1760091781616211,"9":4.200848579406738,"10":0.5165935158729553,"11":-0.9481143951416016,"12":-0.5955491662025452,"13":-0.5571703910827637,"14":-1.8494514226913452,"15":1.5179263353347778,"16":-0.20628850162029266,"17":-1.6447595357894897,"18":0.575862467288971,"19":1.92793869972229,"20":-2.722963333129883,"21":1.765857458114624,"22":2.3072099685668945,"23":1.2097502946853638,"24":1.1504418849945068,"25":-0.12128037959337234,"26":-3.2969629764556885,"27":3.1452972888946533,"28":-1.1594005823135376,"29":0.745261013507843,"30":0.05278016999363899,"31":-2.3522562980651855,"32":0.8498055338859558,"33":-1.4004641771316528,"34":1.3774532079696655,"35":-0.17900481820106506,"36":-1.4836751222610474,"37":2.2097790241241455,"38":0.6304490566253662,"39":1.719929814338684,"40":-1.0984535217285156,"41":-1.2395586967468262,"42":-1.0737534761428833,"43":-0.4969761371612549,"44":-2.316863775253296,"45":-0.5349604487419128,"46":-1.8032993078231812,"47":0.3443903923034668,"48":-0.9901925325393677,"49":-2.280526638031006,"50":0.6496616005897522,"51":-0.09978409856557846,"52":-1.0124380588531494,"53":0.28213879466056824,"54":1.4547632932662964,"55":1.3932578563690186,"56":2.097926616668701,"57":-0.0735095888376236,"58":-0.12690369784832,"59":-0.4163319766521454,"60":-0.2283795326948166,"61":-2.0325002670288086,"62":-2.106637716293335,"63":-0.4142300486564636,"64":-1.3911492824554443,"65":-0.4418641924858093,"66":-0.5773223042488098,"67":0.13406208157539368,"68":2.632277727127075,"69":2.970966100692749,"70":0.9701278209686279,"71":-0.9473877549171448,"72":-1.8597465753555298,"73":3.991220712661743,"74":-0.9775820374488831,"75":3.376204013824463,"76":-0.5363991260528564,"77":1.834633231163025,"78":1.2621666193008423,"79":1.6721457242965698,"80":1.5447593927383423,"81":-0.9800286293029785,"82":0.8899205923080444,"83":1.3050203323364258,"84":1.1883721351623535,"85":-1.371105432510376,"86":-0.6738122701644897,"87":-2.102266550064087,"88":-4.243643283843994,"89":0.9401759505271912,"90":-1.5383903980255127,"91":1.245303750038147,"92":0.5201271772384644,"93":-0.1509084850549698,"94":-1.826629877090454,"95":-1.6397638320922852,"96":0.7264717817306519,"97":-0.1488576978445053,"98":-0.06588561832904816,"99":5.202744960784912}},"32":{"bias":-3.7184269428253174,"weights":{"0":-3.304964542388916,"1":-0.6923519372940063,"2":-3.0402820110321045,"3":0.8739175200462341,"4":-2.757272481918335,"5":-2.3517093658447266,"6":0.9357852935791016,"7":-5.120121955871582,"8":0.5933816432952881,"9":-1.2190653085708618,"10":-0.9975592494010925,"11":-3.266124963760376,"12":4.583017826080322,"13":-1.5185126066207886,"14":-0.09397687017917633,"15":0.9856886267662048,"16":2.2310845851898193,"17":2.8552396297454834,"18":0.7376480102539062,"19":0.9111630916595459,"20":-0.7169261574745178,"21":-1.0085679292678833,"22":2.5773048400878906,"23":-2.158864736557007,"24":0.9764577746391296,"25":-2.3124399185180664,"26":2.6749038696289062,"27":3.494847297668457,"28":-2.5496253967285156,"29":-1.1411491632461548,"30":-2.7809665203094482,"31":-1.607696533203125,"32":2.2455801963806152,"33":-6.060792922973633,"34":1.4208307266235352,"35":0.43470311164855957,"36":-1.8257805109024048,"37":-0.2506808936595917,"38":2.34763503074646,"39":-1.0640900135040283,"40":3.2943553924560547,"41":2.535087823867798,"42":-2.9683985710144043,"43":-0.7599493861198425,"44":-1.9847278594970703,"45":0.09784496575593948,"46":2.078436851501465,"47":-1.909713625907898,"48":1.528253197669983,"49":4.585684299468994,"50":1.8660322427749634,"51":2.928234815597534,"52":-0.5864410996437073,"53":-1.817755103111267,"54":-0.5586342215538025,"55":-1.55393385887146,"56":0.04530075192451477,"57":-0.10391411185264587,"58":0.8802754282951355,"59":0.5614598393440247,"60":-3.0025744438171387,"61":3.2652156352996826,"62":-0.4862871468067169,"63":-2.347578525543213,"64":0.7534820437431335,"65":1.6943392753601074,"66":-0.07818536460399628,"67":-2.201610803604126,"68":-1.9617533683776855,"69":2.106553792953491,"70":3.494208574295044,"71":-0.7372918725013733,"72":2.336299419403076,"73":-0.3920372426509857,"74":1.92050039768219,"75":0.8474323153495789,"76":1.8594530820846558,"77":-0.4536173641681671,"78":3.159986972808838,"79":3.9839892387390137,"80":1.9909085035324097,"81":-1.9595146179199219,"82":-4.061807632446289,"83":0.7317110300064087,"84":2.157808542251587,"85":0.4152935743331909,"86":3.804049491882324,"87":-3.662797451019287,"88":-1.3810102939605713,"89":2.607355833053589,"90":3.436671018600464,"91":-1.2900166511535645,"92":1.7671856880187988,"93":0.8251740336418152,"94":-0.36529719829559326,"95":0.3447251319885254,"96":0.9910494685173035,"97":-2.714293956756592,"98":1.0791864395141602,"99":0.22995740175247192}},"33":{"bias":-1.6624844074249268,"weights":{"0":1.0133901834487915,"1":-0.09476941078901291,"2":1.0011475086212158,"3":-0.6839388012886047,"4":-0.9462260007858276,"5":-2.361036777496338,"6":1.5108723640441895,"7":-0.6107662320137024,"8":-0.42398011684417725,"9":-1.1836464405059814,"10":0.17405499517917633,"11":-0.761148989200592,"12":1.2141356468200684,"13":-3.4266140460968018,"14":-2.6509644985198975,"15":1.7805222272872925,"16":0.41922688484191895,"17":-2.1785740852355957,"18":2.4906208515167236,"19":-0.41504180431365967,"20":-2.2793421745300293,"21":1.2329071760177612,"22":1.2998017072677612,"23":2.1143693923950195,"24":1.3476440906524658,"25":1.7649894952774048,"26":2.592402696609497,"27":1.7597492933273315,"28":0.9129194021224976,"29":1.3295127153396606,"30":-1.3298193216323853,"31":-2.881908893585205,"32":1.3475496768951416,"33":-2.3258259296417236,"34":-1.5700584650039673,"35":0.7768048644065857,"36":-1.6012063026428223,"37":1.738459825515747,"38":-1.6923121213912964,"39":-0.5201103687286377,"40":1.4235575199127197,"41":-3.280912160873413,"42":2.517987012863159,"43":1.2532449960708618,"44":-4.188979625701904,"45":-0.36539337038993835,"46":-1.0977963209152222,"47":3.126448631286621,"48":-3.045461416244507,"49":2.1478452682495117,"50":3.4518001079559326,"51":1.0333863496780396,"52":1.169377088546753,"53":1.7444320917129517,"54":-0.3594452738761902,"55":0.770525336265564,"56":-2.7344138622283936,"57":-1.913234829902649,"58":-0.21208110451698303,"59":-1.6573137044906616,"60":-0.4742918908596039,"61":0.33805912733078003,"62":-3.254293918609619,"63":3.3803787231445312,"64":-2.319179058074951,"65":-0.3331731855869293,"66":-1.0625163316726685,"67":1.8406177759170532,"68":2.6145081520080566,"69":-1.2481857538223267,"70":-4.811372756958008,"71":1.9772121906280518,"72":-0.6188945174217224,"73":-0.46198704838752747,"74":0.8802589774131775,"75":2.9970293045043945,"76":1.0963270664215088,"77":2.519641876220703,"78":2.58400297164917,"79":4.120769500732422,"80":-1.7158143520355225,"81":0.48928192257881165,"82":3.03007173538208,"83":-0.23975583910942078,"84":-3.9370155334472656,"85":-1.2189656496047974,"86":1.1055530309677124,"87":3.020673990249634,"88":-1.3291771411895752,"89":1.4729840755462646,"90":-0.14118513464927673,"91":-0.45383012294769287,"92":-3.110558032989502,"93":2.861482858657837,"94":-1.26720130443573,"95":-1.833817720413208,"96":-0.0768374428153038,"97":2.591303586959839,"98":-0.7363876700401306,"99":0.9382450580596924}},"34":{"bias":-1.6308531761169434,"weights":{"0":-1.1092727184295654,"1":-1.4068427085876465,"2":2.465731143951416,"3":1.7658075094223022,"4":-1.2393076419830322,"5":1.5002191066741943,"6":-2.716886281967163,"7":-1.9676555395126343,"8":-0.8601661324501038,"9":-1.4353383779525757,"10":-0.23448124527931213,"11":-2.212129831314087,"12":-0.05383697897195816,"13":3.9982309341430664,"14":-2.355222702026367,"15":-2.1649532318115234,"16":3.0614006519317627,"17":0.30280205607414246,"18":1.7298259735107422,"19":3.171422243118286,"20":0.18100644648075104,"21":3.7688846588134766,"22":-4.381927013397217,"23":1.2342418432235718,"24":1.7324979305267334,"25":-4.179693222045898,"26":0.9122315049171448,"27":-0.32856810092926025,"28":-0.08707315474748611,"29":0.4655616283416748,"30":1.0868526697158813,"31":-1.192120909690857,"32":0.7862570285797119,"33":0.08666910231113434,"34":-0.9339948892593384,"35":-0.22974318265914917,"36":-3.2312569618225098,"37":-0.8400757312774658,"38":-3.9196131229400635,"39":1.599869966506958,"40":-3.646411418914795,"41":-1.5355925559997559,"42":0.46107152104377747,"43":-0.10316673666238785,"44":0.2331375926733017,"45":0.2735646963119507,"46":1.1393697261810303,"47":-0.05898982286453247,"48":-0.025766320526599884,"49":-3.673567533493042,"50":3.752901792526245,"51":-1.5404516458511353,"52":0.09773735702037811,"53":0.10654712468385696,"54":0.535466730594635,"55":1.5147663354873657,"56":-0.209751695394516,"57":-0.2598222494125366,"58":-1.312536597251892,"59":1.0862290859222412,"60":-4.886317253112793,"61":1.3360987901687622,"62":1.1644014120101929,"63":0.29327642917633057,"64":2.3100733757019043,"65":0.7092017531394958,"66":-2.0552170276641846,"67":-1.0289063453674316,"68":2.5716395378112793,"69":-0.07807379961013794,"70":-1.5849066972732544,"71":-1.4885255098342896,"72":0.3049442172050476,"73":2.38678240776062,"74":3.3359551429748535,"75":1.24082350730896,"76":1.7476321458816528,"77":0.2118336260318756,"78":0.9418957233428955,"79":0.3286437392234802,"80":-1.3605866432189941,"81":0.8452281951904297,"82":4.9414167404174805,"83":2.0049493312835693,"84":1.8053950071334839,"85":2.181222677230835,"86":1.3012168407440186,"87":-0.8988274335861206,"88":-0.4259475767612457,"89":0.7792230248451233,"90":-2.2940402030944824,"91":0.6223958730697632,"92":3.5117366313934326,"93":0.6121444702148438,"94":3.4161672592163086,"95":-1.2765402793884277,"96":-2.9246461391448975,"97":-0.5828689932823181,"98":1.8367671966552734,"99":-2.043268918991089}},"35":{"bias":1.913282036781311,"weights":{"0":-3.8830928802490234,"1":0.3931032419204712,"2":-1.5531140565872192,"3":-3.862086772918701,"4":1.5529272556304932,"5":-2.4840641021728516,"6":2.3990931510925293,"7":0.9519339203834534,"8":-0.017039641737937927,"9":0.38381409645080566,"10":1.7673884630203247,"11":0.8254443407058716,"12":-1.7300562858581543,"13":-0.28553375601768494,"14":-0.17560385167598724,"15":-2.893209218978882,"16":0.8004140853881836,"17":-0.28491801023483276,"18":-2.065168857574463,"19":-0.2502942681312561,"20":-2.1466047763824463,"21":-3.40913987159729,"22":-2.8421947956085205,"23":-0.6179539561271667,"24":-0.7574536800384521,"25":-0.5282731652259827,"26":0.36221417784690857,"27":-0.07741693407297134,"28":-2.0973150730133057,"29":-1.149530291557312,"30":-0.27479758858680725,"31":4.932814598083496,"32":-2.894014835357666,"33":3.100078582763672,"34":-1.6786242723464966,"35":-0.9838724732398987,"36":-3.6042354106903076,"37":0.4737074673175812,"38":1.6575663089752197,"39":-4.321832180023193,"40":2.873289108276367,"41":-1.9250930547714233,"42":-0.3563462495803833,"43":1.8290581703186035,"44":0.04413546621799469,"45":1.3074756860733032,"46":1.0272139310836792,"47":0.8623618483543396,"48":-1.832282304763794,"49":2.044064521789551,"50":-0.272172212600708,"51":0.31688567996025085,"52":-0.6053194999694824,"53":-1.6218315362930298,"54":1.1485527753829956,"55":-1.3558449745178223,"56":-0.4471486806869507,"57":-2.46321439743042,"58":1.802097201347351,"59":2.56699275970459,"60":1.9142093658447266,"61":-1.4556924104690552,"62":0.21775640547275543,"63":3.263032913208008,"64":-4.126494884490967,"65":-0.7378882169723511,"66":-2.5635452270507812,"67":-0.739404022693634,"68":3.4844601154327393,"69":-1.5344935655593872,"70":-1.1654481887817383,"71":3.558896780014038,"72":2.8367512226104736,"73":-2.6155824661254883,"74":-1.9415594339370728,"75":-0.5329175591468811,"76":-2.6885087490081787,"77":0.17990489304065704,"78":0.6751810312271118,"79":-1.770080804824829,"80":1.429544448852539,"81":2.090665340423584,"82":0.1325698047876358,"83":-2.002039909362793,"84":0.0954345166683197,"85":-0.2585352957248688,"86":-0.04757607728242874,"87":0.9731348156929016,"88":5.100383758544922,"89":1.319992184638977,"90":3.034949779510498,"91":3.827552080154419,"92":-0.018520835787057877,"93":4.700409889221191,"94":1.8646252155303955,"95":-0.5895235538482666,"96":-0.4285025894641876,"97":-0.3144512176513672,"98":1.7221784591674805,"99":0.36467331647872925}},"36":{"bias":-0.9882824420928955,"weights":{"0":3.130702257156372,"1":-1.2367184162139893,"2":0.5256242752075195,"3":1.2324687242507935,"4":-4.176169395446777,"5":1.7561006546020508,"6":-1.950136423110962,"7":-2.554414749145508,"8":-1.562369465827942,"9":2.6949896812438965,"10":-2.149902105331421,"11":1.0132367610931396,"12":1.1019073724746704,"13":0.8791196942329407,"14":2.156268358230591,"15":-0.2050703912973404,"16":2.8309526443481445,"17":1.736539363861084,"18":3.1866252422332764,"19":-0.11528002470731735,"20":0.3141607344150543,"21":-0.2398308515548706,"22":1.9768004417419434,"23":3.725301504135132,"24":-1.2069168090820312,"25":-0.4016357660293579,"26":-0.30656105279922485,"27":1.0672290325164795,"28":-2.0803310871124268,"29":0.17096641659736633,"30":1.2175698280334473,"31":-0.13661915063858032,"32":-1.8076667785644531,"33":-0.5344741344451904,"34":0.953204333782196,"35":0.9284075498580933,"36":-2.9597270488739014,"37":-2.405754566192627,"38":-1.4079930782318115,"39":0.15100540220737457,"40":-1.3797029256820679,"41":-0.6947426795959473,"42":0.05279047414660454,"43":0.07236754894256592,"44":1.8973705768585205,"45":-1.4950987100601196,"46":0.5914486050605774,"47":2.2232584953308105,"48":2.732614517211914,"49":-1.9598280191421509,"50":0.8816908597946167,"51":1.9393270015716553,"52":-0.2374575138092041,"53":-3.4251389503479004,"54":0.53050297498703,"55":2.77683162689209,"56":-3.3645756244659424,"57":2.4921417236328125,"58":0.11859852820634842,"59":-3.3588743209838867,"60":-1.1061638593673706,"61":-1.044745922088623,"62":2.4870007038116455,"63":-3.6046204566955566,"64":-1.6638424396514893,"65":2.3922982215881348,"66":-3.4750099182128906,"67":-0.8543015122413635,"68":1.8489110469818115,"69":-1.4246633052825928,"70":0.7568718194961548,"71":1.4139535427093506,"72":-0.6018158793449402,"73":-0.21072787046432495,"74":-1.4392553567886353,"75":3.558307409286499,"76":-2.2224690914154053,"77":-2.0255439281463623,"78":3.332911729812622,"79":1.5688145160675049,"80":-1.409340739250183,"81":-4.2190842628479,"82":-1.5310832262039185,"83":4.911412715911865,"84":1.6617971658706665,"85":-2.4913322925567627,"86":2.0467591285705566,"87":0.031201975420117378,"88":2.0856523513793945,"89":0.823497474193573,"90":-1.5170499086380005,"91":-4.017094612121582,"92":0.21511340141296387,"93":2.869696855545044,"94":-0.5942227244377136,"95":0.7073098421096802,"96":-1.4107784032821655,"97":0.5572599768638611,"98":-1.4520199298858643,"99":0.4925730228424072}},"37":{"bias":1.799829363822937,"weights":{"0":0.5836268067359924,"1":-4.668175220489502,"2":1.071254014968872,"3":2.0014588832855225,"4":-3.2598936557769775,"5":1.183963418006897,"6":-2.489682674407959,"7":-3.3039510250091553,"8":0.9005515575408936,"9":-0.7747946381568909,"10":4.251277923583984,"11":-1.3770182132720947,"12":-1.587883472442627,"13":-0.07269428670406342,"14":-0.6388707160949707,"15":-2.696089029312134,"16":0.5089117884635925,"17":-0.9893025755882263,"18":3.173109769821167,"19":-1.1095383167266846,"20":0.7852702736854553,"21":0.9544939994812012,"22":2.446683883666992,"23":0.2951515018939972,"24":1.0163356065750122,"25":0.058876100927591324,"26":-1.3680304288864136,"27":-4.167027950286865,"28":-1.0811958312988281,"29":-0.3601296842098236,"30":-2.7922751903533936,"31":0.22539278864860535,"32":-0.34698382019996643,"33":0.03488603234291077,"34":0.7027043104171753,"35":0.9402512907981873,"36":0.9487749934196472,"37":-1.644339919090271,"38":2.6346545219421387,"39":1.8420560359954834,"40":-0.6711711883544922,"41":-3.994105815887451,"42":-3.0862650871276855,"43":4.1247639656066895,"44":2.7572715282440186,"45":-1.3756794929504395,"46":0.5367469787597656,"47":0.48270317912101746,"48":-1.0784788131713867,"49":0.21499201655387878,"50":0.1305980533361435,"51":-0.5842434763908386,"52":-2.3033905029296875,"53":-0.9530919790267944,"54":0.3745366930961609,"55":0.29334864020347595,"56":0.3193105161190033,"57":1.6968207359313965,"58":-3.138676166534424,"59":-2.297682523727417,"60":-2.5184617042541504,"61":-0.3053846061229706,"62":-0.39429786801338196,"63":-0.48181596398353577,"64":1.4068372249603271,"65":-0.25216299295425415,"66":0.47489506006240845,"67":-1.4678428173065186,"68":4.552723407745361,"69":0.7208186984062195,"70":-0.1742090880870819,"71":-2.7767186164855957,"72":-1.8154232501983643,"73":7.372709274291992,"74":0.6942204833030701,"75":-2.123270273208618,"76":0.6812503933906555,"77":-0.7849531769752502,"78":0.47129154205322266,"79":0.6748977303504944,"80":-2.1802401542663574,"81":3.067957639694214,"82":2.353167772293091,"83":1.17488431930542,"84":1.8198871612548828,"85":-0.31650957465171814,"86":-1.2668296098709106,"87":-4.503392219543457,"88":-2.315786361694336,"89":1.3347100019454956,"90":-1.620202660560608,"91":2.311911106109619,"92":0.7394296526908875,"93":-0.8773501515388489,"94":-2.3360750675201416,"95":2.6052167415618896,"96":-1.323594570159912,"97":0.713321328163147,"98":1.2272080183029175,"99":2.0807247161865234}},"38":{"bias":0.13339173793792725,"weights":{"0":3.0366811752319336,"1":0.5214520692825317,"2":-0.7048089504241943,"3":3.7632503509521484,"4":-0.015468127094209194,"5":-1.7364407777786255,"6":0.30494898557662964,"7":0.32611802220344543,"8":0.34767013788223267,"9":-1.594425082206726,"10":-0.22139544785022736,"11":-2.367532730102539,"12":0.010293844155967236,"13":0.24049700796604156,"14":0.753902018070221,"15":-2.8833889961242676,"16":0.5258637070655823,"17":-3.3434479236602783,"18":2.4567010402679443,"19":0.20508091151714325,"20":-0.10370580106973648,"21":-1.1067984104156494,"22":-1.2251219749450684,"23":-1.7402750253677368,"24":0.8263538479804993,"25":-0.6367279291152954,"26":-0.35652002692222595,"27":-1.254412055015564,"28":-1.3877352476119995,"29":-0.45995476841926575,"30":0.7042144536972046,"31":-2.635481357574463,"32":-1.42887282371521,"33":-2.2227983474731445,"34":-0.28347644209861755,"35":-0.7106505036354065,"36":1.402901291847229,"37":-0.89406418800354,"38":-2.253824234008789,"39":2.953645944595337,"40":0.9303197860717773,"41":0.20448309183120728,"42":-0.21741020679473877,"43":-1.8876584768295288,"44":2.0787746906280518,"45":0.22223198413848877,"46":-1.868383765220642,"47":-1.6197164058685303,"48":-2.6662747859954834,"49":2.19368839263916,"50":-2.1674492359161377,"51":1.3523266315460205,"52":-0.4794173538684845,"53":1.5734747648239136,"54":0.33071109652519226,"55":-0.10762837529182434,"56":3.795825958251953,"57":1.8019295930862427,"58":-1.0424877405166626,"59":-0.37157508730888367,"60":-0.26897063851356506,"61":2.25407338142395,"62":-1.4374786615371704,"63":0.1387949436903,"64":-0.6078406572341919,"65":0.9222301840782166,"66":-0.8193656802177429,"67":0.3196111023426056,"68":1.450177788734436,"69":4.324982643127441,"70":0.19173787534236908,"71":3.2930572032928467,"72":3.2050540447235107,"73":-0.3383930027484894,"74":1.3326727151870728,"75":0.2984427511692047,"76":1.0380934476852417,"77":1.333797812461853,"78":-2.2398159503936768,"79":-2.446572780609131,"80":-3.2557408809661865,"81":-2.3080413341522217,"82":0.6545594334602356,"83":-3.9360549449920654,"84":-2.1435112953186035,"85":-3.3305389881134033,"86":0.8378425240516663,"87":-2.112252712249756,"88":4.3555073738098145,"89":4.221377849578857,"90":0.42984282970428467,"91":-1.1278733015060425,"92":-3.040168523788452,"93":2.776099681854248,"94":-1.1785707473754883,"95":0.42884561419487,"96":1.463086485862732,"97":1.3164616823196411,"98":1.1640827655792236,"99":0.28567808866500854}},"39":{"bias":-0.7223660349845886,"weights":{"0":0.790461003780365,"1":-1.0166058540344238,"2":1.871627926826477,"3":-1.7072910070419312,"4":0.0976787582039833,"5":-0.35166242718696594,"6":-0.1684684306383133,"7":-0.8991107940673828,"8":-2.3572049140930176,"9":-0.4257476329803467,"10":0.7339682579040527,"11":-3.2127585411071777,"12":1.1173789501190186,"13":0.738120973110199,"14":-0.7206251621246338,"15":0.65146404504776,"16":-1.724769949913025,"17":0.2578597366809845,"18":1.469944715499878,"19":-1.010485053062439,"20":0.5650089383125305,"21":-1.1475321054458618,"22":0.007564274128526449,"23":-2.0947482585906982,"24":-1.7442785501480103,"25":-1.0254244804382324,"26":0.3205740451812744,"27":1.3239388465881348,"28":-0.30481773614883423,"29":-0.003344862023368478,"30":1.2904642820358276,"31":-1.9622979164123535,"32":-0.4324983060359955,"33":1.7836277484893799,"34":-1.489184021949768,"35":-2.202726364135742,"36":2.886284112930298,"37":1.783305287361145,"38":-2.5446040630340576,"39":-0.21497763693332672,"40":-1.3569731712341309,"41":3.557098388671875,"42":3.2412502765655518,"43":-1.65286123752594,"44":-2.869279623031616,"45":3.9548349380493164,"46":1.0611255168914795,"47":4.04748010635376,"48":0.5652307868003845,"49":2.8565568923950195,"50":1.0410606861114502,"51":-1.1281814575195312,"52":1.218679428100586,"53":-2.1353511810302734,"54":-2.8511743545532227,"55":0.6318742036819458,"56":2.6107945442199707,"57":0.673530638217926,"58":-0.9106168150901794,"59":0.9004570841789246,"60":-2.975281238555908,"61":-1.7460891008377075,"62":-1.1525919437408447,"63":1.9601036310195923,"64":-1.0821704864501953,"65":-0.5707531571388245,"66":0.8837383389472961,"67":0.4006521701812744,"68":2.130723237991333,"69":-0.0022381157614290714,"70":1.4222500324249268,"71":-1.3099526166915894,"72":-2.9729676246643066,"73":-1.0404620170593262,"74":-1.040837287902832,"75":-4.141263961791992,"76":0.2154882848262787,"77":3.4458186626434326,"78":-0.5357673764228821,"79":-1.7283735275268555,"80":-1.6445837020874023,"81":-2.2712206840515137,"82":1.5991123914718628,"83":0.9393358826637268,"84":-1.362180233001709,"85":-1.8374851942062378,"86":2.3910694122314453,"87":2.068988800048828,"88":-1.3041820526123047,"89":2.1456003189086914,"90":0.8090265989303589,"91":1.6940110921859741,"92":0.3987007737159729,"93":-1.502938985824585,"94":1.7968876361846924,"95":3.0105321407318115,"96":2.044177532196045,"97":-0.8129633665084839,"98":-2.4939792156219482,"99":0.32894444465637207}},"40":{"bias":1.0796507596969604,"weights":{"0":0.3751961588859558,"1":2.1334078311920166,"2":-1.1282892227172852,"3":-1.246212363243103,"4":1.075960636138916,"5":0.8630844950675964,"6":2.21492862701416,"7":2.4294848442077637,"8":-3.8627820014953613,"9":1.5173616409301758,"10":1.2790578603744507,